{"learner":{"attributes":{"best_iteration":"99","best_ntree_limit":"100","scikit_learn":"{\"n_estimators\": 100, \"objective\": \"reg:squarederror\", \"max_depth\": null, \"max_leaves\": null, \"max_bin\": null, \"grow_policy\": null, \"learning_rate\": null, \"verbosity\": null, \"booster\": \"gbtree\", \"tree_method\": null, \"gamma\": null, \"min_child_weight\": null, \"max_delta_step\": null, \"subsample\": null, \"sampling_method\": null, \"colsample_bytree\": null, \"colsample_bylevel\": null, \"colsample_bynode\": null, \"reg_alpha\": null, \"reg_lambda\": null, \"scale_pos_weight\": null, \"base_score\": null, \"missing\": NaN, \"num_parallel_tree\": null, \"random_state\": 42, \"n_jobs\": null, \"monotone_constraints\": null, \"interaction_constraints\": null, \"importance_type\": null, \"gpu_id\": null, \"validate_parameters\": null, \"predictor\": null, \"enable_categorical\": false, \"feature_types\": null, \"max_cat_to_onehot\": null, \"max_cat_threshold\": null, \"eval_metric\": null, \"early_stopping_rounds\": null, \"callbacks\": null, \"_estimator_type\": \"regressor\"}"},"feature_names":["middleband_21","upperband_21","lowerband_21","open","high","low","macd","macd_signal"],"feature_types":["float","float","float","float","float","float","float","float"],"gradient_booster":{"model":{"gbtree_model_param":{"num_parallel_tree":"1","num_trees":"100","size_leaf_vector":"0"},"tree_info":[0,0,0,0,0,0,0,0,0,0,0,0,0,0,0,0,0,0,0,0,0,0,0,0,0,0,0,0,0,0,0,0,0,0,0,0,0,0,0,0,0,0,0,0,0,0,0,0,0,0,0,0,0,0,0,0,0,0,0,0,0,0,0,0,0,0,0,0,0,0,0,0,0,0,0,0,0,0,0,0,0,0,0,0,0,0,0,0,0,0,0,0,0,0,0,0,0,0,0,0],"trees":[{"base_weights":[2.6104826E4],"categories":[],"categories_nodes":[],"categories_segments":[],"categories_sizes":[],"default_left":[0],"id":0,"left_children":[-1],"loss_changes":[0E0],"parents":[2147483647],"right_children":[-1],"split_conditions":[7.831448E3],"split_indices":[0],"split_type":[0],"sum_hessian":[1.0057E4],"tree_param":{"num_deleted":"0","num_feature":"8","num_nodes":"1","size_leaf_vector":"0"}},{"base_weights":[1.8274156E4],"categories":[],"categories_nodes":[],"categories_segments":[],"categories_sizes":[],"default_left":[0],"id":1,"left_children":[-1],"loss_changes":[0E0],"parents":[2147483647],"right_children":[-1],"split_conditions":[5.482247E3],"split_indices":[0],"split_type":[0],"sum_hessian":[1.0057E4],"tree_param":{"num_deleted":"0","num_feature":"8","num_nodes":"1","size_leaf_vector":"0"}},{"base_weights":[1.2792455E4,1.2738756E4,1.3135573E4],"categories":[],"categories_nodes":[],"categories_segments":[],"categories_sizes":[],"default_left":[1,0,0],"id":2,"left_children":[1,-1,-1],"loss_changes":[1.8087936E7,0E0,0E0],"parents":[2147483647,0,0],"right_children":[2,-1,-1],"split_conditions":[2.6251809E4,3.821627E3,3.940672E3],"split_indices":[3,0,0],"split_type":[0,0,0],"sum_hessian":[1.0057E4,8.729E3,1.328E3],"tree_param":{"num_deleted":"0","num_feature":"8","num_nodes":"3","size_leaf_vector":"0"}},{"base_weights":[8.95549E3,8.91378E3,9.17937E3],"categories":[],"categories_nodes":[],"categories_segments":[],"categories_sizes":[],"default_left":[1,0,0],"id":3,"left_children":[1,-1,-1],"loss_changes":[1.2189696E7,0E0,0E0],"parents":[2147483647,0,0],"right_children":[2,-1,-1],"split_conditions":[2.6181164E4,2.6741343E3,2.753811E3],"split_indices":[5,0,0],"split_type":[0,0,0],"sum_hessian":[1.0057E4,8.512E3,1.545E3],"tree_param":{"num_deleted":"0","num_feature":"8","num_nodes":"3","size_leaf_vector":"0"}},{"base_weights":[6.2693823E3,6.2136924E3,6.366835E3],"categories":[],"categories_nodes":[],"categories_segments":[],"categories_sizes":[],"default_left":[1,0,0],"id":4,"left_children":[1,-1,-1],"loss_changes":[1.5040512E7,0E0,0E0],"parents":[2147483647,0,0],"right_children":[2,-1,-1],"split_conditions":[2.6104074E4,1.8641078E3,1.9100505E3],"split_indices":[4,0,0],"split_type":[0,0,0],"sum_hessian":[1.0057E4,6.441E3,3.616E3],"tree_param":{"num_deleted":"0","num_feature":"8","num_nodes":"3","size_leaf_vector":"0"}},{"base_weights":[4.388943E3,4.3665845E3,4.5497383E3,4.203655E3,4.3848765E3],"categories":[],"categories_nodes":[],"categories_segments":[],"categories_sizes":[],"default_left":[1,1,0,0,0],"id":5,"left_children":[1,3,-1,-1,-1],"loss_changes":[1.630208E7,7.962624E6,0E0,0E0,0E0],"parents":[2147483647,0,0,1,1],"right_children":[2,4,-1,-1,-1],"split_conditions":[2.637479E4,2.5976074E4,1.3649215E3,1.2610964E3,1.315463E3],"split_indices":[5,4,0,0,0],"split_type":[0,0,0,0,0],"sum_hessian":[1.0057E4,8.854E3,1.203E3,9.17E2,7.937E3],"tree_param":{"num_deleted":"0","num_feature":"8","num_nodes":"5","size_leaf_vector":"0"}},{"base_weights":[3.072652E3,3.0126118E3,3.1066597E3,3.09002E3,3.2108875E3],"categories":[],"categories_nodes":[],"categories_segments":[],"categories_sizes":[],"default_left":[1,0,1,0,0],"id":6,"left_children":[1,-1,3,-1,-1],"loss_changes":[1.118208E7,0E0,1.159168E6,0E0,0E0],"parents":[2147483647,0,0,2,2],"right_children":[2,-1,4,-1,-1],"split_conditions":[2.605185E4,9.0378357E2,2.64298E4,9.2700604E2,9.632663E2],"split_indices":[4,0,5,0,0],"split_type":[0,0,0,0,0],"sum_hessian":[1.0057E4,3.669E3,6.388E3,5.535E3,8.53E2],"tree_param":{"num_deleted":"0","num_feature":"8","num_nodes":"5","size_leaf_vector":"0"}},{"base_weights":[2.1511345E3,1.9819358E3,2.1591848E3,2.1430408E3,2.2119075E3],"categories":[],"categories_nodes":[],"categories_segments":[],"categories_sizes":[],"default_left":[1,0,1,0,0],"id":7,"left_children":[1,-1,3,-1,-1],"loss_changes":[9.424896E6,0E0,3.424256E6,0E0,0E0],"parents":[2147483647,0,0,2,2],"right_children":[2,-1,4,-1,-1],"split_conditions":[2.5915814E4,5.9458075E2,2.6137455E4,6.4291223E2,6.6357227E2],"split_indices":[4,0,5,0,0],"split_type":[0,0,0,0,0],"sum_hessian":[1.0057E4,4.68E2,9.589E3,7.373E3,2.216E3],"tree_param":{"num_deleted":"0","num_feature":"8","num_nodes":"5","size_leaf_vector":"0"}},{"base_weights":[1.5059833E3,1.4445844E3,1.5193635E3,1.2272966E3,1.4530906E3,1.5134908E3,1.6292235E3],"categories":[],"categories_nodes":[],"categories_segments":[],"categories_sizes":[],"default_left":[1,1,1,0,0,0,0],"id":8,"left_children":[1,3,5,-1,-1,-1,-1],"loss_changes":[6.070272E6,1.580288E6,2.850816E6,0E0,0E0,0E0,0E0],"parents":[2147483647,0,0,1,1,2,2],"right_children":[2,4,6,-1,-1,-1,-1],"split_conditions":[2.601564E4,2.5757E4,2.6485266E4,3.68189E2,4.359272E2,4.5404727E2,4.8876706E2],"split_indices":[5,5,4,0,0,0,0],"split_type":[0,0,0,0,0,0,0],"sum_hessian":[1.0057E4,1.819E3,8.238E3,7.4E1,1.745E3,7.834E3,4.04E2],"tree_param":{"num_deleted":"0","num_feature":"8","num_nodes":"7","size_leaf_vector":"0"}},{"base_weights":[1.0543622E3,1.0336475E3,1.07558E3,9.3692365E2,1.0394794E3,1.0710469E3,1.1916174E3],"categories":[],"categories_nodes":[],"categories_segments":[],"categories_sizes":[],"default_left":[1,1,1,0,0,0,0],"id":9,"left_children":[1,3,5,-1,-1,-1,-1],"loss_changes":[3.309568E6,1.911296E6,1.324544E6,0E0,0E0,0E0,0E0],"parents":[2147483647,0,0,1,1,2,2],"right_children":[2,4,6,-1,-1,-1,-1],"split_conditions":[2.606651E4,2.5850324E4,2.65394E4,2.8107712E2,3.118438E2,3.213141E2,3.5748523E2],"split_indices":[5,5,4,0,0,0,0],"split_type":[0,0,0,0,0,0,0],"sum_hessian":[1.0057E4,5.114E3,4.943E3,3E2,4.814E3,4.767E3,1.76E2],"tree_param":{"num_deleted":"0","num_feature":"8","num_nodes":"7","size_leaf_vector":"0"}},{"base_weights":[7.381798E2,6.965434E2,7.444557E2,5.61092E2,7.021544E2,7.401393E2,7.9642706E2],"categories":[],"categories_nodes":[],"categories_segments":[],"categories_sizes":[],"default_left":[1,1,1,0,0,0,0],"id":10,"left_children":[1,3,5,-1,-1,-1,-1],"loss_changes":[2.109952E6,6.19072E5,1.368064E6,0E0,0E0,0E0,0E0],"parents":[2147483647,0,0,1,1,2,2],"right_children":[2,4,6,-1,-1,-1,-1],"split_conditions":[2.600868E4,2.5698496E4,2.6457195E4,1.683276E2,2.1064633E2,2.220418E2,2.3892813E2],"split_indices":[4,5,4,0,0,0,0],"split_type":[0,0,0,0,0,0,0],"sum_hessian":[1.0057E4,1.332E3,8.725E3,5.7E1,1.275E3,8.07E3,6.55E2],"tree_param":{"num_deleted":"0","num_feature":"8","num_nodes":"7","size_leaf_vector":"0"}},{"base_weights":[5.1681E2,4.960303E2,5.2406287E2,4.3436343E2,5.001571E2,5.224711E2,6.2725653E2,3.2535095E2,4.4270633E2,5.192933E2,5.4251196E2],"categories":[],"categories_nodes":[],"categories_segments":[],"categories_sizes":[],"default_left":[1,1,1,1,0,1,0,0,0,0,0],"id":11,"left_children":[1,3,5,7,-1,9,-1,-1,-1,-1,-1],"loss_changes":[1.255936E6,4.49792E5,8.93952E5,1.2398E4,0E0,1.85344E5,0E0,0E0,0E0,0E0,0E0],"parents":[2147483647,0,0,1,1,2,2,3,3,5,5],"right_children":[2,4,6,8,-1,10,-1,-1,-1,-1,-1],"split_conditions":[2.603253E4,2.5836984E4,2.6580523E4,2.5610275E4,1.5004713E2,2.640618E4,1.8817697E2,9.760529E1,1.328119E2,1.55788E2,1.627536E2],"split_indices":[5,4,4,5,0,4,0,0,0,0,0],"split_type":[0,0,0,0,0,0,0,0,0,0,0],"sum_hessian":[1.0057E4,2.62E3,7.437E3,1.71E2,2.449E3,7.33E3,1.07E2,1.5E1,1.56E2,6.35E3,9.8E2],"tree_param":{"num_deleted":"0","num_feature":"8","num_nodes":"11","size_leaf_vector":"0"}},{"base_weights":[3.6185577E2,3.5284967E2,3.713282E2,3.1945016E2,3.5556494E2,3.7011755E2,4.766817E2,2.6376047E2,3.2543585E2,3.670157E2,3.8201175E2],"categories":[],"categories_nodes":[],"categories_segments":[],"categories_sizes":[],"default_left":[1,1,1,1,0,1,0,0,0,0,0],"id":12,"left_children":[1,3,5,7,-1,9,-1,-1,-1,-1,-1],"loss_changes":[7.2704E5,3.5584E5,4.464E5,4.7164E4,0E0,3.808E4,0E0,0E0,0E0,0E0,0E0],"parents":[2147483647,0,0,1,1,2,2,3,3,5,5],"right_children":[2,4,6,8,-1,10,-1,-1,-1,-1,-1],"split_conditions":[2.607366E4,2.587887E4,2.6615734E4,2.566786E4,1.0666949E2,2.640509E4,1.4300452E2,7.912814E1,9.763076E1,1.1010471E2,1.1460353E2],"split_indices":[4,5,4,5,0,5,0,0,0,0,0],"split_type":[0,0,0,0,0,0,0,0,0,0,0],"sum_hessian":[1.0057E4,5.175E3,4.882E3,3.98E2,4.777E3,4.831E3,5.1E1,4.3E1,3.55E2,3.857E3,9.74E2],"tree_param":{"num_deleted":"0","num_feature":"8","num_nodes":"11","size_leaf_vector":"0"}},{"base_weights":[2.5336328E2,2.4070468E2,2.568746E2,2.0393839E2,2.4269049E2,2.5596556E2,3.1196725E2,7.933154E1,2.0647708E2,2.3304549E2,2.45892E2,2.5300789E2,2.6183414E2,2.9351794E2,3.7584082E2,2.5506042E2,2.4339209E2,2.5224591E2,2.6880365E2],"categories":[],"categories_nodes":[],"categories_segments":[],"categories_sizes":[],"default_left":[1,1,1,1,1,1,1,0,0,0,0,1,0,0,0,1,0,0,0],"id":13,"left_children":[1,3,5,7,9,11,13,-1,-1,-1,-1,15,-1,-1,-1,17,-1,-1,-1],"loss_changes":[3.8528E5,1.11136E5,3.13696E5,2.1264E4,6.984E3,6.8064E4,3.463E4,0E0,0E0,0E0,0E0,4.0064E4,0E0,0E0,0E0,9.632E4,0E0,0E0,0E0],"parents":[2147483647,0,0,1,1,2,2,3,3,4,4,5,5,6,6,11,11,15,15],"right_children":[2,4,6,8,10,12,14,-1,-1,-1,-1,16,-1,-1,-1,18,-1,-1,-1],"split_conditions":[2.6030766E4,2.5805414E4,2.6549455E4,2.5518025E4,2.5931434E4,2.612883E4,2.667393E4,2.3799463E1,6.1943127E1,6.991365E1,7.37676E1,2.6104074E4,7.855025E1,8.805539E1,1.1275225E2,2.608598E4,7.301763E1,7.5673775E1,8.06411E1],"split_indices":[4,5,5,5,5,4,4,0,0,0,0,4,0,0,0,4,0,0,0],"split_type":[0,0,0,0,0,0,0,0,0,0,0,0,0,0,0,0,0,0,0],"sum_hessian":[1.0057E4,2.199E3,7.858E3,1.18E2,2.081E3,7.736E3,1.22E2,3E0,1.15E2,5.37E2,1.544E3,5.173E3,2.563E3,9.9E1,2.3E1,4.242E3,9.31E2,3.537E3,7.05E2],"tree_param":{"num_deleted":"0","num_feature":"8","num_nodes":"19","size_leaf_vector":"0"}},{"base_weights":[1.7742755E2,1.7657613E2,2.0959602E2,1.602234E2,1.7777525E2,2.030065E2,2.7304138E2,1.19521416E2,1.617233E2,1.7433102E2,1.8044919E2,1.8047115E2,3.4137695E1],"categories":[],"categories_nodes":[],"categories_segments":[],"categories_sizes":[],"default_left":[1,1,1,1,1,0,0,0,0,0,1,0,0],"id":14,"left_children":[1,3,5,7,9,-1,-1,-1,-1,-1,11,-1,-1],"loss_changes":[2.38432E5,1.63776E5,5.0762E4,2.2184E4,5.2608E4,0E0,0E0,0E0,0E0,0E0,1.0256E4,0E0,0E0],"parents":[2147483647,0,0,1,1,2,2,3,3,4,4,10,10],"right_children":[2,4,6,8,10,-1,-1,-1,-1,-1,12,-1,-1],"split_conditions":[2.6505355E4,2.594884E4,2.6696281E4,2.5647E4,2.6060809E4,6.090195E1,8.1912415E1,3.5856426E1,4.851699E1,5.229931E1,2.6668613E4,5.4141346E1,1.0241309E1],"split_indices":[5,4,4,5,5,0,0,0,0,0,1,0,0],"split_type":[0,0,0,0,0,0,0,0,0,0,0,0,0],"sum_hessian":[1.0057E4,9.804E3,2.53E2,6.79E2,9.125E3,2.33E2,2E1,2.7E1,6.52E2,4.017E3,5.108E3,5.107E3,1E0],"tree_param":{"num_deleted":"0","num_feature":"8","num_nodes":"13","size_leaf_vector":"0"}},{"base_weights":[1.24233986E2,1.23610794E2,1.4733446E2,1.17204765E2,1.25223946E2,1.4103072E2,1.8623183E2,9.6265755E1,1.18286736E2,1.2367822E2,1.2849669E2,3.459082E1,9.7770096E1,1.253522E2,1.1505144E2,1.3400415E2,1.232914E2,1.23625824E2,1.3530653E2,1.093504E2,1.2007658E2,1.2932455E2,1.4976695E2,9.545662E1,1.3010365E2,1.25982445E2,1.21701004E2,9.97427E1,6.971108E1],"categories":[],"categories_nodes":[],"categories_segments":[],"categories_sizes":[],"default_left":[1,1,1,1,1,0,0,1,0,1,1,0,0,1,1,1,1,1,0,0,0,0,0,1,0,0,0,0,0],"id":15,"left_children":[1,3,5,7,9,-1,-1,11,-1,13,15,-1,-1,17,19,21,23,25,-1,-1,-1,-1,-1,27,-1,-1,-1,-1,-1],"loss_changes":[1.26576E5,8.6608E4,3.7242E4,3.3628E4,2.364E4,0E0,0E0,6.174375E3,0E0,6.26E4,5.4604E4,0E0,0E0,5.9848E4,1.2052E4,6.8704E4,2.31808E5,1.948E3,0E0,0E0,0E0,0E0,0E0,2.1406E4,0E0,0E0,0E0,0E0,0E0],"parents":[2147483647,0,0,1,1,2,2,3,3,4,4,7,7,9,9,10,10,13,13,14,14,15,15,16,16,17,17,23,23],"right_children":[2,4,6,8,10,-1,-1,12,-1,14,16,-1,-1,18,20,22,24,26,-1,-1,-1,-1,-1,28,-1,-1,-1,-1,-1],"split_conditions":[2.6516004E4,2.602645E4,2.6628066E4,2.581727E4,2.612092E4,4.2309216E1,5.586955E1,2.5518025E4,3.5486023E1,2.6104074E4,2.6181164E4,1.0377247E1,2.933103E1,2.6081516E4,2.6107746E4,2.616491E4,2.631555E4,2.605185E4,4.059196E1,3.2805122E1,3.6022976E1,3.8797367E1,4.4930088E1,2.6251809E4,3.9031097E1,3.7794735E1,3.6510303E1,2.9922812E1,2.0913326E1],"split_indices":[4,4,5,4,5,0,0,5,0,4,5,0,0,5,5,4,5,4,0,0,0,0,0,3,0,0,0,0,0],"split_type":[0,0,0,0,0,0,0,0,0,0,0,0,0,0,0,0,0,0,0,0,0,0,0,0,0,0,0,0,0],"sum_hessian":[1.0057E4,9.799E3,2.58E2,1.986E3,7.813E3,2.26E2,3.2E1,1.02E2,1.884E3,5.333E3,2.48E3,3E0,9.9E1,4.455E3,8.78E2,1.193E3,1.287E3,3.808E3,6.47E2,4.22E2,4.56E2,9.27E2,2.66E2,2.56E2,1.031E3,1.683E3,2.125E3,2.17E2,3.9E1],"tree_param":{"num_deleted":"0","num_feature":"8","num_nodes":"29","size_leaf_vector":"0"}},{"base_weights":[8.701666E1,8.6750275E1,1.1689669E2,8.2606346E1,8.8275734E1,1.4946967E2,1.07316154E2,7.436098E1,8.37712E1,8.7595535E1,9.257591E1,5.2878227E1,7.566859E1,8.777276E1,8.2430756E1,8.8426414E1,7.74738E1,9.893419E1,9.073573E1,2.8400782E1,5.6536594E1,1.8043945E1,7.5792274E1,8.2600494E1,1.0105033E2,6.85392E1,8.417328E1,8.740093E1,1.02904396E2,6.6295166E1,8.865566E1,8.064314E1,9.2055565E1,9.120991E1,7.860051E1,6.2735764E1,7.248502E1,8.683219E1,8.203348E1,9.1240616E1,8.654567E1,9.797962E1,1.10346825E2,6.943476E1,4.2179436E1,8.891414E1,1.344043E1,9.212242E1,2.3564453E1],"categories":[],"categories_nodes":[],"categories_segments":[],"categories_sizes":[],"default_left":[1,1,1,1,1,0,0,1,1,1,1,1,1,1,1,1,1,0,1,0,0,0,0,1,0,1,1,1,1,1,1,0,1,0,0,0,0,0,0,0,0,0,0,0,0,0,0,0,0],"id":16,"left_children":[1,3,5,7,9,-1,-1,11,13,15,17,19,21,23,25,27,29,-1,31,-1,-1,-1,-1,33,-1,35,37,39,41,43,45,-1,47,-1,-1,-1,-1,-1,-1,-1,-1,-1,-1,-1,-1,-1,-1,-1,-1],"loss_changes":[6.992E4,5.5752E4,1.079725E4,1.9694E4,1.3172E4,0E0,0E0,5.634E3,5.408E3,4.6132E4,2.443E3,4.5391406E2,9.20375E2,3.121E4,3.7367E4,7.7344E4,5.48715E4,0E0,2.8195E3,0E0,0E0,0E0,0E0,7.29475E3,0E0,1.24125E2,1.86E3,9.952E3,3.07925E3,1.5772625E4,3.470875E3,0E0,9.11E2,0E0,0E0,0E0,0E0,0E0,0E0,0E0,0E0,0E0,0E0,0E0,0E0,0E0,0E0,0E0,0E0],"parents":[2147483647,0,0,1,1,2,2,3,3,4,4,7,7,8,8,9,9,10,10,11,11,12,12,13,13,14,14,15,15,16,16,18,18,23,23,25,25,26,26,27,27,28,28,29,29,30,30,32,32],"right_children":[2,4,6,8,10,-1,-1,12,14,16,18,20,22,24,26,28,30,-1,32,-1,-1,-1,-1,34,-1,36,38,40,42,44,46,-1,48,-1,-1,-1,-1,-1,-1,-1,-1,-1,-1,-1,-1,-1,-1,-1,-1],"split_conditions":[2.6579965E4,2.6038074E4,2.650439E4,2.5875586E4,2.6409305E4,4.48409E1,3.2194847E1,2.5668625E4,2.5976074E4,2.6181164E4,2.64298E4,2.5617855E4,2.555234E4,2.594405E4,2.5985414E4,2.6158375E4,2.6327105E4,2.9680258E1,2.6440615E4,8.520235E0,1.696098E1,5.4131837E0,2.2737682E1,2.5915814E4,3.03151E1,2.5988324E4,2.601564E4,2.605185E4,2.6176605E4,2.6251809E4,2.648305E4,2.4192944E1,2.6708027E4,2.7362974E1,2.3580154E1,1.882073E1,2.1745508E1,2.6049658E1,2.4610044E1,2.7372187E1,2.5963701E1,2.9393888E1,3.310405E1,2.083043E1,1.26538315E1,2.6674242E1,4.0321293E0,2.7636728E1,7.0693364E0],"split_indices":[5,4,2,4,4,0,0,4,4,5,5,4,5,5,5,4,4,0,5,0,0,0,0,4,0,4,5,4,4,3,0,0,0,0,0,0,0,0,0,0,0,0,0,0,0,0,0,0,0],"split_type":[0,0,0,0,0,0,0,0,0,0,0,0,0,0,0,0,0,0,0,0,0,0,0,0,0,0,0,0,0,0,0,0,0,0,0,0,0,0,0,0,0,0,0,0,0,0,0,0,0],"sum_hessian":[1.0057E4,9.972E3,8.5E1,2.698E3,7.274E3,1.6E1,6.9E1,3.42E2,2.356E3,6.299E3,9.75E2,2.2E1,3.2E2,5.75E2,1.781E3,5.814E3,4.85E2,2.07E2,7.68E2,4E0,1.8E1,1E0,3.19E2,4.19E2,1.56E2,2.03E2,1.578E3,5.436E3,3.78E2,2.46E2,2.39E2,9.6E1,6.72E2,1.26E2,2.93E2,8.9E1,1.14E2,6.86E2,8.92E2,9.71E2,4.465E3,2.36E2,1.42E2,2.16E2,3E1,2.38E2,1E0,6.71E2,1E0],"tree_param":{"num_deleted":"0","num_feature":"8","num_nodes":"49","size_leaf_vector":"0"}},{"base_weights":[6.0968903E1,6.060653E1,7.331629E1,5.3633274E1,6.1078506E1,7.1324936E1,1.2034883E2,5.5529633E1,4.7739357E1,5.94335E1,6.228214E1,7.143988E1,2.0029297E1,5.304781E1,6.988006E1,4.023916E1,5.4557583E1,6.0703342E1,5.4795704E1,6.441222E1,6.1028362E1,4.2041653E1,5.4310303E1,5.5111717E1,5.1132812E0,5.9518574E1,6.6725334E1,5.1397858E1,5.7316475E1,6.2371227E1,7.161126E1,5.1550438E1,6.2961544E1,2.1585155E1,4.347596E1,1.5336914E1,5.4376328E1,6.730878E1,5.846662E1,9.790039E0,5.1484085E1,5.7474934E1,1.3121745E1,3.9911785E1,5.2520046E1,6.522102E1,6.0234337E1],"categories":[],"categories_nodes":[],"categories_segments":[],"categories_sizes":[],"default_left":[1,1,1,1,1,1,0,1,1,1,1,0,0,1,0,0,1,1,1,1,1,1,1,0,0,1,0,1,1,0,0,1,1,0,0,0,0,0,0,0,0,0,0,0,0,0,0],"id":17,"left_children":[1,3,5,7,9,11,-1,13,15,17,19,-1,-1,21,-1,-1,23,25,27,29,31,33,35,-1,-1,37,-1,39,41,-1,-1,43,45,-1,-1,-1,-1,-1,-1,-1,-1,-1,-1,-1,-1,-1,-1],"loss_changes":[4.056E4,2.8904E4,1.782775E4,4.36825E3,1.4416E4,1.79E2,0E0,1.2996625E4,5.98675E3,1.9571E4,1.0126E4,0E0,0E0,3.330375E3,0E0,0E0,1.9375156E3,1.7739E4,4.3005E3,2.39205E4,5.7804E4,4.112422E2,8.9875E1,0E0,0E0,1.6978E4,0E0,8.233125E2,2.58625E3,0E0,0E0,4.336375E3,1.3097E4,0E0,0E0,0E0,0E0,0E0,0E0,0E0,0E0,0E0,0E0,0E0,0E0,0E0,0E0],"parents":[2147483647,0,0,1,1,2,2,3,3,4,4,5,5,7,7,8,8,9,9,10,10,13,13,16,16,17,17,18,18,19,19,20,20,21,21,22,22,25,25,27,27,28,28,31,31,32,32],"right_children":[2,4,6,8,10,12,-1,14,16,18,20,-1,-1,22,-1,-1,24,26,28,30,32,34,36,-1,-1,38,-1,40,42,-1,-1,44,46,-1,-1,-1,-1,-1,-1,-1,-1,-1,-1,-1,-1,-1,-1],"split_conditions":[2.6511586E4,2.5926297E4,2.6749045E4,2.5915814E4,2.6058215E4,2.6710373E4,3.6104652E1,2.589886E4,2.5931969E4,2.605185E4,2.6104074E4,2.1431965E1,6.0087895E0,2.5697285E4,2.0964018E1,1.2071748E1,2.598514E4,2.6045574E4,2.6056875E4,2.6093078E4,2.6118064E4,2.5617855E4,2.5561121E4,1.6533516E1,1.5339844E0,2.5976074E4,2.0017601E1,2.5989525E4,2.6083773E4,1.8711369E1,2.148338E1,2.6092484E4,2.6181164E4,6.475547E0,1.30427885E1,4.601074E0,1.6312899E1,2.0192635E1,1.7539988E1,2.9370117E0,1.5445226E1,1.7242481E1,3.9365237E0,1.1973536E1,1.5756015E1,1.9566307E1,1.8070301E1],"split_indices":[4,5,4,4,5,0,0,4,4,4,4,0,0,4,0,0,3,4,4,4,4,4,5,0,0,4,0,5,3,0,0,5,5,0,0,0,0,0,0,0,0,0,0,0,0,0,0],"split_type":[0,0,0,0,0,0,0,0,0,0,0,0,0,0,0,0,0,0,0,0,0,0,0,0,0,0,0,0,0,0,0,0,0,0,0,0,0,0,0,0,0,0,0,0,0,0,0],"sum_hessian":[1.0057E4,9.776E3,2.81E2,6.27E2,9.149E3,2.72E2,9E0,4.68E2,1.59E2,3.887E3,5.262E3,2.71E2,1E0,4.03E2,6.5E1,7.9E1,8E1,3.042E3,8.45E2,1.931E3,3.331E3,4.5E1,3.58E2,7.9E1,1E0,2.551E3,4.91E2,3.69E2,4.76E2,1.512E3,4.19E2,5.69E2,2.762E3,4E0,4.1E1,1E0,3.57E2,2.96E2,2.255E3,1E0,3.68E2,4.74E2,2E0,4.7E1,5.22E2,1.498E3,1.264E3],"tree_param":{"num_deleted":"0","num_feature":"8","num_nodes":"47","size_leaf_vector":"0"}},{"base_weights":[4.2714134E1,4.2604065E1,6.921538E1,3.8792084E1,4.3132637E1,6.1045532E1,9.0573135E1,4.0820145E1,3.2720036E1,4.261991E1,4.621141E1,3.848882E1,5.204796E1,2.7506563E1,3.5862347E1,4.310992E1,2.8990286E1,5.7193825E1,4.5416904E1,3.3575535E1,3.965425E1,3.2228516E1,2.174047E1,3.6369644E1,2.420863E1,4.2649887E1,5.5276775E1,1.9262041E1,3.6207226E1,5.8895775E1,1.01328125E1,3.2955708E1,4.63432E1,3.373629E1,4.5703125E0,4.14978E1,3.7545944E1,2.5245869E1,3.5961525E1,1.2827637E1,2.5753706E1,3.6467487E1,9.330078E0,4.3125675E1,4.1256763E1,5.041298E1,5.879587E1,1.5403972E1,2.3051723E1,4.320121E1,2.076666E1,4.8727863E1,6.402372E1,3.334237E1,1.1401692E1,4.990519E1,4.51194E1],"categories":[],"categories_nodes":[],"categories_segments":[],"categories_sizes":[],"default_left":[1,1,1,1,1,0,0,1,1,1,1,1,0,1,1,1,1,1,1,1,1,1,1,1,0,1,1,1,1,1,0,1,1,0,0,0,0,0,0,0,0,0,0,0,0,0,0,0,0,0,0,0,0,0,0,0,0],"id":18,"left_children":[1,3,5,7,9,-1,-1,11,13,15,17,19,-1,21,23,25,27,29,31,33,35,37,39,41,-1,43,45,47,49,51,-1,53,55,-1,-1,-1,-1,-1,-1,-1,-1,-1,-1,-1,-1,-1,-1,-1,-1,-1,-1,-1,-1,-1,-1,-1,-1],"loss_changes":[2.6388E4,1.8512E4,1.4504844E3,1.381125E4,1.1907E4,0E0,0E0,2.2026E4,4.1412188E3,4.9161E4,8.2485E3,3.04325E3,0E0,2.6210625E3,2.5464062E2,3.8412E4,1.7907734E4,5.8108594E3,1.19085E4,5.592344E2,8.206875E2,7.864219E2,1.7442598E3,1.4123438E2,0E0,2.877E3,1.5203125E3,1.3263125E3,1.5409516E4,8.950625E2,0E0,3.1990625E2,2.4605E3,0E0,0E0,0E0,0E0,0E0,0E0,0E0,0E0,0E0,0E0,0E0,0E0,0E0,0E0,0E0,0E0,0E0,0E0,0E0,0E0,0E0,0E0,0E0,0E0],"parents":[2147483647,0,0,1,1,2,2,3,3,4,4,7,7,8,8,9,9,10,10,11,11,13,13,14,14,15,15,16,16,17,17,18,18,19,19,20,20,21,21,22,22,23,23,25,25,26,26,27,27,28,28,29,29,31,31,32,32],"right_children":[2,4,6,8,10,-1,-1,12,14,16,18,20,-1,22,24,26,28,30,32,34,36,38,40,42,-1,44,46,48,50,52,-1,54,56,-1,-1,-1,-1,-1,-1,-1,-1,-1,-1,-1,-1,-1,-1,-1,-1,-1,-1,-1,-1,-1,-1,-1,-1],"split_conditions":[2.664101E4,2.5992004E4,2.6755045E4,2.5976074E4,2.6352355E4,1.831366E1,2.7171942E1,2.5958715E4,2.5976727E4,2.6181164E4,2.6375004E4,2.5816996E4,1.5614388E1,2.5978309E4,2.6008525E4,2.6156504E4,2.620141E4,2.6640066E4,2.6391234E4,2.585214E4,2.5915814E4,2.5981426E4,2.5964574E4,3.560938E1,7.262589E0,2.6104074E4,2.6174148E4,2.618649E4,2.6251809E4,2.6368205E4,3.0398438E0,2.6417996E4,2.64298E4,1.0120888E1,1.3710938E0,1.244934E1,1.1263783E1,7.573761E0,1.0788458E1,3.8482912E0,7.726112E0,1.0940247E1,2.7990236E0,1.2937703E1,1.2377029E1,1.5123895E1,1.7638762E1,4.6211915E0,6.9155173E0,1.2960363E1,6.2299986E0,1.461836E1,1.9207117E1,1.0002711E1,3.420508E0,1.4971558E1,1.3535821E1],"split_indices":[4,5,4,4,4,0,0,4,5,5,5,5,0,3,3,5,4,1,5,3,4,4,5,7,0,4,4,5,3,4,0,3,5,0,0,0,0,0,0,0,0,0,0,0,0,0,0,0,0,0,0,0,0,0,0,0,0],"split_type":[0,0,0,0,0,0,0,0,0,0,0,0,0,0,0,0,0,0,0,0,0,0,0,0,0,0,0,0,0,0,0,0,0,0,0,0,0,0,0,0,0,0,0,0,0,0,0,0,0,0,0,0,0,0,0,0,0],"sum_hessian":[1.0057E4,1.0018E4,3.9E1,1.229E3,8.789E3,3.1E1,8E0,9.17E2,3.12E2,7.547E3,1.242E3,7.63E2,1.54E2,1.21E2,1.91E2,7.283E3,2.64E2,7.9E1,1.163E3,1.52E2,6.11E2,6.4E1,5.7E1,1.81E2,1E1,7.022E3,2.61E2,1.14E2,1.5E2,7.6E1,3E0,8.3E1,1.08E3,1.51E2,1E0,3.16E2,2.95E2,2.5E1,3.9E1,1.9E1,3.8E1,1.8E2,1E0,5.212E3,1.81E3,1.16E2,1.45E2,5.9E1,5.5E1,1.02E2,4.8E1,2.9E1,4.7E1,8.1E1,2E0,2.66E2,8.14E2],"tree_param":{"num_deleted":"0","num_feature":"8","num_nodes":"57","size_leaf_vector":"0"}},{"base_weights":[2.9931396E1,2.9812546E1,4.4950108E1,2.8498453E1,3.0936749E1,4.1498188E1,6.642036E1,2.9222725E1,2.5658527E1,3.2475548E1,3.0133625E1,4.1806786E1,1.0256836E1,2.8394436E1,3.4322433E1,2.0571236E1,2.6994837E1,3.119933E1,3.887175E1,2.3435638E1,3.1492126E1,2.4696856E1,2.8784685E1,2.4395103E1,1.6696146E1,2.5086798E1,2.841611E1,2.9916912E1,3.268721E1,3.6014984E1,4.0931244E1,1.4855642E1,2.408674E1,3.2880116E1,3.0080826E1,1.2210742E1,2.5030735E1,3.0514526E1,2.8299095E1,3.6835938E0,2.4568857E1,5.8303785E0,1.8064926E1,3.301031E1,2.8177326E1,3.612106E1,3.1960934E1,2.6759766E1,7.3651E0,2.391849E1,5.8817383E1,3.1750818E1,4.056474E1,1.4420601E1,3.1718428E1],"categories":[],"categories_nodes":[],"categories_segments":[],"categories_sizes":[],"default_left":[1,1,1,1,1,1,0,1,1,1,1,0,0,1,0,1,1,1,1,1,1,1,1,1,1,0,0,1,1,0,0,1,1,1,1,0,0,0,0,0,0,0,0,0,0,0,0,0,0,0,0,0,0,0,0],"id":19,"left_children":[1,3,5,7,9,11,-1,13,15,17,19,-1,-1,21,-1,23,25,27,29,31,33,35,37,39,41,-1,-1,43,45,-1,-1,47,49,51,53,-1,-1,-1,-1,-1,-1,-1,-1,-1,-1,-1,-1,-1,-1,-1,-1,-1,-1,-1,-1],"loss_changes":[1.6612E4,1.3865E4,2.9504219E3,8.7425E3,5.6555E3,2.3642188E2,0E0,1.452775E4,5.8758125E3,1.3709125E4,3.14825E4,0E0,0E0,3.85325E3,0E0,2.5710781E3,1.310125E3,1.9395E3,2.9090625E2,2.999625E3,4.772E3,9.8253125E2,1.53475E3,2.6576953E2,1.4265762E3,0E0,0E0,3.552375E3,5.8375E2,0E0,0E0,3.8154863E3,1.848E3,1.1486375E4,3.7241125E4,0E0,0E0,0E0,0E0,0E0,0E0,0E0,0E0,0E0,0E0,0E0,0E0,0E0,0E0,0E0,0E0,0E0,0E0,0E0,0E0],"parents":[2147483647,0,0,1,1,2,2,3,3,4,4,5,5,7,7,8,8,9,9,10,10,13,13,15,15,16,16,17,17,18,18,19,19,20,20,21,21,22,22,23,23,24,24,27,27,28,28,31,31,32,32,33,33,34,34],"right_children":[2,4,6,8,10,12,-1,14,16,18,20,-1,-1,22,-1,24,26,28,30,32,34,36,38,40,42,-1,-1,44,46,-1,-1,48,50,52,54,-1,-1,-1,-1,-1,-1,-1,-1,-1,-1,-1,-1,-1,-1,-1,-1,-1,-1,-1,-1],"split_conditions":[2.6602004E4,2.6065045E4,2.6755045E4,2.605185E4,2.6104074E4,2.6710373E4,1.9926107E1,2.6041129E4,2.604926E4,2.609077E4,2.6111555E4,1.2542036E1,3.077051E0,2.5867037E4,1.029673E1,2.6049559E4,2.605872E4,2.6079285E4,2.609491E4,2.608916E4,2.6181164E4,2.563332E4,2.5976074E4,2.5935855E4,2.603659E4,7.5260396E0,8.524833E0,2.6066545E4,2.6078285E4,1.0804496E1,1.2279374E1,2.609316E4,2.619604E4,2.6162455E4,2.620908E4,3.6632228E0,7.5092206E0,9.154358E0,8.489729E0,1.1050782E0,7.3706574E0,1.7491137E0,5.419478E0,9.903093E0,8.453198E0,1.0836318E1,9.588281E0,8.02793E0,2.20953E0,7.175547E0,1.7645216E1,9.525246E0,1.2169422E1,4.3261805E0,9.515529E0],"split_indices":[4,4,4,4,4,0,0,5,5,5,5,0,0,0,0,3,4,4,5,5,5,4,4,0,5,0,0,3,3,0,0,3,4,5,4,0,0,0,0,0,0,0,0,0,0,0,0,0,0,0,0,0,0,0,0],"split_type":[0,0,0,0,0,0,0,0,0,0,0,0,0,0,0,0,0,0,0,0,0,0,0,0,0,0,0,0,0,0,0,0,0,0,0,0,0,0,0,0,0,0,0,0,0,0,0,0,0,0,0,0,0,0,0],"sum_hessian":[1.0057E4,9.981E3,7.6E1,4.614E3,5.367E3,6.8E1,8E0,3.669E3,9.45E2,1.827E3,3.54E3,6.7E1,1E0,3.162E3,5.07E2,2E2,7.45E2,1.528E3,2.99E2,6E2,2.94E3,3.08E2,2.854E3,9.8E1,1.02E2,3.26E2,4.19E2,8.32E2,6.96E2,1.33E2,1.66E2,4.4E1,5.56E2,1.471E3,1.469E3,9E0,2.99E2,6.12E2,2.242E3,1E0,9.7E1,1.2E1,9E1,2.93E2,5.39E2,1.13E2,5.83E2,1.6E1,2.8E1,5.55E2,1E0,1.287E3,1.84E2,1.4E2,1.329E3],"tree_param":{"num_deleted":"0","num_feature":"8","num_nodes":"55","size_leaf_vector":"0"}},{"base_weights":[2.097557E1,2.080525E1,2.6806232E1,2.0921516E1,1.1585686E1,2.5898422E1,4.890879E1,2.0786463E1,3.2450283E1,8.381621E0,1.7426327E1,2.8953962E1,2.3846766E1,1.9038412E1,5.3996582E1,1.7649536E1,2.0994156E1,7.228747E0,1.9701172E1,1.2986772E1,2.1073774E1,2.487874E1,3.3453625E1,1.1565625E1,2.6308105E1,1.9325771E1,1.1513627E1,2.4535578E1,2.0860376E1,3.0526495E0,8.8735895E0,8.197917E0,2.2662891E1,5.6464844E0,2.1539528E1,8.154079E0,1.5399639E1,1.3463541E0,2.6660114E1,1.7992262E1,2.9240849E1,7.348566E0,1.647186E1,2.2606396E1,3.1352453E1,1.1492707E1,2.1028135E1,7.4483175E0,-2.4197443E0,1.0953331E1,7.5294595E0,1.15304985E1,-5.205078E-1,6.917318E0,2.6899586E1],"categories":[],"categories_nodes":[],"categories_segments":[],"categories_sizes":[],"default_left":[1,1,1,1,1,1,1,1,0,1,1,1,1,0,0,1,1,1,1,0,1,0,0,1,1,1,1,1,1,1,1,0,0,0,0,1,0,0,1,0,0,0,0,0,0,0,0,0,0,0,0,0,0,0,0],"id":20,"left_children":[1,3,5,7,9,11,13,15,-1,17,19,21,23,-1,-1,25,27,29,31,-1,33,-1,-1,35,37,39,41,43,45,47,49,-1,-1,-1,-1,51,-1,-1,53,-1,-1,-1,-1,-1,-1,-1,-1,-1,-1,-1,-1,-1,-1,-1,-1],"loss_changes":[9.431E3,1.0238E4,4.3916406E3,1.4357E4,2.1744492E3,1.0209531E3,4.9173242E2,5.8485E3,0E0,9.27687E2,4.226211E2,1.093125E3,4.8042734E3,0E0,0E0,5.9383438E3,3.72675E3,4.9495776E2,5.2697266E1,0E0,3.64541E1,0E0,0E0,2.6682788E2,1.19425E3,5.6749375E3,2.5842832E3,3.4995469E3,1.331725E4,5.7128406E2,6.848096E1,0E0,0E0,0E0,0E0,5.3320447E2,0E0,0E0,4.66375E2,0E0,0E0,0E0,0E0,0E0,0E0,0E0,0E0,0E0,0E0,0E0,0E0,0E0,0E0,0E0,0E0],"parents":[2147483647,0,0,1,1,2,2,3,3,4,4,5,5,6,6,7,7,9,9,10,10,11,11,12,12,15,15,16,16,17,17,18,18,20,20,23,23,24,24,25,25,26,26,27,27,28,28,29,29,30,30,35,35,38,38],"right_children":[2,4,6,8,10,12,14,16,-1,18,20,22,24,-1,-1,26,28,30,32,-1,34,-1,-1,36,38,40,42,44,46,48,50,-1,-1,-1,-1,52,-1,-1,54,-1,-1,-1,-1,-1,-1,-1,-1,-1,-1,-1,-1,-1,-1,-1,-1],"split_conditions":[2.6497635E4,2.6485266E4,2.6703898E4,2.646654E4,2.648744E4,2.653804E4,2.6571777E4,2.593957E4,9.7350855E0,2.651173E4,2.649691E4,2.65252E4,2.6553795E4,5.711524E0,1.6198975E1,2.5915814E4,2.5976074E4,2.6476621E4,2.420528E0,3.8960316E0,2.6418629E4,7.4636226E0,1.0036088E1,2.6545969E4,2.6521914E4,2.5900016E4,2.591581E4,2.5955871E4,2.5993129E4,2.6478762E4,2.6485936E4,2.4593751E0,6.7988677E0,1.6939454E0,6.4618587E0,2.6540594E4,4.619892E0,4.0390626E-1,-1.7524338E1,5.397679E0,8.772255E0,2.2045698E0,4.9415584E0,6.781919E0,9.405736E0,3.4478123E0,6.3084407E0,2.2344954E0,-7.259233E-1,3.2859995E0,2.258838E0,3.4591496E0,-1.5615235E-1,2.0751956E0,8.069876E0],"split_indices":[5,4,5,5,5,4,0,4,0,4,4,4,4,0,0,4,4,5,7,0,2,0,0,4,5,4,5,5,4,3,3,0,0,0,0,3,0,0,7,0,0,0,0,0,0,0,0,0,0,0,0,0,0,0,0],"split_type":[0,0,0,0,0,0,0,0,0,0,0,0,0,0,0,0,0,0,0,0,0,0,0,0,0,0,0,0,0,0,0,0,0,0,0,0,0,0,0,0,0,0,0,0,0,0,0,0,0,0,0,0,0,0,0],"sum_hessian":[1.0057E4,9.776E3,2.81E2,9.653E3,1.23E2,2.72E2,9E0,9.544E3,1.09E2,8.1E1,4.2E1,1.04E2,1.68E2,2E0,7E0,5.98E2,8.946E3,7.5E1,6E0,2.1E1,2.1E1,5.8E1,4.6E1,2.9E1,1.39E2,4.68E2,1.3E2,3.19E2,8.627E3,2.2E1,5.3E1,2E0,4E0,1E0,2E1,1.7E1,1.2E1,2E0,1.37E2,4.15E2,5.3E1,7.2E1,5.8E1,2.52E2,6.7E1,1.53E2,8.474E3,1.2E1,1E1,1.8E1,3.5E1,1.2E1,5E0,2E0,1.35E2],"tree_param":{"num_deleted":"0","num_feature":"8","num_nodes":"55","size_leaf_vector":"0"}},{"base_weights":[1.4697015E1,1.3939139E1,1.5628476E1,1.397335E1,-1.7196515E0,1.8290077E1,1.4955964E1,9.97294E0,1.4051758E1,-8.3199215E0,2.138238E0,1.6971148E1,2.1768463E1,1.0636755E1,1.6007465E1,1.41328125E1,1.0295138E0,1.4490525E1,1.3210508E1,-2.9296875E-3,-1.03984375E1,4.0206474E-1,5.4765625E0,1.640034E1,1.8459387E1,2.1872662E1,6.0722656E0,7.2239347E0,1.1874616E1,1.5865943E1,2.8169067E1,9.216002E0,3.0365694E1,-1.1770752E1,4.525121E0,1.3824371E1,1.7323408E1,1.0424911E1,1.4501425E1,1.4072266E0,-7.036133E-1,1.7228134E1,1.4760271E1,2.0703737E1,2.4361301E1,1.0036636E1,4.3947525E0,1.0332444E1,1.3032828E1,1.811465E1,1.51598835E1,2.4242794E1,4.9592285E1,2.0021484E1,8.066122E0,1.2426106E1,2.3613281E0,1.4558876E1,1.27595415E1,1.6451977E1,1.9677359E1,1.1446133E1,8.194219E0,1.5335232E1,1.2833053E1,9.472656E-2,-1.0013021E0,1.5239673E1,1.7824137E1,1.2366339E1,1.6234987E1,2.300228E1,1.8301702E1,-3.915625E0,1.0692951E1,1.1362965E0,6.299148E0,9.381923E0,1.0877477E1,1.5605539E1,1.2383534E1,1.5401231E1,2.2142967E1,8.9818535E0,1.5903358E1],"categories":[],"categories_nodes":[],"categories_segments":[],"categories_sizes":[],"default_left":[1,1,1,1,1,1,1,1,1,1,1,1,1,1,1,1,1,1,1,0,0,1,0,1,0,1,0,1,1,1,1,1,0,0,1,1,1,1,1,0,1,1,1,1,0,1,1,1,1,1,1,0,0,0,0,0,0,0,0,0,0,0,0,0,0,0,0,0,0,0,0,0,0,0,0,0,0,0,0,0,0,0,0,0,0],"id":21,"left_children":[1,3,5,7,9,11,13,15,17,19,21,23,25,27,29,31,33,35,37,-1,-1,39,-1,41,-1,43,-1,45,47,49,51,53,-1,-1,55,57,59,61,63,-1,65,67,69,71,-1,73,75,77,79,81,83,-1,-1,-1,-1,-1,-1,-1,-1,-1,-1,-1,-1,-1,-1,-1,-1,-1,-1,-1,-1,-1,-1,-1,-1,-1,-1,-1,-1,-1,-1,-1,-1,-1,-1],"loss_changes":[6.88225E3,2.99975E3,7.788375E3,1.5985E3,3.4881046E2,3.7779062E3,1.618425E4,4.077838E3,1.81425E3,8.640454E1,4.9961254E1,2.5792188E2,2.6789062E2,2.9052266E3,4.534E3,5.706199E3,1.6640734E3,6.480625E3,6.5876875E3,0E0,0E0,8.76984E0,0E0,4.0551562E2,0E0,2.0251562E2,0E0,1.4758018E3,7.905703E2,4.2710625E3,1.489375E3,5.715796E2,0E0,0E0,4.664447E2,2.073E3,1.0588594E3,1.2661953E3,1.581E3,0E0,1.0454772E0,1.0405469E2,3.9939844E2,5.2866406E2,0E0,9.11791E2,5.9476514E2,1.5548828E1,2.9452344E2,7.0807656E3,9.893344E3,0E0,0E0,0E0,0E0,0E0,0E0,0E0,0E0,0E0,0E0,0E0,0E0,0E0,0E0,0E0,0E0,0E0,0E0,0E0,0E0,0E0,0E0,0E0,0E0,0E0,0E0,0E0,0E0,0E0,0E0,0E0,0E0,0E0,0E0],"parents":[2147483647,0,0,1,1,2,2,3,3,4,4,5,5,6,6,7,7,8,8,9,9,10,10,11,11,12,12,13,13,14,14,15,15,16,16,17,17,18,18,21,21,23,23,25,25,27,27,28,28,29,29,30,30,31,31,34,34,35,35,36,36,37,37,38,38,40,40,41,41,42,42,43,43,45,45,46,46,47,47,48,48,49,49,50,50],"right_children":[2,4,6,8,10,12,14,16,18,20,22,24,26,28,30,32,34,36,38,-1,-1,40,-1,42,-1,44,-1,46,48,50,52,54,-1,-1,56,58,60,62,64,-1,66,68,70,72,-1,74,76,78,80,82,84,-1,-1,-1,-1,-1,-1,-1,-1,-1,-1,-1,-1,-1,-1,-1,-1,-1,-1,-1,-1,-1,-1,-1,-1,-1,-1,-1,-1,-1,-1,-1,-1,-1,-1],"split_conditions":[2.6075219E4,2.609316E4,2.6104074E4,2.5801695E4,2.6024605E4,2.6097285E4,2.6122871E4,2.5757E4,2.605185E4,2.6061309E4,2.6073023E4,2.6088775E4,2.619966E4,2.6103295E4,2.665436E4,2.5712996E4,2.579546E4,2.6042836E4,2.6054781E4,-8.789063E-4,-3.1195314E0,2.6171855E4,1.6429688E0,2.6085754E4,5.537816E0,2.6098125E4,1.8216797E0,2.610409E4,2.611196E4,2.6137555E4,2.680529E4,-6.006099E1,9.109709E0,-3.5312257E0,-3.3268616E1,2.601564E4,2.6047035E4,2.6054795E4,2.606653E4,4.22168E-1,2.6175312E4,2.6077219E4,2.608564E4,2.6097395E4,7.3083906E0,-1.4215593E1,2.6096426E4,2.6108164E4,2.6111621E4,2.6135074E4,2.614616E4,7.2728386E0,1.48776865E1,6.0064454E0,2.4198368E0,3.727832E0,7.0839846E-1,4.367663E0,3.8278625E0,4.935593E0,5.903208E0,3.43384E0,2.4582658E0,4.6005697E0,3.849916E0,2.841797E-2,-3.0039066E-1,4.571902E0,5.3472414E0,3.7099018E0,4.8704963E0,6.900684E0,5.490511E0,-1.1746876E0,3.2078855E0,3.4088898E-1,1.8897445E0,2.8145769E0,3.2632432E0,4.681662E0,3.7150605E0,4.6203694E0,6.6428905E0,2.6945562E0,4.7710075E0],"split_indices":[5,3,4,5,2,4,4,5,4,0,5,5,1,5,4,5,4,4,5,0,0,1,0,3,0,5,0,3,4,5,4,6,0,0,7,5,5,3,5,0,1,5,5,3,0,6,5,4,3,4,5,0,0,0,0,0,0,0,0,0,0,0,0,0,0,0,0,0,0,0,0,0,0,0,0,0,0,0,0,0,0,0,0,0,0],"split_type":[0,0,0,0,0,0,0,0,0,0,0,0,0,0,0,0,0,0,0,0,0,0,0,0,0,0,0,0,0,0,0,0,0,0,0,0,0,0,0,0,0,0,0,0,0,0,0,0,0,0,0,0,0,0,0,0,0,0,0,0,0,0,0,0,0,0,0,0,0,0,0,0,0,0,0,0,0,0,0,0,0,0,0,0,0],"sum_hessian":[1.0057E4,5.554E3,4.503E3,5.542E3,1.2E1,9.03E2,3.6E3,1.09E2,5.433E3,4E0,8E0,6.59E2,2.44E2,7.07E2,2.893E3,7.4E1,3.5E1,3.56E3,1.873E3,1E0,3E0,6E0,2E0,4.85E2,1.74E2,2.42E2,2E0,1.9E2,5.17E2,2.862E3,3.1E1,5.8E1,1.6E1,7E0,2.8E1,2.887E3,6.73E2,5.96E2,1.277E3,3E0,3E0,3.16E2,1.69E2,1.71E2,7.1E1,9.4E1,9.6E1,2.26E2,2.91E2,6.78E2,2.184E3,2.8E1,3E0,4E0,5.4E1,5E0,2.3E1,1.701E3,1.186E3,4.97E2,1.76E2,4.06E2,1.9E2,8.46E2,4.31E2,1E0,2E0,7.9E1,2.37E2,6.8E1,1.01E2,8.3E1,8.8E1,4E0,9E1,3.6E1,6E1,8.9E1,1.37E2,5.4E1,2.37E2,4.08E2,2.7E2,2.36E2,1.948E3],"tree_param":{"num_deleted":"0","num_feature":"8","num_nodes":"85","size_leaf_vector":"0"}},{"base_weights":[1.0303412E1,9.585537E0,1.0871345E1,1.0061739E1,7.33842E0,1.0780677E1,1.7329178E1,9.553091E0,1.24103E1,3.2768743E0,7.9497046E0,1.1607832E1,1.0312446E1,1.5935333E1,3.843457E1,8.7861805E0,1.0087956E1,1.1718547E1,1.39081545E1,6.8812423E0,-1.8793403E-1,6.075657E0,8.297417E0,1.0941495E1,1.4598166E1,7.062226E0,1.1017267E1,2.1651562E1,1.4211964E1,9.906741E0,5.6612973E0,1.2760644E1,8.824078E0,3.761374E0,8.2E0,-4.361468E0,1.2417588E0,3.5019531E0,6.2165694E0,9.634355E0,8.013159E0,1.4916143E1,1.0655818E1,1.3595112E1,1.6754244E1,6.93588E0,4.351953E1,1.2228916E1,9.824487E0,9.850993E0,1.67245E1,8.488788E0,1.4560116E1,5.1267333E0,1.8384315E1,1.14195385E1,1.6769447E1,5.339772E0,1.0112746E1,1.019043E0,5.5791016E0,-1.7402344E0,8.543543E0,3.59375E-1,-5.1782227E0,5.664551E0,7.4352384E-1,4.663574E0,1.8722656E0,7.366728E0,1.0000371E1,5.787307E0,8.503076E0,-2.2526042E-1,1.52066965E1,4.1620207E0,1.0841176E1,1.703607E1,1.240072E1,7.4117856E0,1.7997869E0,1.0786809E1,1.5425921E1,8.129748E-2,1.1182886E1,1.3320964E1,5.8901744E0,1.8612143E1,1.1953125E1],"categories":[],"categories_nodes":[],"categories_segments":[],"categories_sizes":[],"default_left":[1,1,1,1,1,1,1,1,1,1,1,1,1,1,0,1,1,0,0,1,1,1,1,1,1,1,1,0,1,1,1,1,1,1,1,1,1,1,0,1,1,1,1,1,0,1,0,1,1,1,1,0,0,0,0,0,0,0,0,0,0,0,0,0,0,0,0,0,0,0,0,0,0,0,0,0,0,0,0,0,0,0,0,0,0,0,0,0,0],"id":22,"left_children":[1,3,5,7,9,11,13,15,17,19,21,23,25,27,-1,29,31,-1,-1,33,35,37,39,41,43,45,47,-1,49,51,53,55,57,59,61,63,65,67,-1,69,71,73,75,77,-1,79,-1,81,83,85,87,-1,-1,-1,-1,-1,-1,-1,-1,-1,-1,-1,-1,-1,-1,-1,-1,-1,-1,-1,-1,-1,-1,-1,-1,-1,-1,-1,-1,-1,-1,-1,-1,-1,-1,-1,-1,-1,-1],"loss_changes":[3.9965E3,4.6890938E3,3.09675E3,4.265625E3,1.9154688E3,2.02325E3,1.6232754E3,1.1505312E3,5.1051562E2,1.3000914E3,3.9203906E2,3.8095E3,8.0362812E3,4.1142578E2,0E0,4.3174453E3,5.8765156E3,0E0,0E0,1.7898853E2,3.2762692E2,1.8123047E1,1.3941797E2,1.6952812E3,5.5078906E2,2.6185E3,4.0840312E3,0E0,4.817168E2,5.933617E3,2.1637695E3,2.8568203E3,5.3655625E3,7.905643E1,1.343894E2,5.5841736E1,8.613542E1,6.413185E0,0E0,5.1796875E0,4.6985938E2,4.741582E2,1.7928906E3,8.203125E2,0E0,1.5338984E3,0E0,6.468E3,1.9467984E4,2.5139111E2,1.01765625E2,0E0,0E0,0E0,0E0,0E0,0E0,0E0,0E0,0E0,0E0,0E0,0E0,0E0,0E0,0E0,0E0,0E0,0E0,0E0,0E0,0E0,0E0,0E0,0E0,0E0,0E0,0E0,0E0,0E0,0E0,0E0,0E0,0E0,0E0,0E0,0E0,0E0,0E0],"parents":[2147483647,0,0,1,1,2,2,3,3,4,4,5,5,6,6,7,7,8,8,9,9,10,10,11,11,12,12,13,13,15,15,16,16,19,19,20,20,21,21,22,22,23,23,24,24,25,25,26,26,28,28,29,29,30,30,31,31,32,32,33,33,34,34,35,35,36,36,37,37,39,39,40,40,41,41,42,42,43,43,45,45,47,47,48,48,49,49,50,50],"right_children":[2,4,6,8,10,12,14,16,18,20,22,24,26,28,-1,30,32,-1,-1,34,36,38,40,42,44,46,48,-1,50,52,54,56,58,60,62,64,66,68,-1,70,72,74,76,78,-1,80,-1,82,84,86,88,-1,-1,-1,-1,-1,-1,-1,-1,-1,-1,-1,-1,-1,-1,-1,-1,-1,-1,-1,-1,-1,-1,-1,-1,-1,-1,-1,-1,-1,-1,-1,-1,-1,-1,-1,-1,-1,-1],"split_conditions":[2.6062734E4,2.605185E4,2.660269E4,2.6039496E4,2.604549E4,2.6104074E4,2.680529E4,2.5993969E4,2.604844E4,2.6047055E4,2.605398E4,2.6094105E4,2.6112725E4,2.6603564E4,1.1530372E1,2.5976074E4,2.601564E4,3.5155642E0,4.1724467E0,2.605355E4,2.603659E4,2.6046469E4,2.60535E4,2.6059996E4,2.6096906E4,2.620254E4,2.6181164E4,6.4954686E0,2.664101E4,2.595259E4,2.602423E4,2.601892E4,2.6023955E4,2.6056203E4,2.5935855E4,2.6015844E4,-1.3246771E1,2.6051145E4,1.8649709E0,2.6055186E4,2.6052984E4,-1.8652222E1,2.6053115E4,2.6091266E4,5.0262733E0,2.611816E4,1.305586E1,2.6154004E4,2.6221395E4,2.6615734E4,2.6698016E4,2.5466363E0,4.368035E0,1.53802E0,5.515295E0,3.4258616E0,5.030834E0,1.6019317E0,3.033824E0,3.057129E-1,1.6737305E0,-5.2207035E-1,2.563063E0,1.078125E-1,-1.5534669E0,1.6993653E0,2.2305717E-1,1.3990723E0,5.616797E-1,2.2100184E0,3.0001113E0,1.7361921E0,2.5509229E0,-6.757813E-2,4.5620093E0,1.2486062E0,3.252353E0,5.1108212E0,3.720216E0,2.2235358E0,5.399361E-1,3.2360427E0,4.6277766E0,2.4389245E-2,3.354866E0,3.9962893E0,1.7670524E0,5.583643E0,3.5859377E0],"split_indices":[4,4,4,5,5,4,4,5,4,3,4,4,5,3,0,4,5,0,0,4,5,5,3,3,5,4,5,0,4,4,4,4,5,1,0,5,6,0,0,4,5,7,5,3,0,3,0,4,4,4,3,0,0,0,0,0,0,0,0,0,0,0,0,0,0,0,0,0,0,0,0,0,0,0,0,0,0,0,0,0,0,0,0,0,0,0,0,0,0],"split_type":[0,0,0,0,0,0,0,0,0,0,0,0,0,0,0,0,0,0,0,0,0,0,0,0,0,0,0,0,0,0,0,0,0,0,0,0,0,0,0,0,0,0,0,0,0,0,0,0,0,0,0,0,0,0,0,0,0,0,0,0,0,0,0,0,0,0,0,0,0,0,0,0,0,0,0,0,0,0,0,0,0,0,0,0,0,0,0,0,0],"sum_hessian":[1.0057E4,4.45E3,5.607E3,3.669E3,7.81E2,5.532E3,7.5E1,3.02E3,6.49E2,1.03E2,6.78E2,1.991E3,3.541E3,7.2E1,3E0,1.248E3,1.772E3,4.5E2,1.99E2,5E1,5.3E1,1.09E2,5.69E2,1.632E3,3.59E2,6.33E2,2.908E3,1.4E1,5.8E1,9.17E2,3.31E2,5.66E2,1.206E3,1.6E1,3.4E1,1.3E1,4E1,7E0,1.02E2,9.4E1,4.75E2,1.06E2,1.526E3,2.5E2,1.09E2,6.32E2,1E0,1.438E3,1.47E3,2.3E1,3.5E1,7.05E2,2.12E2,3.19E2,1.2E1,4.27E2,1.39E2,3.27E2,8.79E2,7E0,9E0,1E0,3.3E1,2E0,1.1E1,3E0,3.7E1,3E0,4E0,1.6E1,7.8E1,8.8E1,3.87E2,2E0,1.04E2,4.3E1,1.483E3,6.1E1,1.89E2,5.78E2,5.4E1,9.94E2,4.44E2,1.8E2,1.29E3,1.1E1,1.2E1,2.3E1,1.2E1],"tree_param":{"num_deleted":"0","num_feature":"8","num_nodes":"89","size_leaf_vector":"0"}},{"base_weights":[7.226014E0,7.061472E0,8.715997E0,7.2366214E0,4.3425803E0,1.609162E1,7.4707627E0,7.207222E0,4.193164E1,-3.0675967E0,6.073511E0,9.651164E0,1.9665823E1,-1.3463068E0,8.067597E0,7.1151605E0,1.4170153E1,4.511198E1,1.1424805E1,-4.848969E0,-5.846788E-1,1.1096097E1,4.3410306E0,1.0105994E1,-7E0,1.5217188E1,2.1501198E1,-4.1080008E0,1.2713497E0,7.8329854E0,1.9823437E1,7.00093E0,9.071166E0,1.2547567E1,1.7733093E1,-6.968316E0,-3.8717597E0,2.354342E0,-4.376172E0,6.586194E0,3.8307617E1,-3.2960026E1,6.075952E0,2.1640626E-1,1.0925618E1,6.3134766E0,2.1646677E1,-4.993164E0,-2.5854492E0,2.2342355E0,3.4936523E-1,5.8977237E0,8.714114E0,2.2861166E1,5.7543945E0,7.110919E0,1.3572432E0,2.0815962E1,8.4619255E0,1.0847867E1,1.3718296E1,2.151976E1,1.260144E1,-4.4404635E0,-2.598999E0,-1.0390625E0,3.9202473E0,-2.824908E0,-9.875E0,4.287133E0,1.6693794E1,-3.9453712E1,-1.664388E1,1.1757936E1,3.043685E0,1.621582E0,-2.7021484E0,1.1962748E1,4.244629E0,1.2265625E0,-3.9924045E0,7.688802E-1,2.9628906E0,-1.0964844E0,9.226888E-1,8.494459E0,2.1344433E0,1.3348975E1,6.8375354E0,8.055664E0,2.6901258E1,7.356771E0,4.736328E-1],"categories":[],"categories_nodes":[],"categories_segments":[],"categories_sizes":[],"default_left":[1,1,1,1,1,1,1,1,1,1,1,1,1,1,1,1,1,0,0,1,1,1,1,1,0,0,1,1,1,1,1,1,1,1,1,0,1,1,1,1,0,1,1,1,1,0,0,0,1,1,1,1,1,1,1,0,0,0,0,0,0,0,0,0,0,0,0,0,0,0,0,0,0,0,0,0,0,0,0,0,0,0,0,0,0,0,0,0,0,0,0,0,0],"id":23,"left_children":[1,3,5,7,9,11,13,15,17,19,21,23,25,27,29,31,33,-1,-1,35,37,39,41,43,-1,-1,45,47,49,51,53,55,57,59,61,-1,63,65,67,69,-1,71,73,75,77,-1,-1,-1,79,81,83,85,87,89,91,-1,-1,-1,-1,-1,-1,-1,-1,-1,-1,-1,-1,-1,-1,-1,-1,-1,-1,-1,-1,-1,-1,-1,-1,-1,-1,-1,-1,-1,-1,-1,-1,-1,-1,-1,-1,-1,-1],"loss_changes":[2.404375E3,4.2844375E3,9.027422E3,8.381219E3,7.086035E3,3.1019883E3,4.5048984E3,5.3523125E3,1.6375977E2,4.6158008E2,3.841416E3,4.7213477E2,4.158203E2,4.0282678E2,2.0511719E3,1.812875E3,4.1342188E2,0E0,0E0,9.9354126E1,5.1175046E2,1.373793E4,2.1814875E4,4.1913477E2,0E0,0E0,3.2421875E-1,2.3478516E1,2.4964642E1,1.2889062E3,5.095161E2,4.9184375E3,3.1153477E3,8.387695E0,3.5064062E2,0E0,2.0307495E1,1.4223091E2,1.427067E2,2.2289922E3,0E0,9.326162E2,5.477586E3,2.4887169E1,2.818164E2,0E0,0E0,0E0,6.925689E1,1.2670235E1,1.4274749E1,2.4151582E3,4.588082E3,5.0108008E2,3.0362656E1,0E0,0E0,0E0,0E0,0E0,0E0,0E0,0E0,0E0,0E0,0E0,0E0,0E0,0E0,0E0,0E0,0E0,0E0,0E0,0E0,0E0,0E0,0E0,0E0,0E0,0E0,0E0,0E0,0E0,0E0,0E0,0E0,0E0,0E0,0E0,0E0,0E0,0E0],"parents":[2147483647,0,0,1,1,2,2,3,3,4,4,5,5,6,6,7,7,8,8,9,9,10,10,11,11,12,12,13,13,14,14,15,15,16,16,19,19,20,20,21,21,22,22,23,23,26,26,27,27,28,28,29,29,30,30,31,31,32,32,33,33,34,34,36,36,37,37,38,38,39,39,41,41,42,42,43,43,44,44,48,48,49,49,50,50,51,51,52,52,53,53,54,54],"right_children":[2,4,6,8,10,12,14,16,18,20,22,24,26,28,30,32,34,-1,-1,36,38,40,42,44,-1,-1,46,48,50,52,54,56,58,60,62,-1,64,66,68,70,-1,72,74,76,78,-1,-1,-1,80,82,84,86,88,90,92,-1,-1,-1,-1,-1,-1,-1,-1,-1,-1,-1,-1,-1,-1,-1,-1,-1,-1,-1,-1,-1,-1,-1,-1,-1,-1,-1,-1,-1,-1,-1,-1,-1,-1,-1,-1,-1,-1],"split_conditions":[2.641963E4,2.6181164E4,2.64298E4,2.621421E4,2.6192795E4,2.6416574E4,2.64426E4,2.6168824E4,2.6207473E4,2.6191904E4,2.6251809E4,2.6461574E4,2.6427285E4,2.643393E4,2.6731734E4,2.6147814E4,2.6185281E4,1.3533595E1,3.4274416E0,2.6183E4,2.6193785E4,2.6242746E4,2.6270805E4,-1.7728336E1,-2.1000001E0,4.5651565E0,2.6374746E4,2.6437645E4,2.6455055E4,2.6462045E4,6.1100677E1,2.6137566E4,2.613736E4,2.617407E4,2.618084E4,-2.0904949E0,2.6189031E4,2.6194385E4,2.6207006E4,2.6212045E4,1.1492286E1,2.6259545E4,2.6374795E4,2.6499363E4,3.4693462E1,1.8940431E0,6.4940033E0,-1.4979492E0,2.6432375E4,2.64308E4,2.643558E4,2.6457195E4,2.6485266E4,5.057869E1,2.6651979E4,2.1332757E0,4.0717298E-1,6.2447886E0,2.5385778E0,3.2543602E0,4.115489E0,6.4559283E0,3.7804322E0,-1.3321391E0,-7.7969974E-1,-3.1171876E-1,1.1760743E0,-8.474724E-1,-2.9625E0,1.28614E0,5.0081387E0,-1.1836114E1,-4.9931645E0,3.5273807E0,9.1310555E-1,4.8647463E-1,-8.1064457E-1,3.5888245E0,1.2733887E0,3.6796877E-1,-1.1977214E0,2.3066406E-1,8.888672E-1,-3.2894534E-1,2.7680665E-1,2.548338E0,6.40333E-1,4.0046926E0,2.0512607E0,2.4166994E0,8.070378E0,2.2070315E0,1.4208984E-1],"split_indices":[4,5,5,4,5,5,4,5,1,4,3,3,4,5,4,4,4,0,0,5,3,4,5,7,0,0,0,4,1,5,7,5,3,5,3,0,4,4,3,5,0,5,5,0,7,0,0,0,3,0,5,4,4,6,0,0,0,0,0,0,0,0,0,0,0,0,0,0,0,0,0,0,0,0,0,0,0,0,0,0,0,0,0,0,0,0,0,0,0,0,0,0,0],"split_type":[0,0,0,0,0,0,0,0,0,0,0,0,0,0,0,0,0,0,0,0,0,0,0,0,0,0,0,0,0,0,0,0,0,0,0,0,0,0,0,0,0,0,0,0,0,0,0,0,0,0,0,0,0,0,0,0,0,0,0,0,0,0,0,0,0,0,0,0,0,0,0,0,0,0,0,0,0,0,0,0,0,0,0,0,0,0,0,0,0,0,0,0,0],"sum_hessian":[1.0057E4,9.062E3,9.95E2,8.512E3,5.5E2,1.42E2,8.53E2,8.506E3,6E0,1.04E2,4.46E2,5.2E1,9E1,5.4E1,7.99E2,8.397E3,1.09E2,5E0,1E0,6E1,4.4E1,1.13E2,3.33E2,5.1E1,1E0,2.9E1,6.1E1,2.6E1,2.8E1,7.85E2,1.4E1,7.938E3,4.59E2,7.8E1,3.1E1,1.7E1,4.3E1,2.5E1,1.9E1,9.8E1,1.5E1,1.4E1,3.19E2,4E0,4.7E1,1E0,6E1,1.5E1,1.1E1,1.3E1,1.5E1,2.48E2,5.37E2,1.1E1,3E0,7.786E3,1.52E2,2.1E1,4.38E2,3.6E1,4.2E1,1.6E1,1.5E1,2.8E1,1.5E1,8E0,1.7E1,1.6E1,3E0,8.1E1,1.7E1,9E0,5E0,1.1E2,2.09E2,3E0,1E0,4E1,7E0,3E0,8E0,5E0,8E0,4E0,1.1E1,1.46E2,1.02E2,1.53E2,3.84E2,3E0,8E0,2E0,1E0],"tree_param":{"num_deleted":"0","num_feature":"8","num_nodes":"93","size_leaf_vector":"0"}},{"base_weights":[5.0665526E0,4.9839826E0,7.911299E0,5.069173E0,-1.6886971E0,1.0354445E1,6.4256716E0,4.998589E0,1.2271925E1,-3.748519E0,3.8740234E0,8.237716E0,1.5371679E1,-8.5485196E-1,8.342226E0,4.6100287E0,5.4054847E0,1.103993E1,1.5746094E1,-6.2657495E0,-1.0361111E0,5.3033643E0,-8.171875E0,9.025973E0,2.1326172E0,4.5302734E0,1.5589305E1,-3.6493626E0,1.8426758E0,7.8356543E0,2.3733398E1,4.920734E0,3.6784606E0,1.0774341E1,5.263787E0,1.1542969E0,1.1162908E1,3.165039E0,1.6194475E1,-6.1035156E-2,-6.6874113E0,-2.6307616E0,2.3039363E-1,3.4155273E-1,6.736328E0,-1.1720052E1,1.2363281E0,7.649064E0,1.3289323E1,6.705729E-2,4.184766E0,1.5822126E1,4.5351562E0,2.5826824E0,-6.0595703E0,4.2125354E0,-9.484375E-1,-5.7083335E0,8.076804E0,4.3791986E0,6.0931625E0,6.246179E-1,4.061017E0,3.8479004E0,1.1172887E1,-3.0153952E0,5.2936883E0,1.1266545E1,1.9541016E0,3.0878906E0,-4.7539062E0,-6.900981E0,1.2480469E0,-3.6965332E0,-1.772536E0,-2.2783203E0,6.5667456E-1,-1.8950195E0,2.0625E0,4.0251117E0,9.5745735E0,1.0895369E1,6.321631E0,1.3693359E1,3.8164062E0,8.457031E-1,-5.336914E-1,-2.4658203E0,4.085547E0,-1.0303515E1,-3.3316407E0,5.2291017E0,-2.9765625E0,-4.7421875E0,5.9277344E-1,1.1027092E1,7.1377873E0],"categories":[],"categories_nodes":[],"categories_segments":[],"categories_sizes":[],"default_left":[1,1,1,1,1,1,1,1,1,1,1,1,1,1,1,1,1,1,1,1,1,1,1,1,1,0,1,1,1,1,0,1,1,1,1,0,1,0,0,1,1,1,1,1,1,0,0,1,1,1,0,0,0,1,1,1,1,0,1,0,0,0,0,0,0,0,0,0,0,0,0,0,0,0,0,0,0,0,0,0,0,0,0,0,0,0,0,0,0,0,0,0,0,0,0,0,0],"id":24,"left_children":[1,3,5,7,9,11,13,15,17,19,21,23,25,27,29,31,33,35,37,39,41,43,45,47,49,-1,51,53,55,57,-1,59,61,63,65,-1,67,-1,-1,69,71,73,75,77,79,-1,-1,81,83,85,-1,-1,-1,87,89,91,93,-1,95,-1,-1,-1,-1,-1,-1,-1,-1,-1,-1,-1,-1,-1,-1,-1,-1,-1,-1,-1,-1,-1,-1,-1,-1,-1,-1,-1,-1,-1,-1,-1,-1,-1,-1,-1,-1,-1,-1],"loss_changes":[2.3231094E3,5.5662656E3,9.570156E2,4.84675E3,1.4353403E3,9.884863E2,2.4908584E3,1.486875E3,2.2421875E2,6.14834E2,6.2874023E2,3.4649268E2,1.5722656E-1,2.9317883E2,9.1337305E2,1.3995938E3,3.4922031E3,7.464551E1,7.284863E1,1.2255737E2,9.148956E1,2.1811212E2,1.480177E2,2.9165576E2,4.2107735E1,0E0,2.8798828E0,3.0103986E2,1.3628625E2,4.9683008E2,0E0,2.3034375E3,1.4332637E3,2.855078E2,1.1416016E3,0E0,4.5745117E1,0E0,0E0,7.378955E1,8.3183105E1,1.1741226E1,2.9300957E1,3.470066E1,1.4614355E2,0E0,0E0,1.5951392E2,5.1516113E0,3.2579672E0,0E0,0E0,0E0,5.5597515E1,1.2775293E2,9.5954865E1,6.128073E1,0E0,2.9806055E2,0E0,0E0,0E0,0E0,0E0,0E0,0E0,0E0,0E0,0E0,0E0,0E0,0E0,0E0,0E0,0E0,0E0,0E0,0E0,0E0,0E0,0E0,0E0,0E0,0E0,0E0,0E0,0E0,0E0,0E0,0E0,0E0,0E0,0E0,0E0,0E0,0E0,0E0],"parents":[2147483647,0,0,1,1,2,2,3,3,4,4,5,5,6,6,7,7,8,8,9,9,10,10,11,11,12,12,13,13,14,14,15,15,16,16,17,17,18,18,19,19,20,20,21,21,22,22,23,23,24,24,26,26,27,27,28,28,29,29,31,31,32,32,33,33,34,34,36,36,39,39,40,40,41,41,42,42,43,43,44,44,47,47,48,48,49,49,53,53,54,54,55,55,56,56,58,58],"right_children":[2,4,6,8,10,12,14,16,18,20,22,24,26,28,30,32,34,36,38,40,42,44,46,48,50,-1,52,54,56,58,-1,60,62,64,66,-1,68,-1,-1,70,72,74,76,78,80,-1,-1,82,84,86,-1,-1,-1,88,90,92,94,-1,96,-1,-1,-1,-1,-1,-1,-1,-1,-1,-1,-1,-1,-1,-1,-1,-1,-1,-1,-1,-1,-1,-1,-1,-1,-1,-1,-1,-1,-1,-1,-1,-1,-1,-1,-1,-1,-1,-1],"split_conditions":[2.6497635E4,2.6485266E4,2.653804E4,2.6474996E4,2.649924E4,2.6517375E4,2.6561469E4,2.606923E4,2.648164E4,2.6482371E4,2.6581715E4,2.6522E4,2.6485074E4,2.6547E4,2.680529E4,2.605185E4,2.6066477E4,-1.4432985E1,2.6367008E4,-1.3418568E1,2.649145E4,2.8395753E0,2.655001E4,2.6523191E4,2.6511875E4,1.3590821E0,2.653422E4,2.651842E4,2.6547336E4,2.6521914E4,7.12002E0,2.6035156E4,2.604648E4,2.6066932E4,-4.3366974E1,3.4628907E-1,3.4758896E1,9.4951177E-1,4.8583426E0,2.6518195E4,1.6693735E1,4.23983E0,-6.9352895E-1,2.6552047E4,2.6510975E4,-3.5160158E0,3.7089846E-1,2.650727E4,2.6598938E4,2.6523406E4,1.2554297E0,4.7466383E0,1.360547E0,2.6475137E4,2.652301E4,2.6518672E4,2.6539035E4,-1.7125001E0,2.6579898E4,1.3137596E0,1.8279488E0,1.8738537E-1,1.2183051E0,1.1543702E0,3.3518662E0,-9.0461856E-1,1.5881065E0,3.3799636E0,5.862305E-1,9.263672E-1,-1.4261719E0,-2.0702944E0,3.744141E-1,-1.10896E0,-5.317608E-1,-6.834961E-1,1.9700238E-1,-5.685059E-1,6.1875004E-1,1.2075336E0,2.8723722E0,3.2686107E0,1.8964894E0,4.108008E0,1.1449219E0,2.5371096E-1,-1.6010743E-1,-7.397461E-1,1.2256641E0,-3.0910547E0,-9.994922E-1,1.5687306E0,-8.929688E-1,-1.4226563E0,1.7783204E-1,3.3081276E0,2.1413362E0],"split_indices":[5,4,4,4,4,5,4,4,4,5,1,3,0,4,4,4,3,6,2,6,4,7,0,4,5,0,3,5,3,5,0,4,5,1,6,0,7,0,0,0,7,7,6,1,4,0,0,3,1,3,0,0,0,0,5,2,5,0,4,0,0,0,0,0,0,0,0,0,0,0,0,0,0,0,0,0,0,0,0,0,0,0,0,0,0,0,0,0,0,0,0,0,0,0,0,0,0],"split_type":[0,0,0,0,0,0,0,0,0,0,0,0,0,0,0,0,0,0,0,0,0,0,0,0,0,0,0,0,0,0,0,0,0,0,0,0,0,0,0,0,0,0,0,0,0,0,0,0,0,0,0,0,0,0,0,0,0,0,0,0,0,0,0,0,0,0,0,0,0,0,0,0,0,0,0,0,0,0,0,0,0,0,0,0,0,0,0,0,0,0,0,0,0,0,0,0,0],"sum_hessian":[1.0057E4,9.776E3,2.81E2,9.653E3,1.23E2,1.04E2,1.77E2,9.561E3,9.2E1,9E1,3.3E1,7.5E1,2.9E1,3.7E1,1.4E2,4.897E3,4.664E3,7.1E1,2.1E1,4.6E1,4.4E1,3E1,3E0,6.6E1,9E0,1E0,2.8E1,1.8E1,1.9E1,1.37E2,3E0,3.669E3,1.228E3,1.18E2,4.546E3,1E0,7E1,1E0,2E1,3E0,4.3E1,1.9E1,2.5E1,7E0,2.3E1,2E0,1E0,5.2E1,1.4E1,5E0,4E0,2.7E1,1E0,5E0,1.3E1,1E1,9E0,2E0,1.35E2,2.513E3,1.156E3,1.37E2,1.091E3,7E0,1.11E2,1.6E1,4.53E3,6.9E1,1E0,2E0,1E0,4.2E1,1E0,7E0,1.2E1,3E0,2.2E1,3E0,4E0,1.3E1,1E1,1.3E1,3.9E1,1.3E1,1E0,2E0,3E0,1E0,4E0,4E0,9E0,9E0,1E0,2E0,7E0,3E1,1.05E2],"tree_param":{"num_deleted":"0","num_feature":"8","num_nodes":"97","size_leaf_vector":"0"}},{"base_weights":[3.5506651E0,3.5210888E0,8.0435095E0,2.231587E0,3.5971074E0,7.1502304E0,1.7332813E1,3.6211967E0,5.766624E-2,3.4163039E0,4.136543E0,1.110363E1,5.49783E0,2.0933594E1,7.9544272E0,2.4752605E0,5.711003E0,-3.7371094E0,1.0331361E0,3.6633685E0,1.8909492E0,7.232975E0,3.5323696E0,6.9782715E0,1.3293554E1,-3.4941406E0,6.70918E0,5.0520124E0,6.467378E-1,9.719727E0,1.4016485E0,-1.4267263E0,-8.26276E0,1.3489275E0,-6.73856E0,3.4437466E0,6.5014873E0,-4.9618402E-1,2.6449397E0,5.0711265E0,8.865808E0,-6.909066E-1,3.9319668E0,7.473493E0,1.7558594E0,3.7851562E0,1.392947E1,3.1894531E0,-5.46875E0,5.8806024E0,1.4968099E1,3.6470037E0,1.261942E1,-5.286438E0,2.5388868E0,-3.157335E0,1.1685908E1,-1.0630078E1,2.4699574E0,-3.3986924E0,3.7712674E0,-1.5900949E1,-1.4038628E0,1.0945003E0,8.07845E0,-7.8251953E0,-1.09375E-1,-4.074479E0,3.4631414E0,5.904759E0,8.473129E0,-7.145345E0,-1.4250068E-1,3.0879664E0,-2.8032827E0,6.5389E0,2.3893123E0,6.981721E0,1.1569779E1,-1.9405382E0,9.902344E-1,5.578109E0,3.3213394E0,-6.4208984E0,-8.300781E-1,7.205729E0,8.1011283E-1],"categories":[],"categories_nodes":[],"categories_segments":[],"categories_sizes":[],"default_left":[1,1,1,1,1,1,1,1,1,1,1,1,1,0,0,1,1,1,1,1,1,1,1,1,1,1,1,1,1,1,1,1,1,1,1,1,1,1,1,1,1,1,1,0,0,0,0,0,1,1,0,0,0,0,0,0,0,0,0,0,0,0,0,0,0,0,0,0,0,0,0,0,0,0,0,0,0,0,0,0,0,0,0,0,0,0,0],"id":25,"left_children":[1,3,5,7,9,11,13,15,17,19,21,23,25,-1,-1,27,29,31,33,35,37,39,41,43,45,47,49,51,53,55,57,59,61,63,65,67,69,71,73,75,77,79,81,-1,-1,-1,-1,-1,83,85,-1,-1,-1,-1,-1,-1,-1,-1,-1,-1,-1,-1,-1,-1,-1,-1,-1,-1,-1,-1,-1,-1,-1,-1,-1,-1,-1,-1,-1,-1,-1,-1,-1,-1,-1,-1,-1],"loss_changes":[1.3082109E3,9.716406E2,4.1543262E2,1.6884751E3,9.061875E2,3.3744263E2,2.3328857E0,8.0248535E2,8.1453094E2,2.6586094E3,4.3969766E3,6.0815674E1,5.136019E2,0E0,0E0,1.0427189E3,2.0593774E3,4.5873065E2,4.3858087E2,3.7710938E3,1.7795891E3,1.3140664E3,3.3441836E3,7.5675964E0,7.7402344E0,9.6627235E1,1.8570471E2,9.321465E2,1.4840868E3,1.6066528E3,7.846183E2,3.3057562E2,7.635204E2,2.8051556E2,4.9568665E1,8.381172E2,4.629375E2,5.586857E2,1.8213525E3,6.456743E2,1.0298281E3,3.6326038E2,1.7998438E3,0E0,0E0,0E0,0E0,0E0,1.6753662E1,2.4948608E2,0E0,0E0,0E0,0E0,0E0,0E0,0E0,0E0,0E0,0E0,0E0,0E0,0E0,0E0,0E0,0E0,0E0,0E0,0E0,0E0,0E0,0E0,0E0,0E0,0E0,0E0,0E0,0E0,0E0,0E0,0E0,0E0,0E0,0E0,0E0,0E0,0E0],"parents":[2147483647,0,0,1,1,2,2,3,3,4,4,5,5,6,6,7,7,8,8,9,9,10,10,11,11,12,12,15,15,16,16,17,17,18,18,19,19,20,20,21,21,22,22,23,23,24,24,25,25,26,26,27,27,28,28,29,29,30,30,31,31,32,32,33,33,34,34,35,35,36,36,37,37,38,38,39,39,40,40,41,41,42,42,48,48,49,49],"right_children":[2,4,6,8,10,12,14,16,18,20,22,24,26,-1,-1,28,30,32,34,36,38,40,42,44,46,48,50,52,54,56,58,60,62,64,66,68,70,72,74,76,78,80,82,-1,-1,-1,-1,-1,84,86,-1,-1,-1,-1,-1,-1,-1,-1,-1,-1,-1,-1,-1,-1,-1,-1,-1,-1,-1,-1,-1,-1,-1,-1,-1,-1,-1,-1,-1,-1,-1,-1,-1,-1,-1,-1,-1],"split_conditions":[2.659282E4,-1.3733442E1,2.6787879E4,-1.53414955E1,2.6124436E4,2.6615734E4,2.639705E4,2.613552E4,-1.4220064E1,2.6104074E4,2.6137555E4,2.6596875E4,2.6624504E4,6.2800784E0,2.3863282E0,2.5874426E4,2.6375773E4,2.6064465E4,-5.1481E0,2.6087496E4,2.610955E4,2.612892E4,2.6143066E4,-2.0436296E0,2.6594363E4,2.6567453E4,2.6873348E4,2.587482E4,-2.885138E1,-6.34358E1,2.6384996E4,2.6044336E4,2.631977E4,2.6515875E4,2.6411867E4,2.567541E4,2.6101016E4,2.6008525E4,2.61284E4,2.6128879E4,2.6139129E4,2.614532E4,2.6181164E4,2.242048E0,5.2675784E-1,1.1355469E0,4.178841E0,9.56836E-1,2.6613531E4,2.6713531E4,4.49043E0,1.0941012E0,3.7858262E0,-1.5859314E0,7.6166606E-1,-9.4720054E-1,3.5057726E0,-3.1890237E0,7.4098724E-1,-1.0196078E0,1.1313803E0,-4.7702847E0,-4.2115888E-1,3.283501E-1,2.423535E0,-2.3475587E0,-3.2812502E-2,-1.2223438E0,1.0389425E0,1.7714278E0,2.5419388E0,-2.1436036E0,-4.2750206E-2,9.2639E-1,-8.409849E-1,1.96167E0,7.167937E-1,2.0945163E0,3.470934E0,-5.821615E-1,2.9707032E-1,1.6734327E0,9.9640185E-1,-1.9262697E0,-2.4902345E-1,2.1617188E0,2.4303386E-1],"split_indices":[5,6,4,7,5,4,2,4,7,4,5,5,4,0,0,3,3,2,7,5,4,5,5,6,0,2,1,4,6,6,4,0,3,2,0,4,4,2,3,3,4,4,5,0,0,0,0,0,5,3,0,0,0,0,0,0,0,0,0,0,0,0,0,0,0,0,0,0,0,0,0,0,0,0,0,0,0,0,0,0,0,0,0,0,0,0,0],"split_type":[0,0,0,0,0,0,0,0,0,0,0,0,0,0,0,0,0,0,0,0,0,0,0,0,0,0,0,0,0,0,0,0,0,0,0,0,0,0,0,0,0,0,0,0,0,0,0,0,0,0,0,0,0,0,0,0,0,0,0,0,0,0,0,0,0,0,0,0,0,0,0,0,0,0,0,0,0,0,0,0,0,0,0,0,0,0,0],"sum_hessian":[1.0057E4,9.993E3,6.4E1,5.58E2,9.435E3,6E1,4E0,3.4E2,2.18E2,7.072E3,2.363E3,1.6E1,4.4E1,2E0,2E0,2.21E2,1.19E2,4.4E1,1.74E2,6.085E3,9.87E2,3.84E2,1.979E3,7E0,9E0,5E0,3.9E1,9.1E1,1.3E2,6.1E1,5.8E1,3E1,1.4E1,1.68E2,6E0,5.65E3,4.35E2,2.37E2,7.5E2,1.67E2,2.17E2,1.71E2,1.808E3,6E0,1E0,1E0,8E0,1E0,4E0,3.7E1,2E0,7.8E1,1.3E1,3.1E1,9.9E1,8E0,5.3E1,4E0,5.4E1,2.2E1,8E0,6E0,8E0,1.63E2,5E0,5E0,1E0,1.4E1,5.636E3,3.37E2,9.8E1,1.1E1,2.26E2,6.94E2,5.6E1,1.07E2,6E1,1.3E2,8.7E1,9.8E1,7.3E1,4.87E2,1.321E3,3E0,1E0,2.9E1,8E0],"tree_param":{"num_deleted":"0","num_feature":"8","num_nodes":"87","size_leaf_vector":"0"}},{"base_weights":[2.4889433E0,2.4357562E0,4.4918256E0,2.4926662E0,-1.318293E0,7.388551E0,3.1559227E0,2.4427E0,7.896462E0,-3.4991992E0,3.2527263E0,5.2394724E0,9.357422E0,-1.7241586E0,4.48335E0,2.2607422E1,2.4382286E0,6.602648E0,9.66702E0,-5.3819814E0,-1.7956815E0,5.75728E0,2.4421258E0,5.8347554E0,-1.7255859E0,1.0139844E1,4.108538E0,-3.2228906E0,8.886719E-1,4.177608E0,1.7154947E1,2.4477768E0,-9.275391E0,9.880567E0,4.540904E0,-2.3652344E0,-7.344587E0,5.658203E0,-2.0430794E0,1.3652344E0,6.059961E0,1.2342248E0,2.9521484E0,2.078125E0,6.7672524E0,2.548828E-1,-2.4707031E0,1.0324219E1,1.9355469E0,7.1523438E0,3.7597656E-2,-9.362793E-2,-7.907422E0,2.0585938E0,-1.8628906E0,1.1241536E1,3.8301365E0,2.1538086E1,4.194336E0,2.44145E0,2.1786459E1,1.9658203E0,1.0193667E1,3.1054687E-2,6.1008115E0,-7.705078E0,-9.696691E-1,-8.729926E0,-4.409979E0,-2.9913282E0,-1.1551725E0,2.2522786E0,3.1640625E-1,1.1254883E0,3.5658922E0,-7.5625E-1,4.496875E0,9.218053E0,4.350873E0,1.2366887E1,8.647904E0,1.2695312E0,-7.9622394E-1,-1.5857748E0,3.50625E0,3.2697754E0,-8.7841797E-1,4.6705728E0,1.3359375E1,1.7977121E0,4.943609E0],"categories":[],"categories_nodes":[],"categories_segments":[],"categories_sizes":[],"default_left":[1,1,1,1,1,1,1,1,1,1,1,1,1,1,1,0,1,1,0,1,1,1,1,1,1,1,1,1,1,1,1,1,0,1,1,1,1,0,1,0,0,1,1,1,1,0,0,1,0,0,1,1,0,1,0,1,1,0,0,0,0,0,0,0,0,0,0,0,0,0,0,0,0,0,0,0,0,0,0,0,0,0,0,0,0,0,0,0,0,0,0],"id":26,"left_children":[1,3,5,7,9,11,13,15,17,19,21,23,25,27,29,-1,31,33,-1,35,37,39,41,43,45,47,49,51,53,55,57,59,-1,61,63,65,67,-1,69,-1,-1,71,73,75,77,-1,-1,79,-1,-1,81,83,-1,85,-1,87,89,-1,-1,-1,-1,-1,-1,-1,-1,-1,-1,-1,-1,-1,-1,-1,-1,-1,-1,-1,-1,-1,-1,-1,-1,-1,-1,-1,-1,-1,-1,-1,-1,-1,-1],"loss_changes":[1.0605156E3,2.0969922E3,9.789463E2,2.5873594E3,1.4768198E3,2.937036E2,1.1672836E3,8.0745703E2,1.3776025E2,3.1107092E2,8.338922E1,1.8006189E2,1.2672046E2,1.5558548E2,4.7460132E2,0E0,1.0925938E3,3.2007764E2,0E0,2.6090063E2,1.1114021E2,6.350006E0,1.976654E1,1.1905261E2,6.532465E0,3.296045E1,8.6469154E1,3.6573785E2,5.212163E1,2.981206E2,8.008655E1,1.1163438E3,0E0,2.9523193E1,2.4603375E2,1.4157063E2,7.533313E1,0E0,4.1168213E1,0E0,0E0,1.1434418E1,2.5135254E1,6.510156E1,1.375553E2,0E0,0E0,9.473633E0,0E0,0E0,5.119683E0,9.150487E1,0E0,4.200203E1,0E0,2.1101501E1,2.9436145E2,0E0,0E0,0E0,0E0,0E0,0E0,0E0,0E0,0E0,0E0,0E0,0E0,0E0,0E0,0E0,0E0,0E0,0E0,0E0,0E0,0E0,0E0,0E0,0E0,0E0,0E0,0E0,0E0,0E0,0E0,0E0,0E0,0E0,0E0],"parents":[2147483647,0,0,1,1,2,2,3,3,4,4,5,5,6,6,7,7,8,8,9,9,10,10,11,11,12,12,13,13,14,14,16,16,17,17,19,19,20,20,21,21,22,22,23,23,24,24,25,25,26,26,27,27,28,28,29,29,30,30,31,31,33,33,34,34,35,35,36,36,38,38,41,41,42,42,43,43,44,44,47,47,50,50,51,51,53,53,55,55,56,56],"right_children":[2,4,6,8,10,12,14,16,18,20,22,24,26,28,30,-1,32,34,-1,36,38,40,42,44,46,48,50,52,54,56,58,60,-1,62,64,66,68,-1,70,-1,-1,72,74,76,78,-1,-1,80,-1,-1,82,84,-1,86,-1,88,90,-1,-1,-1,-1,-1,-1,-1,-1,-1,-1,-1,-1,-1,-1,-1,-1,-1,-1,-1,-1,-1,-1,-1,-1,-1,-1,-1,-1,-1,-1,-1,-1,-1,-1],"split_conditions":[2.6516004E4,2.6485266E4,2.653804E4,2.6475695E4,2.6492371E4,2.6526469E4,2.6561469E4,-7.814279E1,2.647523E4,2.6481566E4,2.645819E4,2.6504441E4,1.2259722E1,2.6535516E4,2.6775336E4,6.782227E0,2.6640066E4,2.6472977E4,2.900106E0,2.6480705E4,2.6481656E4,2.6416055E4,2.6496754E4,2.6477383E4,2.6527197E4,2.6637848E4,2.6496363E4,2.6538715E4,2.6555594E4,2.6549996E4,2.6622988E4,2.6516549E4,-2.7826173E0,2.6399715E4,2.6470586E4,2.6442305E4,2.6480004E4,1.697461E0,2.649145E4,4.0957034E-1,1.8179883E0,2.650249E4,3.945478E0,2.6508355E4,2.6516195E4,7.646485E-2,-7.4121094E-1,2.652495E4,5.806641E-1,2.1457033E0,2.6499297E4,2.6531605E4,-2.3722267E0,2.6519645E4,-5.588672E-1,2.6566125E4,2.6578934E4,6.4614263E0,1.2583008E0,7.3243505E-1,6.535938E0,5.897461E-1,3.0581005E0,9.316406E-3,1.8302435E0,-2.3115234E0,-2.9090074E-1,-2.618978E0,-1.3229938E0,-8.9739853E-1,-3.4655175E-1,6.756836E-1,9.492188E-2,3.3764648E-1,1.0697677E0,-2.2687502E-1,1.3490624E0,2.765416E0,1.305262E0,3.7100663E0,2.5943713E0,3.808594E-1,-2.388672E-1,-4.7573245E-1,1.051875E0,9.8093265E-1,-2.635254E-1,1.4011719E0,4.0078125E0,5.393137E-1,1.4830828E0],"split_indices":[4,4,4,4,5,4,4,6,5,5,2,2,7,5,3,0,1,3,0,3,3,2,5,0,0,1,0,3,4,3,0,0,0,0,5,0,5,0,4,0,0,4,7,5,3,0,0,3,0,0,0,3,0,2,0,4,5,0,0,0,0,0,0,0,0,0,0,0,0,0,0,0,0,0,0,0,0,0,0,0,0,0,0,0,0,0,0,0,0,0,0],"split_type":[0,0,0,0,0,0,0,0,0,0,0,0,0,0,0,0,0,0,0,0,0,0,0,0,0,0,0,0,0,0,0,0,0,0,0,0,0,0,0,0,0,0,0,0,0,0,0,0,0,0,0,0,0,0,0,0,0,0,0,0,0,0,0,0,0,0,0,0,0,0,0,0,0,0,0,0,0,0,0,0,0,0,0,0,0,0,0,0,0,0,0],"sum_hessian":[1.0057E4,9.799E3,2.58E2,9.653E3,1.46E2,8E1,1.78E2,9.566E3,8.7E1,9.9E1,4.7E1,4E1,4E1,3.8E1,1.4E2,1E0,9.565E3,5.3E1,3.4E1,4.6E1,5.3E1,1E1,3.7E1,3.7E1,3E0,3.4E1,6E0,2.4E1,1.4E1,1.38E2,2E0,9.558E3,7E0,1.9E1,3.4E1,1.9E1,2.7E1,1E0,5.2E1,1E0,9E0,1.2E1,2.5E1,8E0,2.9E1,1E0,2E0,3.3E1,1E0,3E0,3E0,1.5E1,9E0,1E1,4E0,5E0,1.33E2,1E0,1E0,9.556E3,2E0,1E0,1.8E1,9E0,2.5E1,3E0,1.6E1,1.7E1,1E1,2.4E1,2.8E1,5E0,7E0,7E0,1.8E1,4E0,4E0,1.3E1,1.6E1,1.2E1,2.1E1,1E0,2E0,1.1E1,4E0,7E0,3E0,2E0,3E0,4.8E1,8.5E1],"tree_param":{"num_deleted":"0","num_feature":"8","num_nodes":"91","size_leaf_vector":"0"}},{"base_weights":[1.7467656E0,1.6460581E0,2.540988E0,1.7786053E0,-1.0638255E0,5.389109E0,1.6142075E0,1.7564425E0,2.8458706E1,-5.524163E0,4.3585265E-1,2.794807E0,1.06610365E1,-3.0967133E0,2.1457646E0,1.6937748E0,5.750417E0,3.696582E1,1.2836914E1,-6.725538E0,-3.7728732E0,4.1887097E0,-1.676131E0,8.150134E0,1.4194922E0,9.489843E0,1.5200942E1,-5.611886E0,-1.8713542E0,2.0281856E0,7.9130206E0,1.7197655E0,-3.156771E0,4.8165402E0,8.733919E0,-7.729456E0,-5.758929E0,-1.5964265E0,-6.667146E0,1.0684198E0,2.1746323E1,-2.7641462E1,2.66373E-1,3.5511363E0,3.208626E1,-1.5167207E0,2.5009942E0,7.1069336E0,1.0407151E1,1.6442522E1,7.055176E0,-6.146184E0,8.8932294E-1,1.8710938E0,-1.966499E0,3.8504417E0,1.69758E0,9.479167E0,1.2363281E0,1.7716701E0,-6.0150915E-1,-6.296596E0,-3.930469E-1,5.819633E0,2.6391888E0,5.7541018E0,9.7369795E0,-3.081771E0,2.4023438E-1,-5.382202E0,-1.0140137E1,-2.9084888E-1,7.9678955E0,1.3917969E1,3.0941406E1,-3.4745605E1,-1.5573661E1,3.7458186E0,-1.8294492E0,1.1861467E1,-2.4436524E0,2.468967E0,-4.4427896E0,8.787109E0,2.1179688E0,3.7080078E0,1.713687E1,1.6269531E0,-2.9296875E-1,-2.824121E0,-1.4885254E0,1.294396E0,5.8670654E0,-2.7104545E0,2.442561E0,2.8618164E0,1.136697E1,3.3085938E0,-2.4902344E0],"categories":[],"categories_nodes":[],"categories_segments":[],"categories_sizes":[],"default_left":[1,1,1,1,1,1,1,1,1,1,1,1,1,1,1,1,1,0,0,1,1,1,1,1,1,1,1,1,1,1,1,1,1,1,1,0,0,1,1,1,1,1,1,1,0,1,1,0,0,1,0,0,1,0,1,1,1,1,1,0,0,0,0,0,0,0,0,0,0,0,0,0,0,0,0,0,0,0,0,0,0,0,0,0,0,0,0,0,0,0,0,0,0,0,0,0,0,0,0],"id":27,"left_children":[1,3,5,7,9,11,13,15,17,19,21,23,25,27,29,31,33,-1,-1,35,37,39,41,43,45,47,49,51,53,55,57,59,61,63,65,-1,-1,67,69,71,73,75,77,79,-1,81,83,-1,-1,85,-1,-1,87,-1,89,91,93,95,97,-1,-1,-1,-1,-1,-1,-1,-1,-1,-1,-1,-1,-1,-1,-1,-1,-1,-1,-1,-1,-1,-1,-1,-1,-1,-1,-1,-1,-1,-1,-1,-1,-1,-1,-1,-1,-1,-1,-1,-1],"loss_changes":[8.002988E2,3.20908E3,2.9740293E3,4.9838086E3,2.7917502E3,3.7587256E3,2.1451667E3,2.1195059E3,4.5574805E2,1.9554053E2,2.4878506E3,1.3657345E3,3.3960156E2,2.576313E2,5.0473804E2,1.0615078E3,3.2292822E2,0E0,0E0,1.4680908E1,2.7282178E2,6.1674536E3,1.0145354E4,4.0691812E3,4.8012143E2,8.997656E1,5.5927002E1,1.027262E2,2.5043976E1,4.4770947E2,1.451308E2,1.00506445E3,3.8801755E2,2.0741772E2,3.364038E1,0E0,0E0,7.439834E1,3.0213074E1,9.1200684E2,7.930586E2,6.5912305E2,1.377805E3,1.6730018E3,0E0,4.8912744E2,2.4624084E2,0E0,0E0,6.0246338E1,0E0,0E0,3.0929286E0,0E0,1.9981537E1,5.8518286E2,2.108318E3,1.1737695E2,3.9128883E1,0E0,0E0,0E0,0E0,0E0,0E0,0E0,0E0,0E0,0E0,0E0,0E0,0E0,0E0,0E0,0E0,0E0,0E0,0E0,0E0,0E0,0E0,0E0,0E0,0E0,0E0,0E0,0E0,0E0,0E0,0E0,0E0,0E0,0E0,0E0,0E0,0E0,0E0,0E0,0E0],"parents":[2147483647,0,0,1,1,2,2,3,3,4,4,5,5,6,6,7,7,8,8,9,9,10,10,11,11,12,12,13,13,14,14,15,15,16,16,19,19,20,20,21,21,22,22,23,23,24,24,25,25,26,26,27,27,28,28,29,29,30,30,31,31,32,32,33,33,34,34,37,37,38,38,39,39,40,40,41,41,42,42,43,43,45,45,46,46,49,49,52,52,54,54,55,55,56,56,57,57,58,58],"right_children":[2,4,6,8,10,12,14,16,18,20,22,24,26,28,30,32,34,-1,-1,36,38,40,42,44,46,48,50,52,54,56,58,60,62,64,66,-1,-1,68,70,72,74,76,78,80,-1,82,84,-1,-1,86,-1,-1,88,-1,90,92,94,96,98,-1,-1,-1,-1,-1,-1,-1,-1,-1,-1,-1,-1,-1,-1,-1,-1,-1,-1,-1,-1,-1,-1,-1,-1,-1,-1,-1,-1,-1,-1,-1,-1,-1,-1,-1,-1,-1,-1,-1,-1],"split_conditions":[2.6424934E4,2.6181164E4,2.64298E4,2.621421E4,2.6192795E4,2.641697E4,2.6446475E4,2.6167445E4,2.624484E4,2.6191904E4,2.6251809E4,2.6375773E4,2.6435844E4,2.6433355E4,2.669E4,2.6168145E4,2.617771E4,1.1089746E1,3.8510745E0,2.618475E4,2.619511E4,2.6241E4,2.628604E4,2.638598E4,2.639271E4,2.6425996E4,2.6440406E4,2.6442016E4,2.643393E4,2.6457195E4,6.1100677E1,1.922689E1,2.616046E4,2.617726E4,2.618189E4,-2.318837E0,-1.7276787E0,2.619768E4,2.6207006E4,2.6212045E4,1.8442375E1,2.626109E4,2.6375004E4,2.6467562E4,9.625879E0,2.6362996E4,2.6393594E4,2.13208E0,3.1221454E0,2.6384086E4,2.1165528E0,-1.8438553E0,2.6467035E4,5.613282E-1,2.643655E4,2.645077E4,2.6468996E4,5.057869E1,2.6651979E4,5.3150105E-1,-1.8045275E-1,-1.8889788E0,-1.1791407E-1,1.74589E0,7.917567E-1,1.7262306E0,2.921094E0,-9.245313E-1,7.2070315E-2,-1.6146607E0,-3.042041E0,-8.7254666E-2,2.3903687E0,4.1753907E0,9.282422E0,-1.0423682E1,-4.6720986E0,1.1237457E0,-5.488348E-1,3.5584404E0,-7.3309577E-1,7.406901E-1,-1.3328369E0,2.636133E0,6.3539064E-1,1.1124024E0,5.141061E0,4.8808596E-1,-8.7890625E-2,-8.4723634E-1,-4.4655764E-1,3.8831884E-1,1.7601197E0,-8.131364E-1,7.327683E-1,8.5854495E-1,3.4100912E0,9.9257815E-1,-7.470703E-1],"split_indices":[1,5,5,4,5,5,4,5,4,4,3,3,4,5,5,3,5,0,0,5,3,4,5,4,5,4,3,4,3,4,7,7,5,3,4,0,0,4,3,5,6,5,5,1,0,2,5,0,0,0,0,0,0,0,5,4,4,6,0,0,0,0,0,0,0,0,0,0,0,0,0,0,0,0,0,0,0,0,0,0,0,0,0,0,0,0,0,0,0,0,0,0,0,0,0,0,0,0,0],"split_type":[0,0,0,0,0,0,0,0,0,0,0,0,0,0,0,0,0,0,0,0,0,0,0,0,0,0,0,0,0,0,0,0,0,0,0,0,0,0,0,0,0,0,0,0,0,0,0,0,0,0,0,0,0,0,0,0,0,0,0,0,0,0,0,0,0,0,0,0,0,0,0,0,0,0,0,0,0,0,0,0,0,0,0,0,0,0,0,0,0,0,0,0,0,0,0,0,0,0,0],"sum_hessian":[1.0057E4,8.928E3,1.129E3,8.512E3,4.16E2,2.76E2,8.53E2,8.506E3,6E0,1.04E2,3.12E2,1.86E2,9E1,8.6E1,7.67E2,8.376E3,1.3E2,3E0,3E0,6E1,4.4E1,1.12E2,2E2,3.7E1,1.49E2,7.4E1,1.6E1,2.7E1,5.9E1,7.53E2,1.4E1,8.332E3,4.4E1,1.01E2,2.9E1,2.6E1,3.4E1,2.6E1,1.8E1,9.6E1,1.6E1,1.3E1,1.87E2,3.2E1,5E0,4E1,1.09E2,2.3E1,5.1E1,1.3E1,3E0,2.5E1,2E0,1E0,5.8E1,1.14E2,6.39E2,1.1E1,3E0,8.15E3,1.82E2,2E1,2.4E1,6.8E1,3.3E1,9E0,2E1,1.4E1,1.2E1,1.5E1,3E0,8.1E1,1.5E1,1E1,6E0,7E0,6E0,7E1,1.17E2,1.3E1,1.9E1,1.7E1,2.3E1,5E0,1.04E2,1E0,1.2E1,1E0,1E0,1.9E1,3.9E1,5.1E1,6.3E1,9.2E1,5.47E2,3E0,8E0,2E0,1E0],"tree_param":{"num_deleted":"0","num_feature":"8","num_nodes":"99","size_leaf_vector":"0"}},{"base_weights":[1.2274523E0,1.9582031E1,1.2236801E0,2.393377E-1,1.2858851E0,1.2378937E0,-4.696492E0,3.5597472E0,1.2061344E0,1.04810745E-1,4.591347E0,-1.1774798E1,-1.2431499E0,2.44634E0,9.122642E0,-4.8844104E0,1.2801853E0,1.6132028E0,-5.8309007E0,6.4910483E0,-1.4397051E0,-3.579427E0,-1.4254141E1,-3.8061147E0,2.9958275E-1,-1.066875E1,2.6854656E0,1.25320635E1,6.091016E0,-1.0982056E0,-9.936171E0,2.3465223E0,1.1772536E0,-7.737075E-2,9.284831E0,-1.2197144E1,-4.065478E0,4.234964E0,1.0480526E1,-7.931803E0,2.527539E0,-6.4282227E0,-1.0836588E0,-1.9597221E1,-1.0586971E1,-4.0942187E0,1.6982422E0,2.4880023E0,-1.627767E0,-1.125E0,-1.27734375E1,6.9375515E0,1.9618323E0,1.4087793E1,3.8027344E0,-2.2114258E0,8.713995E0,-5.9715075E0,6.5063477E-1,-1.2651786E1,-5.6375E0,6.032818E-1,4.62517E0,-2.798902E0,1.2953823E0],"categories":[],"categories_nodes":[],"categories_segments":[],"categories_sizes":[],"default_left":[1,0,1,1,1,1,1,1,1,1,1,1,1,1,1,1,1,1,1,1,1,1,1,1,1,1,1,1,1,1,1,1,1,0,0,0,0,0,0,0,0,0,0,0,0,0,0,0,0,0,0,0,0,0,0,0,0,0,0,0,0,0,0,0,0],"id":28,"left_children":[1,-1,3,5,7,9,11,13,15,17,19,21,23,25,27,29,31,33,35,37,39,41,43,45,47,49,51,53,55,57,59,61,63,-1,-1,-1,-1,-1,-1,-1,-1,-1,-1,-1,-1,-1,-1,-1,-1,-1,-1,-1,-1,-1,-1,-1,-1,-1,-1,-1,-1,-1,-1,-1,-1],"loss_changes":[6.7241895E2,0E0,6.1549316E2,2.9581067E3,1.7110215E3,1.8955897E3,2.454188E3,1.959689E3,4.1284883E3,3.3579707E3,1.4529519E3,6.195093E2,2.7396417E2,8.6913916E2,4.7147998E2,2.0930576E3,9.884795E2,3.8785845E3,8.045852E2,8.1967285E2,8.1847595E2,5.7023407E1,2.8237402E2,4.818448E1,1.8963527E2,8.606293E1,7.987047E2,2.7235938E2,6.725842E2,5.493334E2,4.7733154E2,3.1511616E3,3.872999E3,0E0,0E0,0E0,0E0,0E0,0E0,0E0,0E0,0E0,0E0,0E0,0E0,0E0,0E0,0E0,0E0,0E0,0E0,0E0,0E0,0E0,0E0,0E0,0E0,0E0,0E0,0E0,0E0,0E0,0E0,0E0,0E0],"parents":[2147483647,0,0,2,2,3,3,4,4,5,5,6,6,7,7,8,8,9,9,10,10,11,11,12,12,13,13,14,14,15,15,16,16,17,17,18,18,19,19,20,20,21,21,22,22,23,23,24,24,25,25,26,26,27,27,28,28,29,29,30,30,31,31,32,32],"right_children":[2,-1,4,6,8,10,12,14,16,18,20,22,24,26,28,30,32,34,36,38,40,42,44,46,48,50,52,54,56,58,60,62,64,-1,-1,-1,-1,-1,-1,-1,-1,-1,-1,-1,-1,-1,-1,-1,-1,-1,-1,-1,-1,-1,-1,-1,-1,-1,-1,-1,-1,-1,-1,-1,-1],"split_conditions":[-7.814279E1,5.8746095E0,2.593957E4,2.5914805E4,2.5976074E4,2.5884055E4,2.5912656E4,2.596948E4,2.597559E4,2.585124E4,2.5915814E4,2.5916545E4,2.5931164E4,-3.857983E1,2.5966215E4,2.5978664E4,2.601564E4,2.585407E4,2.586819E4,2.5894414E4,2.591941E4,2.593382E4,2.5902309E4,7.541231E0,2.5931121E4,2.5915781E4,2.5936004E4,2.6044879E4,2.5949352E4,2.5979941E4,2.596782E4,2.6005105E4,2.602147E4,-2.3211226E-2,2.7854495E0,-3.6591432E0,-1.2196434E0,1.2704892E0,3.144158E0,-2.3795412E0,7.5826174E-1,-1.9284669E0,-3.2509765E-1,-5.8791666E0,-3.1760914E0,-1.2282656E0,5.0947267E-1,7.464007E-1,-4.883301E-1,-3.375E-1,-3.8320315E0,2.0812654E0,5.8854973E-1,4.2263384E0,1.1408204E0,-6.6342777E-1,2.6141987E0,-1.7914523E0,1.9519044E-1,-3.7955358E0,-1.69125E0,1.8098454E-1,1.3875511E0,-8.3967066E-1,3.8861468E-1],"split_indices":[6,0,4,3,4,4,5,4,5,5,4,3,4,6,3,3,5,4,4,5,4,0,5,6,3,3,3,1,5,4,5,5,5,0,0,0,0,0,0,0,0,0,0,0,0,0,0,0,0,0,0,0,0,0,0,0,0,0,0,0,0,0,0,0,0],"split_type":[0,0,0,0,0,0,0,0,0,0,0,0,0,0,0,0,0,0,0,0,0,0,0,0,0,0,0,0,0,0,0,0,0,0,0,0,0,0,0,0,0,0,0,0,0,0,0,0,0,0,0,0,0,0,0,0,0,0,0,0,0,0,0,0,0],"sum_hessian":[1.0057E4,1E0,1.0056E4,5.98E2,9.458E3,4.98E2,1E2,3.19E2,9.139E3,3.73E2,1.25E2,3.2E1,6.8E1,2.67E2,5.2E1,1.09E2,9.03E3,2.98E2,7.5E1,9.5E1,3E1,8E0,2.4E1,2.5E1,4.3E1,4E0,2.63E2,2.3E1,2.9E1,6.3E1,4.6E1,7.93E2,8.237E3,2.45E2,5.3E1,1.5E1,6E1,6.2E1,3.3E1,1.1E1,1.9E1,3E0,5E0,8E0,1.6E1,2.4E1,1E0,2E1,2.3E1,1E0,3E0,3.7E1,2.26E2,1.9E1,4E0,7E0,2.2E1,1.6E1,4.7E1,2.7E1,1.9E1,4.5E2,3.43E2,2.37E2,8E3],"tree_param":{"num_deleted":"0","num_feature":"8","num_nodes":"65","size_leaf_vector":"0"}},{"base_weights":[8.586571E-1,6.453257E-1,1.1117405E0,7.429574E-1,-2.7233539E0,2.2578478E0,7.951001E-1,6.461251E-1,3.1620233E0,-2.141704E0,-9.427734E0,1.8342617E0,4.008531E0,-1.579734E0,1.0936525E0,7.126624E-1,-1.7009503E0,5.6632414E0,1.2537394E0,-2.9974153E0,8.399325E0,-1.1099121E1,-4.8679686E0,1.8831736E0,-2.6901042E0,6.22427E0,3.2927709E0,-9.07706E0,-1.3658656E0,5.1894817E0,1.0044911E0,6.332632E-1,2.581306E0,-2.7455277E0,-6.903093E-1,1.8972657E0,6.3500843E0,6.854115E-1,4.5565257E0,-2.6158855E0,-6.9911222E0,4.0503907E0,1.0305803E1,1.5315448E-1,2.0040455E0,8.6035156E-1,-4.608724E0,6.6969023E0,-4.1259766E-1,-2.1442145E-1,4.421997E0,-2.9296875E-1,-9.926172E0,-2.5175216E0,-7.397156E-1,4.2576647E0,2.3959635E1,-4.004507E0,1.1318848E0,8.862808E-1,-2.1610418E-1,-1.7849864E-1,2.9196072E0,-2.9230597E0,-1.2371962E0,-1.5765991E0,1.3950893E-3,2.9209735E0,-3.1712239E0,-5.7747394E-1,6.8604507E0,7.827344E-1,-4.5234375E0,-1.4765625E0,5.459375E0,-2.8416984E0,3.2816405E0,7.597656E-1,-7.8421874E0,6.8012695E0,-3.4765625E0,1.5015625E0,1.2436224E-2,2.9558945E0,1.6480131E0,8.57087E0,5.5991535E0,-7.3828125E-1,2.8222656E-1,-2.2981389E0,1.4826078E0,3.6773717E0,5.531341E0,-1.0273438E0,-1.0800781E1,-5.265108E-1,-4.388947E0,-1.5140146E-1,-1.2035484E0,-1.2489346E0,5.263288E0,-1.0482422E1,-3.0076427E0,2.027189E0,7.892654E-1],"categories":[],"categories_nodes":[],"categories_segments":[],"categories_sizes":[],"default_left":[1,1,1,1,1,1,1,1,1,1,1,1,1,1,1,1,1,1,1,1,1,0,0,1,1,1,1,1,1,1,1,1,1,1,1,1,1,1,1,1,1,1,0,1,1,0,0,1,1,1,1,0,1,1,1,1,0,1,1,0,0,0,0,0,0,0,0,0,0,0,0,0,0,0,0,0,0,0,0,0,0,0,0,0,0,0,0,0,0,0,0,0,0,0,0,0,0,0,0,0,0,0,0,0,0],"id":29,"left_children":[1,3,5,7,9,11,13,15,17,19,21,23,25,27,29,31,33,35,37,39,41,-1,-1,43,45,47,49,51,53,55,57,59,61,63,65,67,69,71,73,75,77,79,-1,81,83,-1,-1,85,87,89,91,-1,93,95,97,99,-1,101,103,-1,-1,-1,-1,-1,-1,-1,-1,-1,-1,-1,-1,-1,-1,-1,-1,-1,-1,-1,-1,-1,-1,-1,-1,-1,-1,-1,-1,-1,-1,-1,-1,-1,-1,-1,-1,-1,-1,-1,-1,-1,-1,-1,-1,-1,-1],"loss_changes":[5.423208E2,1.7977617E3,1.6671992E3,1.2410894E3,5.803473E2,7.305044E2,2.5577168E3,7.982949E2,9.6659875E2,1.3150477E3,3.7423462E1,1.827666E2,2.8559106E2,6.33789E2,1.1644902E3,7.3486865E2,1.469574E2,2.1557617E2,2.1649355E2,1.843667E2,4.9460083E1,0E0,0E0,1.6593604E2,6.527289E1,1.4705579E2,5.8708936E2,7.913739E1,2.815337E2,1.087332E3,2.0056609E3,1.02378345E3,1.8911743E2,1.4860168E1,4.4754894E1,8.709284E1,2.6559546E2,5.4741604E1,1.0065958E2,1.7312915E2,7.8519775E1,1.2717372E2,0E0,1.0037844E1,2.469231E2,0E0,0E0,4.046765E1,1.113534E0,1.3424403E2,7.217651E1,0E0,6.6733826E1,5.118811E2,6.967491E1,3.7205286E2,0E0,4.7216577E2,9.3674414E2,0E0,0E0,0E0,0E0,0E0,0E0,0E0,0E0,0E0,0E0,0E0,0E0,0E0,0E0,0E0,0E0,0E0,0E0,0E0,0E0,0E0,0E0,0E0,0E0,0E0,0E0,0E0,0E0,0E0,0E0,0E0,0E0,0E0,0E0,0E0,0E0,0E0,0E0,0E0,0E0,0E0,0E0,0E0,0E0,0E0,0E0],"parents":[2147483647,0,0,1,1,2,2,3,3,4,4,5,5,6,6,7,7,8,8,9,9,10,10,11,11,12,12,13,13,14,14,15,15,16,16,17,17,18,18,19,19,20,20,23,23,24,24,25,25,26,26,27,27,28,28,29,29,30,30,31,31,32,32,33,33,34,34,35,35,36,36,37,37,38,38,39,39,40,40,41,41,43,43,44,44,47,47,48,48,49,49,50,50,52,52,53,53,54,54,55,55,57,57,58,58],"right_children":[2,4,6,8,10,12,14,16,18,20,22,24,26,28,30,32,34,36,38,40,42,-1,-1,44,46,48,50,52,54,56,58,60,62,64,66,68,70,72,74,76,78,80,-1,82,84,-1,-1,86,88,90,92,-1,94,96,98,100,-1,102,104,-1,-1,-1,-1,-1,-1,-1,-1,-1,-1,-1,-1,-1,-1,-1,-1,-1,-1,-1,-1,-1,-1,-1,-1,-1,-1,-1,-1,-1,-1,-1,-1,-1,-1,-1,-1,-1,-1,-1,-1,-1,-1,-1,-1,-1,-1],"split_conditions":[2.6073195E4,2.6073273E4,2.6104074E4,2.607252E4,2.609316E4,2.60988E4,2.611277E4,2.606652E4,2.6066164E4,2.6091031E4,2.6111117E4,2.6125262E4,2.6095895E4,2.608392E4,2.610861E4,2.6066766E4,2.606899E4,2.6072994E4,2.6082705E4,2.6085715E4,2.6097527E4,-3.3297365E0,-1.4603906E0,2.607675E4,2.6091426E4,2.613323E4,2.609532E4,2.6074281E4,2.610289E4,2.6149344E4,2.610864E4,2.605185E4,2.6050496E4,2.6100656E4,2.607089E4,2.6070652E4,-2.2052105E1,2.6125422E4,2.6066879E4,2.6074625E4,2.6060164E4,2.608605E4,3.091741E0,2.607374E4,2.6081691E4,2.581055E-1,-1.3826172E0,2.6086045E4,2.6092885E4,2.6091129E4,2.6102965E4,-8.7890625E-2,2.605375E4,2.6103625E4,2.6107855E4,2.6090715E4,7.1878905E0,2.6093715E4,2.613768E4,2.6588425E-1,-6.483126E-2,-5.3549595E-2,8.758822E-1,-8.7691796E-1,-3.7115887E-1,-4.7297975E-1,4.1852682E-4,8.762921E-1,-9.513672E-1,-1.7324218E-1,2.0581353E0,2.3482032E-1,-1.3570313E0,-4.4296876E-1,1.6378125E0,-8.5250956E-1,9.844922E-1,2.279297E-1,-2.3526564E0,2.040381E0,-1.0429688E0,4.5046875E-1,3.7308673E-3,8.867684E-1,4.9440396E-1,2.5712612E0,1.6797462E0,-2.2148438E-1,8.466797E-2,-6.894417E-1,4.4478238E-1,1.1032115E0,1.6594024E0,-3.0820313E-1,-3.2402346E0,-1.5795323E-1,-1.3166841E0,-4.5420438E-2,-3.6106455E-1,-3.746804E-1,1.5789865E0,-3.1447268E0,-9.0229285E-1,6.0815674E-1,2.3677963E-1],"split_indices":[5,3,4,4,3,4,4,5,5,4,0,0,3,5,3,4,5,1,4,3,0,0,0,4,4,0,5,3,5,4,5,4,5,1,4,1,6,0,5,2,5,0,0,4,3,0,0,5,3,5,4,0,0,3,3,5,0,5,5,0,0,0,0,0,0,0,0,0,0,0,0,0,0,0,0,0,0,0,0,0,0,0,0,0,0,0,0,0,0,0,0,0,0,0,0,0,0,0,0,0,0,0,0,0,0],"split_type":[0,0,0,0,0,0,0,0,0,0,0,0,0,0,0,0,0,0,0,0,0,0,0,0,0,0,0,0,0,0,0,0,0,0,0,0,0,0,0,0,0,0,0,0,0,0,0,0,0,0,0,0,0,0,0,0,0,0,0,0,0,0,0,0,0,0,0,0,0,0,0,0,0,0,0,0,0,0,0,0,0,0,0,0,0,0,0,0,0,0,0,0,0,0,0,0,0,0,0,0,0,0,0,0,0],"sum_hessian":[1.0057E4,5.459E3,4.598E3,5.306E3,1.53E2,9.94E2,3.604E3,5.103E3,2.03E2,1.42E2,1.1E1,8.02E2,1.92E2,4.02E2,3.202E3,4.963E3,1.4E2,8.7E1,1.16E2,1.32E2,1E1,7E0,4E0,7.94E2,8E0,4.5E1,1.47E2,1E1,3.92E2,6.7E1,3.135E3,4.762E3,2.01E2,6.8E1,7.2E1,1.4E1,7.3E1,1E2,1.6E1,1.22E2,1E1,4E0,6E0,5.2E1,7.42E2,3E0,5E0,4.2E1,3E0,3.6E1,1.11E2,1E0,9E0,1.37E2,2.55E2,6.5E1,2E0,7.7E1,3.058E3,3.669E3,1.093E3,2.2E1,1.79E2,6E1,8E0,3.1E1,4.1E1,1.2E1,2E0,5E0,6.8E1,9.9E1,1E0,2E0,1.4E1,1.18E2,4E0,1E0,9E0,3E0,1E0,4E0,4.8E1,2E2,5.42E2,1.3E1,2.9E1,2E0,1E0,1.6E1,2E1,6.9E1,4.2E1,1E0,8E0,6.7E1,7E1,1.13E2,1.42E2,1E1,5.5E1,9E0,6.8E1,8.45E2,2.213E3],"tree_param":{"num_deleted":"0","num_feature":"8","num_nodes":"105","size_leaf_vector":"0"}},{"base_weights":[6.018388E-1,1.6526367E1,5.986121E-1,1.4744158E-1,7.013757E-1,4.5955575E-1,-3.3771331E0,1.0379452E1,6.5022117E-1,2.1683533E-1,3.1279638E0,-5.314193E0,-2.5387552E0,-8.116406E0,1.2484575E1,3.4538403E0,6.255019E-1,4.2960382E-1,-2.1901398E0,7.8409094E-1,3.796611E0,-5.670133E0,-3.2604167E0,-3.0399399E0,-1.6107422E0,-1.2257161E1,-1.2701823E0,7.680908E0,1.5166829E1,-6.6009116E0,3.8409476E0,-1.0622001E0,6.918527E-1,1.0134082E-1,3.3992243E0,-4.042318E0,4.2288774E-1,5.559645E-1,1.4274902E0,5.895215E0,3.2991254E0,-1.9936523E0,-3.2936559E0,-1.7229004E0,-1.0329862E0,2.6171875E-1,-2.1669922E0,-1.4208984E0,8.3824215E0,7.785735E-1,5.6745095E0,3.9410582E-1,-3.8537388E0,2.6998615E0,6.286277E-1],"categories":[],"categories_nodes":[],"categories_segments":[],"categories_sizes":[],"default_left":[1,0,1,1,1,1,1,1,1,1,1,1,1,1,1,1,1,1,1,1,1,0,0,1,1,0,1,1,0,0,1,1,1,0,0,0,0,0,0,0,0,0,0,0,0,0,0,0,0,0,0,0,0,0,0],"id":30,"left_children":[1,-1,3,5,7,9,11,13,15,17,19,21,23,25,27,29,31,33,35,37,39,-1,-1,41,43,-1,45,47,-1,-1,49,51,53,-1,-1,-1,-1,-1,-1,-1,-1,-1,-1,-1,-1,-1,-1,-1,-1,-1,-1,-1,-1,-1,-1],"loss_changes":[5.0692383E2,0E0,4.6617847E2,2.055382E3,4.048433E3,1.1107356E3,2.3335486E2,1.7755815E3,5.62594E2,8.070311E2,2.2113623E2,1.4409058E1,4.53349E1,1.2617386E2,3.8600635E2,3.017049E2,9.0542456E2,1.410215E3,6.212027E2,4.049984E0,9.6437744E1,0E0,0E0,1.1750366E1,8.122711E-1,0E0,4.6886144E0,1.1407135E2,0E0,0E0,3.830205E2,1.245511E3,9.852615E2,0E0,0E0,0E0,0E0,0E0,0E0,0E0,0E0,0E0,0E0,0E0,0E0,0E0,0E0,0E0,0E0,0E0,0E0,0E0,0E0,0E0,0E0],"parents":[2147483647,0,0,2,2,3,3,4,4,5,5,6,6,7,7,8,8,9,9,10,10,11,11,12,12,13,13,14,14,15,15,16,16,17,17,18,18,19,19,20,20,23,23,24,24,26,26,27,27,30,30,31,31,32,32],"right_children":[2,-1,4,6,8,10,12,14,16,18,20,22,24,26,28,30,32,34,36,38,40,-1,-1,42,44,-1,46,48,-1,-1,50,52,54,-1,-1,-1,-1,-1,-1,-1,-1,-1,-1,-1,-1,-1,-1,-1,-1,-1,-1,-1,-1,-1,-1],"split_conditions":[-7.814279E1,4.9579105E0,2.6023145E4,2.601564E4,2.6015645E4,2.6010465E4,2.6019375E4,2.5892203E4,2.6022285E4,2.6009855E4,2.6013621E4,2.6018635E4,2.6019996E4,2.5771004E4,2.6025625E4,2.5923115E4,2.6027125E4,2.5998512E4,2.6006988E4,2.6012004E4,2.6013602E4,-1.70104E0,-9.7812504E-1,2.6019436E4,2.602296E4,-3.6771486E0,2.5889713E4,2.5974205E4,4.550049E0,-1.9802736E0,2.6027984E4,2.6029555E4,2.6032594E4,3.0402249E-2,1.0197673E0,-1.2126954E0,1.2686633E-1,1.6678937E-1,4.282471E-1,1.7685646E0,9.897377E-1,-5.980957E-1,-9.880968E-1,-5.1687014E-1,-3.0989587E-1,7.851563E-2,-6.5009767E-1,-4.2626956E-1,2.5147266E0,2.3357207E-1,1.7023529E0,1.1823175E-1,-1.1561217E0,8.099585E-1,1.8858832E-1],"split_indices":[6,0,4,5,3,5,4,0,3,3,4,5,5,2,4,0,5,5,5,4,3,0,0,3,3,0,0,3,0,0,4,3,3,0,0,0,0,0,0,0,0,0,0,0,0,0,0,0,0,0,0,0,0,0,0],"split_type":[0,0,0,0,0,0,0,0,0,0,0,0,0,0,0,0,0,0,0,0,0,0,0,0,0,0,0,0,0,0,0,0,0,0,0,0,0,0,0,0,0,0,0,0,0,0,0,0,0,0,0,0,0,0,0],"sum_hessian":[1.0057E4,1E0,1.0056E4,1.866E3,8.19E3,1.715E3,1.51E2,4.2E1,8.148E3,1.573E3,1.42E2,4.4E1,1.07E2,4E0,3.8E1,7E1,8.078E3,1.446E3,1.27E2,3.2E1,1.1E2,3.6E1,8E0,6.8E1,3.9E1,2E0,2E0,1.5E1,2.3E1,2E0,6.8E1,3.05E2,7.773E3,1.303E3,1.43E2,7.4E1,5.3E1,2.5E1,7E0,1.9E1,9.1E1,1.5E1,5.3E1,3.1E1,8E0,1E0,1E0,1E0,1.4E1,2.6E1,4.2E1,2.01E2,1.04E2,2.36E2,7.537E3],"tree_param":{"num_deleted":"0","num_feature":"8","num_nodes":"55","size_leaf_vector":"0"}},{"base_weights":[4.210406E-1,3.39836E-1,1.0057542E0,4.0492204E-1,-5.0742188E0,6.3068967E0,7.2755915E-1,3.63172E-1,1.5532878E1,-2.0610807E1,-2.4574819E0,1.6854581E0,1.7253365E1,-3.4094381E0,9.828715E-1,4.3191403E-1,-2.5776343E0,1.1625177E1,3.901172E1,-2.6337402E1,-1.2307861E1,-5.686177E0,-7.763832E-1,-8.262804E-2,8.57053E0,-3.8900924E0,8.301433E0,3.2738185E0,3.2179907E-1,3.9763078E-1,5.507881E0,-4.020584E0,2.3091457E0,4.8040366E0,1.3348805E1,-1.36171875E1,-1.5712891E0,-7.433771E0,-1.2728516E0,6.0794272E0,-5.0859375E0,1.4047852E1,-8.877232E-1,1.2287109E1,8.5302734E-1,-2.9110656E0,-9.767144E0,8.368008E-1,6.329182E0,-2.252892E0,8.959479E-1,3.4552088E-1,1.8789266E0,1.8541016E1,4.174418E0,-5.5750513E0,-2.9690616E0,1.050359E0,6.735742E0,-1.3798828E0,6.316797E0,1.3369141E0,1.4015991E1,-3.1914062E0,-1.4822917E1,-4.7013116E0,-1.085829E1,1.3571428E0,-5.557129E0,1.2964844E0,1.2645899E1,-8.506623E0,1.4916992E-1,1.2833426E0,-8.375488E0,1.5927083E1,6.4853516E0,2.3444011E0,-1.8105469E0,-6.962316E0,-1.2019625E0,3.03791E-1,4.6127067E0,4.885481E0,8.795173E0,-1.8032161E0,-1.1566964E1,3.6320312E0,6.380402E-1],"categories":[],"categories_nodes":[],"categories_segments":[],"categories_sizes":[],"default_left":[1,1,1,1,1,1,1,1,1,1,1,1,0,1,1,1,1,1,0,0,1,1,1,1,1,1,0,1,1,1,1,1,1,1,1,1,0,1,1,1,1,0,1,1,1,1,0,1,1,1,1,0,0,0,0,0,0,0,0,0,0,0,0,0,0,0,0,0,0,0,0,0,0,0,0,0,0,0,0,0,0,0,0,0,0,0,0,0,0],"id":31,"left_children":[1,3,5,7,9,11,13,15,17,19,21,23,-1,25,27,29,31,33,-1,-1,35,37,39,41,43,45,-1,47,49,51,53,55,57,59,61,63,-1,65,67,69,71,-1,73,75,77,79,-1,81,83,85,87,-1,-1,-1,-1,-1,-1,-1,-1,-1,-1,-1,-1,-1,-1,-1,-1,-1,-1,-1,-1,-1,-1,-1,-1,-1,-1,-1,-1,-1,-1,-1,-1,-1,-1,-1,-1,-1,-1],"loss_changes":[4.7722644E2,3.1146208E3,1.8034569E3,5.5075317E3,4.2181416E3,3.0568137E3,1.2349111E3,1.7610925E3,1.7484404E3,3.8905713E2,4.8951105E2,5.363377E2,0E0,4.1505707E2,1.663362E3,1.4783776E3,1.4125083E3,1.9452832E2,0E0,0E0,9.106482E1,2.2963177E2,1.8331942E3,4.2202032E2,2.4766327E2,3.513175E2,0E0,1.8264136E3,1.2644491E3,6.517623E2,9.132167E2,2.3516895E2,2.4924356E2,6.484517E1,1.17502686E2,4.068872E1,0E0,1.5481372E2,1.2021808E2,7.3737427E2,6.8176E2,0E0,5.797237E2,2.3416687E1,2.0134186E1,3.9322382E2,0E0,2.7633682E2,3.450879E2,6.325193E2,4.909369E2,0E0,0E0,0E0,0E0,0E0,0E0,0E0,0E0,0E0,0E0,0E0,0E0,0E0,0E0,0E0,0E0,0E0,0E0,0E0,0E0,0E0,0E0,0E0,0E0,0E0,0E0,0E0,0E0,0E0,0E0,0E0,0E0,0E0,0E0,0E0,0E0,0E0,0E0],"parents":[2147483647,0,0,1,1,2,2,3,3,4,4,5,5,6,6,7,7,8,8,9,9,10,10,11,11,13,13,14,14,15,15,16,16,17,17,20,20,21,21,22,22,23,23,24,24,25,25,27,27,28,28,29,29,30,30,31,31,32,32,33,33,34,34,35,35,37,37,38,38,39,39,40,40,42,42,43,43,44,44,45,45,47,47,48,48,49,49,50,50],"right_children":[2,4,6,8,10,12,14,16,18,20,22,24,-1,26,28,30,32,34,-1,-1,36,38,40,42,44,46,-1,48,50,52,54,56,58,60,62,64,-1,66,68,70,72,-1,74,76,78,80,-1,82,84,86,88,-1,-1,-1,-1,-1,-1,-1,-1,-1,-1,-1,-1,-1,-1,-1,-1,-1,-1,-1,-1,-1,-1,-1,-1,-1,-1,-1,-1,-1,-1,-1,-1,-1,-1,-1,-1,-1,-1],"split_conditions":[2.6405926E4,2.6251809E4,2.637475E4,2.6237387E4,2.6289385E4,2.6367191E4,2.639305E4,2.6181164E4,2.361702E1,2.626109E4,2.635727E4,2.6352164E4,5.1760097E0,2.6420352E4,2.64298E4,2.6185055E4,2.6202275E4,6.4732504E0,1.1703516E1,-7.901221E0,2.633621E4,2.6388953E4,2.6375355E4,2.6248596E4,2.6370004E4,2.6407629E4,2.4904299E0,2.641571E4,2.6446045E4,2.6151875E4,2.6151E4,2.6191904E4,2.62247E4,2.6258168E4,2.623896E4,2.6264406E4,-4.7138673E-1,2.6293266E4,2.6348004E4,2.635433E4,2.639361E4,4.2143555E0,2.6396996E4,2.636245E4,2.646452E4,2.6391E4,-2.9301434E0,2.6427426E4,2.6430656E4,2.645801E4,2.6457195E4,1.0365627E-1,5.63678E-1,5.562305E0,1.2523254E0,-1.6725155E0,-8.907185E-1,3.151077E-1,2.0207226E0,-4.1396487E-1,1.8950391E0,4.0107423E-1,4.2047977E0,-9.574219E-1,-4.446875E0,-1.4103935E0,-3.257487E0,4.0714285E-1,-1.6671387E0,3.889453E-1,3.7937698E0,-2.5519872E0,4.4750977E-2,3.850028E-1,-2.5126467E0,4.7781253E0,1.9456055E0,7.033204E-1,-5.431641E-1,-2.0886948E0,-3.6058876E-1,9.11373E-2,1.3838121E0,1.4656444E0,2.638552E0,-5.4096484E-1,-3.4700894E0,1.0896094E0,1.9141206E-1],"split_indices":[1,3,5,4,5,5,5,5,6,5,4,2,0,4,5,4,5,6,0,0,0,1,5,3,3,4,0,5,5,5,3,4,4,0,4,5,0,2,3,5,4,0,0,3,0,4,0,4,4,3,4,0,0,0,0,0,0,0,0,0,0,0,0,0,0,0,0,0,0,0,0,0,0,0,0,0,0,0,0,0,0,0,0,0,0,0,0,0,0],"split_type":[0,0,0,0,0,0,0,0,0,0,0,0,0,0,0,0,0,0,0,0,0,0,0,0,0,0,0,0,0,0,0,0,0,0,0,0,0,0,0,0,0,0,0,0,0,0,0,0,0,0,0,0,0,0,0,0,0,0,0,0,0,0,0,0,0,0,0,0,0,0,0,0,0,0,0,0,0,0,0,0,0,0,0,0,0,0,0,0,0],"sum_hessian":[1.0057E4,8.832E3,1.225E3,8.728E3,1.04E2,6E1,1.165E3,8.705E3,2.3E1,1.4E1,9E1,4.3E1,1.7E1,6.7E1,1.098E3,8.507E3,1.98E2,2.1E1,2E0,7E0,7E0,3E1,6E1,3.5E1,8E0,6.5E1,2E0,2.45E2,8.53E2,8.451E3,5.6E1,1.53E2,4.5E1,5E0,1.6E1,6E0,1E0,2.1E1,9E0,2.3E1,3.7E1,1E0,3.4E1,5E0,3E0,5.7E1,8E0,1.37E2,1.08E2,1.55E2,6.98E2,8.165E3,2.86E2,4E0,5.2E1,6E1,9.3E1,3.6E1,9E0,1E0,4E0,1E0,1.5E1,1E0,5E0,1.3E1,8E0,6E0,3E0,1.4E1,9E0,2.2E1,1.5E1,2.7E1,7E0,2E0,3E0,2E0,1E0,1.6E1,4.1E1,1.21E2,1.6E1,7E1,3.8E1,1.49E2,6E0,5.9E1,6.39E2],"tree_param":{"num_deleted":"0","num_feature":"8","num_nodes":"89","size_leaf_vector":"0"}},{"base_weights":[2.9691985E-1,-5.4305887E0,3.0430198E-1,4.7727866E0,-7.719638E0,9.026228E0,2.9210111E-1,-1.4334961E1,-3.4470215E0,4.574707E0,2.3823568E1,-7.1740885E0,3.0324998E-1,8.733724E-1,-1.0938802E1,5.5846944E0,-3.2675781E0,5.470703E0,-8.468053E0,5.718153E0,2.8369474E-1,-2.1315105E0,2.9086914E0,2.833659E0,7.4049478E0,-1.0225477E1,-4.4205728E0,-6.6876775E-1,1.4704427E1,-1.1905227E1,3.0935547E-1,-1.9335938E-1,4.0071616E0,-1.4283854E0,5.3217773E0,1.3623047E0,8.341016E0,-2.7734375E0,-1.0810303E1,-6.330078E0,5.5828536E-1,9.38711E0,2.1115885E1,-1.32206E1,3.9388022E-1,3.0591285E-1,1.16380205E1],"categories":[],"categories_nodes":[],"categories_segments":[],"categories_sizes":[],"default_left":[1,1,1,0,1,1,1,0,1,1,0,1,1,1,0,1,0,0,1,1,1,0,1,1,1,1,0,1,1,1,1,0,0,0,0,0,0,0,0,0,0,0,0,0,0,0,0],"id":32,"left_children":[1,3,5,-1,7,9,11,-1,13,15,-1,17,19,21,-1,23,-1,-1,25,27,29,-1,31,33,35,37,-1,39,41,43,45,-1,-1,-1,-1,-1,-1,-1,-1,-1,-1,-1,-1,-1,-1,-1,-1],"loss_changes":[4.2691595E2,3.404725E2,1.0664089E3,0E0,2.614992E2,8.132035E2,8.373198E2,0E0,2.684932E2,1.1329573E2,0E0,2.917547E2,1.0592883E3,4.2895275E1,0E0,3.410031E1,0E0,0E0,5.438159E1,2.07604E3,3.1264468E3,0E0,1.4404861E1,7.122838E1,2.2574982E1,9.241577E0,0E0,1.5636201E2,3.1315942E2,3.4494336E2,3.8503827E2,0E0,0E0,0E0,0E0,0E0,0E0,0E0,0E0,0E0,0E0,0E0,0E0,0E0,0E0,0E0,0E0],"parents":[2147483647,0,0,1,1,2,2,4,4,5,5,6,6,8,8,9,9,11,11,12,12,13,13,15,15,18,18,19,19,20,20,22,22,23,23,24,24,25,25,27,27,28,28,29,29,30,30],"right_children":[2,4,6,-1,8,10,12,-1,14,16,-1,18,20,22,-1,24,-1,-1,26,28,30,-1,32,34,36,38,-1,40,42,44,46,-1,-1,-1,-1,-1,-1,-1,-1,-1,-1,-1,-1,-1,-1,-1,-1],"split_conditions":[2.5650965E4,-5.4784004E1,2.5659434E4,1.431836E0,2.545058E4,2.569348E4,2.566264E4,-4.3004885E0,-1.410947E1,2.565342E4,7.147071E0,2.5483387E4,2.5757E4,2.55809E4,-3.2816408E0,2.566005E4,-9.802735E-1,1.641211E0,2.5667809E4,2.575568E4,2.578943E4,-6.394532E-1,2.5781438E4,2.5663695E4,2.5545133E4,2.563579E4,-1.3261719E0,2.5559656E4,2.5745955E4,2.5823969E4,2.6775336E4,-5.8007814E-2,1.2021486E0,-4.2851564E-1,1.5965333E0,4.0869144E-1,2.5023048E0,-8.320313E-1,-3.2430909E0,-1.8990235E0,1.6748561E-1,2.816133E0,6.334766E0,-3.96618E0,1.1816407E-1,9.177386E-2,3.4914062E0],"split_indices":[4,7,3,0,2,4,5,0,7,5,0,2,5,5,0,0,0,0,0,4,5,0,1,4,2,0,0,2,5,4,3,0,0,0,0,0,0,0,0,0,0,0,0,0,0,0,0],"split_type":[0,0,0,0,0,0,0,0,0,0,0,0,0,0,0,0,0,0,0,0,0,0,0,0,0,0,0,0,0,0,0,0,0,0,0,0,0,0,0,0,0,0,0,0,0,0,0],"sum_hessian":[1.0057E4,1.2E1,1.0045E4,2E0,1E1,1.3E1,1.0032E4,3E0,7E0,1.1E1,2E0,1.4E1,1.0018E4,5E0,2E0,1E1,1E0,1E0,1.3E1,3.5E1,9.983E3,2E0,3E0,5E0,5E0,8E0,5E0,2.1E1,1.4E1,2E1,9.963E3,1E0,2E0,2E0,3E0,1E0,4E0,1E0,7E0,3E0,1.8E1,9E0,5E0,1.8E1,2E0,9.961E3,2E0],"tree_param":{"num_deleted":"0","num_feature":"8","num_nodes":"47","size_leaf_vector":"0"}},{"base_weights":[2.0861542E-1,1.789866E-1,1.3561713E0,2.2308515E-1,-2.6047156E0,3.8329687E0,3.1083056E-1,1.7927381E-1,3.265226E0,-4.3592753E0,5.1227677E-1,1.7571847E0,4.9639893E0,-3.0316505E0,1.2331421E0,2.0815913E-1,-2.1637259E0,6.013071E0,2.5981793E0,-5.664106E0,-3.1911893E0,2.3577769E0,5.9825066E-2,4.8356586E0,-1.2332032E0,3.975525E0,6.5326285E0,-4.5990953E0,-1.469122E0,5.99043E0,8.633996E-1,1.5943983E-1,1.427994E0,-4.9542356E0,2.5361031E-2,5.263672E-1,6.2114844E0,-1.3924154E0,3.6451018E0,-3.5362723E0,-7.2249217E0,-3.7004452E0,-1.1004232E0,3.206787E0,7.03125E-2,-7.7199835E-1,6.2214005E-1,6.6308594E-1,5.9133525E0,2.586328E0,-2.8572443E0,1.8577474E0,4.9963727E0,7.153646E0,1.25E0,-5.7942706E-1,-5.993304E0,-1.1442057E-1,-2.9478517E0,1.1640625E0,7.0515137E0,-4.7382812E0,1.3118013E0,1.9889958E-1,-1.6901661E0,3.4993327E0,-2.3824239E-1,-2.175547E0,-7.3436055E0,-1.3416992E0,6.065492E-1,7.558594E-1,6.407308E0,2.0839844E0,-1.6341712E0,2.9046874E0,6.054297E0,-5.162946E0,-2.475586E-1,-7.5516763E0,3.0859375E-1,-4.095201E0,-1.7541232E0,2.088672E0,-2.9560547E0,3.5605469E0,3.6523438E-1,-7.441406E-1,5.8984375E-1,-1.4407552E0,1.3886719E0,1.8937988E0,1.08072914E-1,-7.0703125E-1,1.3554688E0,7.084961E0,2.0917969E0,-1.9401042E-1,4.504557E0,-3.3730469E0,1.1503906E0,3.2740886E0,3.783482E-1,5.3160157E0,-6.982422E-1,5.2304688E0,9.953906E0,-3.2705078E0,6.128906E-1,-8.571875E0,-4.1046877E0,-1.2876674E0,1.2734375E0,-5.0214844E0,-1.3417969E0,1.6601562E0,8.59375E-2,3.2075195E0,8.716406E0,-1.9503348E-1,-1.1504395E1,4.8714194E0,6.949624E-1],"categories":[],"categories_nodes":[],"categories_segments":[],"categories_sizes":[],"default_left":[1,1,1,1,1,1,1,1,1,1,1,1,1,1,1,1,1,1,1,1,1,1,1,1,1,1,1,1,1,1,1,1,1,1,1,0,1,1,1,1,1,1,1,1,1,1,1,1,1,1,1,1,1,1,0,1,1,1,1,1,1,1,1,0,0,0,0,0,0,0,0,0,0,0,0,0,0,0,0,0,0,0,0,0,0,0,0,0,0,0,0,0,0,0,0,0,0,0,0,0,0,0,0,0,0,0,0,0,0,0,0,0,0,0,0,0,0,0,0,0,0,0,0],"id":33,"left_children":[1,3,5,7,9,11,13,15,17,19,21,23,25,27,29,31,33,35,37,39,41,43,45,47,49,51,53,55,57,59,61,63,65,67,69,-1,71,73,75,77,79,81,83,85,87,89,91,93,95,97,99,101,103,105,-1,107,109,111,113,115,117,119,121,-1,-1,-1,-1,-1,-1,-1,-1,-1,-1,-1,-1,-1,-1,-1,-1,-1,-1,-1,-1,-1,-1,-1,-1,-1,-1,-1,-1,-1,-1,-1,-1,-1,-1,-1,-1,-1,-1,-1,-1,-1,-1,-1,-1,-1,-1,-1,-1,-1,-1,-1,-1,-1,-1,-1,-1,-1,-1,-1,-1],"loss_changes":[3.417366E2,1.2043386E3,6.538502E2,1.2861023E3,8.389823E2,1.6735889E2,5.555613E2,6.4461237E2,2.3548975E2,1.3129187E2,4.6618927E1,2.6372662E2,4.8455444E1,8.876129E1,2.4284286E2,5.585879E2,7.087312E2,2.5034973E1,4.7299402E2,1.2390283E2,5.3423645E1,2.113741E1,2.1996641E1,5.9033478E1,1.0043591E2,5.989978E1,4.6828247E1,1.0300815E2,4.1730686E1,4.3003418E1,3.377737E2,6.603395E2,1.2467675E3,3.2262866E2,5.3252075E1,0E0,2.186554E1,2.3576141E1,1.4117249E2,1.1106488E2,6.3870605E1,2.585437E1,7.718765E1,6.741379E0,2.131462E0,2.9455032E1,1.8099436E1,4.752941E0,3.4430756E1,2.7540562E1,2.661895E1,2.3905258E1,4.193695E1,2.8717346E1,0E0,2.1256203E1,3.299411E1,2.1179365E1,2.6565857E1,1.4618835E0,2.3240662E1,3.0515756E2,2.6668698E2,0E0,0E0,0E0,0E0,0E0,0E0,0E0,0E0,0E0,0E0,0E0,0E0,0E0,0E0,0E0,0E0,0E0,0E0,0E0,0E0,0E0,0E0,0E0,0E0,0E0,0E0,0E0,0E0,0E0,0E0,0E0,0E0,0E0,0E0,0E0,0E0,0E0,0E0,0E0,0E0,0E0,0E0,0E0,0E0,0E0,0E0,0E0,0E0,0E0,0E0,0E0,0E0,0E0,0E0,0E0,0E0,0E0,0E0,0E0,0E0],"parents":[2147483647,0,0,1,1,2,2,3,3,4,4,5,5,6,6,7,7,8,8,9,9,10,10,11,11,12,12,13,13,14,14,15,15,16,16,17,17,18,18,19,19,20,20,21,21,22,22,23,23,24,24,25,25,26,26,27,27,28,28,29,29,30,30,31,31,32,32,33,33,34,34,36,36,37,37,38,38,39,39,40,40,41,41,42,42,43,43,44,44,45,45,46,46,47,47,48,48,49,49,50,50,51,51,52,52,53,53,55,55,56,56,57,57,58,58,59,59,60,60,61,61,62,62],"right_children":[2,4,6,8,10,12,14,16,18,20,22,24,26,28,30,32,34,36,38,40,42,44,46,48,50,52,54,56,58,60,62,64,66,68,70,-1,72,74,76,78,80,82,84,86,88,90,92,94,96,98,100,102,104,106,-1,108,110,112,114,116,118,120,122,-1,-1,-1,-1,-1,-1,-1,-1,-1,-1,-1,-1,-1,-1,-1,-1,-1,-1,-1,-1,-1,-1,-1,-1,-1,-1,-1,-1,-1,-1,-1,-1,-1,-1,-1,-1,-1,-1,-1,-1,-1,-1,-1,-1,-1,-1,-1,-1,-1,-1,-1,-1,-1,-1,-1,-1,-1,-1,-1,-1],"split_conditions":[2.6517135E4,2.6485266E4,2.653804E4,2.647083E4,2.6492105E4,2.6512434E4,2.6561469E4,2.6457195E4,2.6469809E4,2.6481096E4,2.6457465E4,2.6511E4,2.6529996E4,2.6546945E4,2.6552996E4,2.6406496E4,2.645614E4,2.646811E4,2.6469594E4,2.6480705E4,2.6495906E4,2.65105E4,5.975898E0,2.6420746E4,2.6487777E4,2.6509082E4,2.6534047E4,2.651842E4,2.6547336E4,2.6463363E4,2.6529188E4,2.637479E4,2.64298E4,2.645672E4,2.6463824E4,1.5791017E-1,2.6399715E4,2.6473785E4,2.647798E4,2.6503377E4,1.79388E1,7.4990087E0,2.6505895E4,2.6507031E4,2.6415166E4,2.6504404E4,2.650207E4,2.6443766E4,2.6504914E4,2.6475484E4,2.6604547E4,2.6520875E4,2.650755E4,2.6496316E4,3.75E-1,2.6475137E4,2.652301E4,2.653534E4,2.6540105E4,2.6452219E4,2.65696E4,2.6585656E4,2.6487793E4,5.966988E-2,-5.0704986E-1,1.0497998E0,-7.147272E-2,-6.5266407E-1,-2.2030818E0,-4.0250978E-1,1.8196477E-1,2.2675782E-1,1.9221925E0,6.251953E-1,-4.902514E-1,8.7140626E-1,1.8162892E0,-1.5488839E0,-7.426758E-2,-2.265503E0,9.257813E-2,-1.2285603E0,-5.26237E-1,6.266016E-1,-8.8681644E-1,1.0681641E0,1.0957032E-1,-2.232422E-1,1.7695314E-1,-4.322266E-1,4.1660157E-1,5.681397E-1,3.2421876E-2,-2.1210939E-1,4.0664065E-1,2.1254883E0,6.275391E-1,-5.8203127E-2,1.3513672E0,-1.0119141E0,3.451172E-1,9.822266E-1,1.1350446E-1,1.5948048E0,-2.0947267E-1,1.5691407E0,2.986172E0,-9.8115236E-1,1.8386719E-1,-2.5715625E0,-1.2314063E0,-3.8630024E-1,3.8203126E-1,-1.5064454E0,-4.0253907E-1,4.980469E-1,2.5781251E-2,9.622559E-1,2.6149218E0,-5.8510046E-2,-3.4513185E0,1.4614259E0,2.0848872E-1],"split_indices":[4,4,4,4,5,5,4,4,3,5,2,3,4,4,3,5,5,1,5,3,4,3,6,2,0,0,3,5,3,0,0,5,5,3,4,0,0,1,5,1,6,6,1,5,2,2,3,0,5,0,1,3,2,2,0,0,5,5,5,0,4,1,2,0,0,0,0,0,0,0,0,0,0,0,0,0,0,0,0,0,0,0,0,0,0,0,0,0,0,0,0,0,0,0,0,0,0,0,0,0,0,0,0,0,0,0,0,0,0,0,0,0,0,0,0,0,0,0,0,0,0,0,0],"split_type":[0,0,0,0,0,0,0,0,0,0,0,0,0,0,0,0,0,0,0,0,0,0,0,0,0,0,0,0,0,0,0,0,0,0,0,0,0,0,0,0,0,0,0,0,0,0,0,0,0,0,0,0,0,0,0,0,0,0,0,0,0,0,0,0,0,0,0,0,0,0,0,0,0,0,0,0,0,0,0,0,0,0,0,0,0,0,0,0,0,0,0,0,0,0,0,0,0,0,0,0,0,0,0,0,0,0,0,0,0,0,0,0,0,0,0,0,0,0,0,0,0,0,0],"sum_hessian":[1.0057E4,9.805E3,2.52E2,9.653E3,1.52E2,7.4E1,1.78E2,9.517E3,1.36E2,9.7E1,5.5E1,2.7E1,4.7E1,3.8E1,1.4E2,9.402E3,1.15E2,2.5E1,1.11E2,4.4E1,5.3E1,1E1,4.5E1,1.3E1,1.4E1,3.1E1,1.6E1,1.8E1,2E1,9E0,1.31E2,9.042E3,3.6E2,5E1,6.5E1,1E0,2.4E1,2.3E1,8.8E1,2E1,2.4E1,4.2E1,1.1E1,7E0,3E0,1.8E1,2.7E1,3E0,1E1,4E0,1E1,1.1E1,2E1,1.4E1,2E0,5E0,1.3E1,1.1E1,9E0,2E0,7E0,9E0,1.22E2,8.854E3,1.88E2,1.6E2,2E2,2.4E1,2.6E1,1.9E1,4.6E1,1E0,2.3E1,1E0,2.2E1,6.9E1,1.9E1,1.3E1,7E0,2.3E1,1E0,3.4E1,8E0,4E0,7E0,6E0,1E0,1E0,2E0,1.4E1,4E0,7E0,2E1,1E0,2E0,7E0,3E0,2E0,2E0,9E0,1E0,5E0,6E0,1.9E1,1E0,1E1,4E0,1E0,4E0,4E0,9E0,6E0,5E0,3E0,6E0,1E0,1E0,3E0,4E0,6E0,3E0,1.7E1,1.05E2],"tree_param":{"num_deleted":"0","num_feature":"8","num_nodes":"123","size_leaf_vector":"0"}},{"base_weights":[1.4581715E-1,1.1864258E1,1.4347225E-1,-5.5822754E0,1.4801578E-1,-6.4363837E0,1.9824219E-1,2.7418678E0,1.3372907E-1,-1.7849392E-1,7.861426E0,-7.9263777E-1,1.8023287E-1,8.731934E0,-1.2531369E0,-3.4192708E0,9.304796E0,-1.8919367E0,2.5724431E-2,2.20229E-1,-5.636052E-1,1.1948567E1,-4.5898438E-1,-5.835742E0,7.084961E-1,1.898877E1,6.102083E0,5.4357195E-1,-3.0869925E0,7.995768E0,-1.5148292E-1,2.0584665E-1,3.809299E0,1.0770703E1,-6.800117E-1],"categories":[],"categories_nodes":[],"categories_segments":[],"categories_sizes":[],"default_left":[1,0,1,1,1,0,0,1,1,1,1,1,1,1,1,0,1,1,1,1,1,0,0,0,0,0,0,0,0,0,0,0,0,0,0],"id":34,"left_children":[1,-1,3,5,7,-1,-1,9,11,13,15,17,19,21,23,-1,25,27,29,31,33,-1,-1,-1,-1,-1,-1,-1,-1,-1,-1,-1,-1,-1,-1],"loss_changes":[2.746778E2,0E0,2.624604E2,4.0773483E1,3.720622E2,0E0,0E0,8.2370605E2,4.307663E2,3.5566132E2,3.5746008E2,4.300693E2,2.833205E2,1.2373947E2,3.0078445E2,0E0,4.4239856E2,5.95434E2,3.896076E2,4.6554422E2,6.485464E2,0E0,0E0,0E0,0E0,0E0,0E0,0E0,0E0,0E0,0E0,0E0,0E0,0E0,0E0],"parents":[2147483647,0,0,2,2,3,3,4,4,7,7,8,8,9,9,10,10,11,11,12,12,13,13,14,14,16,16,17,17,18,18,19,19,20,20],"right_children":[2,-1,4,6,8,-1,-1,10,12,14,16,18,20,22,24,-1,26,28,30,32,34,-1,-1,-1,-1,-1,-1,-1,-1,-1,-1,-1,-1,-1,-1],"split_conditions":[-7.814279E1,3.5592775E0,-6.4702515E1,2.6327035E4,-3.923954E1,-1.9309152E0,5.9472658E-2,-4.3654945E1,-1.4005743E1,-5.9870247E1,2.5630547E4,2.6018121E4,1.506576E1,2.6428922E4,-5.583213E1,-1.0257813E0,2.5709254E4,2.5850695E4,2.598069E4,1.4494465E1,2.5755635E4,3.5845704E0,-1.3769531E-1,-1.7507226E0,2.1254884E-1,5.696631E0,1.830625E0,1.6307159E-1,-9.260978E-1,2.3987305E0,-4.544488E-2,6.1754E-2,1.1427897E0,3.2312112E0,-2.0400351E-1],"split_indices":[6,0,6,4,7,0,0,6,6,6,0,4,7,0,6,0,2,5,2,7,3,0,0,0,0,0,0,0,0,0,0,0,0,0,0],"split_type":[0,0,0,0,0,0,0,0,0,0,0,0,0,0,0,0,0,0,0,0,0,0,0,0,0,0,0,0,0,0,0,0,0,0,0],"sum_hessian":[1.0057E4,1E0,1.0056E4,7E0,1.0049E4,6E0,1E0,5.4E1,9.995E3,3.5E1,1.9E1,4.77E2,9.518E3,3E0,3.2E1,2E0,1.7E1,2.03E2,2.74E2,9.033E3,4.85E2,2E0,1E0,9E0,2.3E1,3E0,1.4E1,6.7E1,1.36E2,5E0,2.69E2,8.998E3,3.5E1,4E0,4.81E2],"tree_param":{"num_deleted":"0","num_feature":"8","num_nodes":"35","size_leaf_vector":"0"}},{"base_weights":[1.0293462E-1,-9.2614746E-1,1.2636232E-1,3.811553E-2,-7.9631076E0,5.2223306E0,8.561505E-2,-3.2924548E-1,7.7892795E0,-1.0520636E1,5.3941407E0,2.8230762E0,9.91226E0,-7.1408362E0,1.1310868E-1,2.8897235E0,-8.3448154E-1,1.0038783E1,-5.5989582E-2,4.9921875E0,-1.1452682E1,7.5813804E0,1.4088541E0,3.3527114E0,-7.1217446E0,1.3595006E1,5.183744E0,-9.410581E0,-3.1845052E0,2.242907E0,8.3559535E-2,-4.0138674E0,6.7806754E0,-1.744401E-1,-6.970215E0,3.1328125E0,-3.2167969E0,-8.130559E0,-1.4626172E1,3.8085938E-1,1.7324219E0,-1.08758226E-1,5.2440815E0,5.9078774E0,-1.7529297E0,-1.08351E1,-6.4751954E0,-3.6601562E0,-6.1848957E-2,1.8644032E-1,7.0195312E0,-5.047613E0,1.2779894E-1,2.1238282E0,-8.459636E0,2.4804688E-1,1.0321378E1,-1.7099185E0,1.1197361E0,-8.479492E0,2.3964844E0,-1.0691406E1,3.9694011E0,-6.108724E0,-1.5991943E1,-2.2180989E0,1.6269531E0,6.233608E0,-2.4772136E-1,1.3837891E0,6.1933594E0,-9.734375E-1,-9.980794E0,-1.094401E0,-4.0271664E0,1.953125E-3,-9.472656E-2,-2.0670006E0,2.2981107E0,8.996652E0,2.2211537E0,-7.360692E0,-2.4348633E0,1.6884421E0,6.478559E-2],"categories":[],"categories_nodes":[],"categories_segments":[],"categories_sizes":[],"default_left":[1,1,1,1,1,1,1,1,1,1,1,1,1,1,1,1,1,0,1,0,1,0,1,1,0,0,1,1,1,1,1,1,1,1,1,0,0,1,1,0,0,1,1,1,0,0,1,1,1,1,1,1,1,0,0,0,0,0,0,0,0,0,0,0,0,0,0,0,0,0,0,0,0,0,0,0,0,0,0,0,0,0,0,0,0],"id":35,"left_children":[1,3,5,7,9,11,13,15,17,19,21,23,25,27,29,31,33,-1,35,-1,37,-1,39,41,-1,-1,43,45,47,49,51,53,55,57,59,-1,-1,61,63,-1,-1,65,67,69,-1,-1,71,73,75,77,79,81,83,-1,-1,-1,-1,-1,-1,-1,-1,-1,-1,-1,-1,-1,-1,-1,-1,-1,-1,-1,-1,-1,-1,-1,-1,-1,-1,-1,-1,-1,-1,-1,-1],"loss_changes":[2.4260565E2,1.5202511E3,2.0417595E3,5.6636475E2,9.791112E2,8.496987E2,1.9395408E3,3.1141586E2,1.5939374E2,3.8972314E2,3.2902832E1,3.0303482E2,3.8228906E2,3.0228674E2,6.1165424E2,7.256168E2,6.6700745E2,0E0,4.031519E1,0E0,1.1302124E2,0E0,3.380685E-1,3.3446326E2,0E0,0E0,7.565613E1,2.6015625E1,2.2053055E1,1.3051461E3,2.177576E3,2.908345E2,3.9065137E2,2.9999158E2,2.4651208E2,0E0,0E0,4.4525836E2,1.8638428E1,0E0,0E0,7.317167E1,1.8087555E2,6.9282227E0,0E0,0E0,1.8315387E2,7.834198E0,6.477992E-3,4.5205154E2,3.5949573E2,4.7764453E2,9.350188E2,0E0,0E0,0E0,0E0,0E0,0E0,0E0,0E0,0E0,0E0,0E0,0E0,0E0,0E0,0E0,0E0,0E0,0E0,0E0,0E0,0E0,0E0,0E0,0E0,0E0,0E0,0E0,0E0,0E0,0E0,0E0,0E0],"parents":[2147483647,0,0,1,1,2,2,3,3,4,4,5,5,6,6,7,7,8,8,9,9,10,10,11,11,12,12,13,13,14,14,15,15,16,16,18,18,20,20,22,22,23,23,26,26,27,27,28,28,29,29,30,30,31,31,32,32,33,33,34,34,37,37,38,38,41,41,42,42,43,43,46,46,47,47,48,48,49,49,50,50,51,51,52,52],"right_children":[2,4,6,8,10,12,14,16,18,20,22,24,26,28,30,32,34,-1,36,-1,38,-1,40,42,-1,-1,44,46,48,50,52,54,56,58,60,-1,-1,62,64,-1,-1,66,68,70,-1,-1,72,74,76,78,80,82,84,-1,-1,-1,-1,-1,-1,-1,-1,-1,-1,-1,-1,-1,-1,-1,-1,-1,-1,-1,-1,-1,-1,-1,-1,-1,-1,-1,-1,-1,-1,-1,-1],"split_conditions":[2.5831996E4,2.5836865E4,2.5850324E4,2.584564E4,2.5838596E4,2.5845156E4,2.5871816E4,-3.9180813E1,-2.159349E0,2.5798656E4,2.5849828E4,2.593669E4,2.585221E4,2.5858625E4,2.5915814E4,2.563332E4,2.5891434E4,3.011635E0,2.5816861E4,1.4976563E0,2.5841375E4,2.2744143E0,2.594696E4,2.58454E4,-2.1365235E0,4.078502E0,2.5943408E4,2.586949E4,2.586986E4,2.590654E4,2.593186E4,2.5692492E4,-4.5623188E1,2.5798404E4,2.5888031E4,9.398438E-1,-9.650391E-1,2.5820148E4,2.5776117E4,1.1425782E-1,5.197266E-1,2.583854E4,4.38121E0,2.5818428E4,-5.258789E-1,-3.2505302E0,2.586202E4,2.586095E4,2.5853096E4,2.5887375E4,2.5909816E4,2.5909844E4,2.5976074E4,6.371485E-1,-2.537891E0,7.441407E-2,3.0964134E0,-5.129756E-1,3.3592084E-1,-2.5438478E0,7.189453E-1,-3.207422E0,1.1908203E0,-1.8326173E0,-4.797583E0,-6.654297E-1,4.8808596E-1,1.8700824E0,-7.431641E-2,4.1513672E-1,1.8580079E0,-2.9203126E-1,-2.9942384E0,-3.2832032E-1,-1.2081499E0,5.859375E-4,-2.841797E-2,-6.201002E-1,6.894332E-1,2.6989956E0,6.6634613E-1,-2.2082076E0,-7.3045903E-1,5.0653267E-1,1.9435678E-2],"split_indices":[5,3,5,4,2,5,4,6,6,5,2,0,3,5,4,4,1,0,0,0,3,0,0,4,0,0,0,4,3,4,4,0,7,5,0,0,0,2,2,0,0,5,6,0,0,0,3,5,0,4,3,5,4,0,0,0,0,0,0,0,0,0,0,0,0,0,0,0,0,0,0,0,0,0,0,0,0,0,0,0,0,0,0,0,0],"split_type":[0,0,0,0,0,0,0,0,0,0,0,0,0,0,0,0,0,0,0,0,0,0,0,0,0,0,0,0,0,0,0,0,0,0,0,0,0,0,0,0,0,0,0,0,0,0,0,0,0,0,0,0,0,0,0,0,0,0,0,0,0,0,0,0,0,0,0,0,0,0,0,0,0,0,0,0,0,0,0,0,0,0,0,0,0],"sum_hessian":[1.0057E4,2.23E2,9.834E3,1.97E2,2.6E1,7.7E1,9.757E3,1.89E2,8E0,2.2E1,4E0,5.2E1,2.5E1,3.6E1,9.721E3,2.5E1,1.64E2,6E0,2E0,1E0,2.1E1,2E0,2E0,5E1,2E0,1.3E1,1.2E1,2.2E1,1.4E1,1.32E2,9.589E3,9E0,1.6E1,1.49E2,1.5E1,1E0,1E0,1.2E1,9E0,1E0,1E0,1.8E1,3.2E1,1.1E1,1E0,1.3E1,9E0,1.2E1,2E0,9.3E1,3.9E1,8.1E1,9.508E3,4E0,5E0,6E0,1E1,6.8E1,8.1E1,1.3E1,2E0,1E1,2E0,2E0,7E0,8E0,1E1,2.7E1,5E0,1E0,1E1,4E0,5E0,2E0,1E1,1E0,1E0,4.5E1,4.8E1,2.7E1,1.2E1,4.2E1,3.9E1,3.68E2,9.14E3],"tree_param":{"num_deleted":"0","num_feature":"8",