{"learner":{"attributes":{"best_iteration":"99","best_ntree_limit":"100","scikit_learn":"{\"n_estimators\": 100, \"objective\": \"reg:squarederror\", \"max_depth\": null, \"max_leaves\": null, \"max_bin\": null, \"grow_policy\": null, \"learning_rate\": null, \"verbosity\": null, \"booster\": \"gbtree\", \"tree_method\": null, \"gamma\": null, \"min_child_weight\": null, \"max_delta_step\": null, \"subsample\": null, \"sampling_method\": null, \"colsample_bytree\": null, \"colsample_bylevel\": null, \"colsample_bynode\": null, \"reg_alpha\": null, \"reg_lambda\": null, \"scale_pos_weight\": null, \"base_score\": null, \"missing\": NaN, \"num_parallel_tree\": null, \"random_state\": 42, \"n_jobs\": null, \"monotone_constraints\": null, \"interaction_constraints\": null, \"importance_type\": null, \"gpu_id\": null, \"validate_parameters\": null, \"predictor\": null, \"enable_categorical\": false, \"feature_types\": null, \"max_cat_to_onehot\": null, \"max_cat_threshold\": null, \"eval_metric\": null, \"early_stopping_rounds\": null, \"callbacks\": null, \"_estimator_type\": \"regressor\"}"},"feature_names":["close","middleband_21","upperband_21","lowerband_21","sma_7","sma_14","sma_21","ema_9","macd","macd_signal","rsi_14"],"feature_types":["float","float","float","float","float","float","float","float","float","float","float"],"gradient_booster":{"model":{"gbtree_model_param":{"num_parallel_tree":"1","num_trees":"100","size_leaf_vector":"0"},"tree_info":[0,0,0,0,0,0,0,0,0,0,0,0,0,0,0,0,0,0,0,0,0,0,0,0,0,0,0,0,0,0,0,0,0,0,0,0,0,0,0,0,0,0,0,0,0,0,0,0,0,0,0,0,0,0,0,0,0,0,0,0,0,0,0,0,0,0,0,0,0,0,0,0,0,0,0,0,0,0,0,0,0,0,0,0,0,0,0,0,0,0,0,0,0,0,0,0,0,0,0,0],"trees":[{"base_weights":[5.914783E4],"categories":[],"categories_nodes":[],"categories_segments":[],"categories_sizes":[],"default_left":[0],"id":0,"left_children":[-1],"loss_changes":[0E0],"parents":[2147483647],"right_children":[-1],"split_conditions":[1.774435E4],"split_indices":[0],"split_type":[0],"sum_hessian":[5.734E3],"tree_param":{"num_deleted":"0","num_feature":"11","num_nodes":"1","size_leaf_vector":"0"}},{"base_weights":[4.1406574E4],"categories":[],"categories_nodes":[],"categories_segments":[],"categories_sizes":[],"default_left":[0],"id":1,"left_children":[-1],"loss_changes":[0E0],"parents":[2147483647],"right_children":[-1],"split_conditions":[1.2421973E4],"split_indices":[0],"split_type":[0],"sum_hessian":[5.734E3],"tree_param":{"num_deleted":"0","num_feature":"11","num_nodes":"1","size_leaf_vector":"0"}},{"base_weights":[2.8986768E4,2.8752982E4,2.9635293E4],"categories":[],"categories_nodes":[],"categories_segments":[],"categories_sizes":[],"default_left":[1,0,0],"id":2,"left_children":[1,-1,-1],"loss_changes":[1.7825792E7,0E0,0E0],"parents":[2147483647,0,0],"right_children":[2,-1,-1],"split_conditions":[5.9361547E4,8.6258955E3,8.890588E3],"split_indices":[0,0,0],"split_type":[0,0,0],"sum_hessian":[5.734E3,4.248E3,1.486E3],"tree_param":{"num_deleted":"0","num_feature":"11","num_nodes":"3","size_leaf_vector":"0"}},{"base_weights":[2.029379E4,1.9525186E4,2.044173E4],"categories":[],"categories_nodes":[],"categories_segments":[],"categories_sizes":[],"default_left":[1,0,0],"id":3,"left_children":[1,-1,-1],"loss_changes":[2.5296896E8,0E0,0E0],"parents":[2147483647,0,0],"right_children":[2,-1,-1],"split_conditions":[5.8790547E4,5.8575557E3,6.1325195E3],"split_indices":[0,0,0],"split_type":[0,0,0],"sum_hessian":[5.734E3,9.47E2,4.787E3],"tree_param":{"num_deleted":"0","num_feature":"11","num_nodes":"3","size_leaf_vector":"0"}},{"base_weights":[1.4207744E4,1.4119474E4,1.5245584E4,1.3574994E4,1.4204046E4],"categories":[],"categories_nodes":[],"categories_segments":[],"categories_sizes":[],"default_left":[1,1,0,0,0],"id":4,"left_children":[1,3,-1,-1,-1],"loss_changes":[3.1011635E8,5.124915E7,0E0,0E0,0E0],"parents":[2147483647,0,0,1,1],"right_children":[2,4,-1,-1,-1],"split_conditions":[5.9883895E4,5.8546855E4,4.5736753E3,4.0724983E3,4.261214E3],"split_indices":[0,0,0,0,0],"split_type":[0,0,0,0,0],"sum_hessian":[5.734E3,5.298E3,4.36E2,7.34E2,4.564E3],"tree_param":{"num_deleted":"0","num_feature":"11","num_nodes":"5","size_leaf_vector":"0"}},{"base_weights":[9.94767E3,9.871599E3,1.0576392E4,9.662548E3,1.000633E4],"categories":[],"categories_nodes":[],"categories_segments":[],"categories_sizes":[],"default_left":[1,1,0,0,0],"id":5,"left_children":[1,3,-1,-1,-1],"loss_changes":[1.6993485E8,4.780851E7,0E0,0E0,0E0],"parents":[2147483647,0,0,1,1],"right_children":[2,4,-1,-1,-1],"split_conditions":[5.9687023E4,5.902528E4,3.1729177E3,2.8987644E3,3.0018992E3],"split_indices":[0,0,0,0,0],"split_type":[0,0,0,0,0],"sum_hessian":[5.734E3,5.13E3,6.04E2,2.039E3,3.091E3],"tree_param":{"num_deleted":"0","num_feature":"11","num_nodes":"5","size_leaf_vector":"0"}},{"base_weights":[6.964951E3,6.920952E3,7.6122524E3,6.5162524E3,6.962537E3],"categories":[],"categories_nodes":[],"categories_segments":[],"categories_sizes":[],"default_left":[1,1,0,0,0],"id":6,"left_children":[1,3,-1,-1,-1],"loss_changes":[1.1065754E8,4.518707E7,0E0,0E0,0E0],"parents":[2147483647,0,0,1,1],"right_children":[2,4,-1,-1,-1],"split_conditions":[6.0193395E4,5.8355008E4,2.2836758E3,1.9548759E3,2.0887612E3],"split_indices":[0,0,0,0,0],"split_type":[0,0,0,0,0],"sum_hessian":[5.734E3,5.38E3,3.54E2,5.16E2,4.864E3],"tree_param":{"num_deleted":"0","num_feature":"11","num_nodes":"5","size_leaf_vector":"0"}},{"base_weights":[4.8765684E3,4.7513604E3,5.026773E3,4.4953794E3,4.780166E3,4.9841255E3,5.5011455E3],"categories":[],"categories_nodes":[],"categories_segments":[],"categories_sizes":[],"default_left":[1,1,1,0,0,0,0],"id":7,"left_children":[1,3,5,-1,-1,-1,-1],"loss_changes":[8.397619E7,1.703936E6,2.4981504E7,0E0,0E0,0E0,0E0],"parents":[2147483647,0,0,1,1,2,2],"right_children":[2,4,6,-1,-1,-1,-1],"split_conditions":[5.9168867E4,5.821039E4,6.0458766E4,1.3486139E3,1.4340498E3,1.4952377E3,1.6503438E3],"split_indices":[0,0,0,0,0,0,0],"split_type":[0,0,0,0,0,0,0],"sum_hessian":[5.734E3,3.145E3,2.589E3,3.34E2,2.811E3,2.386E3,2.03E2],"tree_param":{"num_deleted":"0","num_feature":"11","num_nodes":"7","size_leaf_vector":"0"}},{"base_weights":[3.414631E3,3.306974E3,3.5053926E3,3.4818406E3,3.9296575E3],"categories":[],"categories_nodes":[],"categories_segments":[],"categories_sizes":[],"default_left":[1,0,1,0,0],"id":8,"left_children":[1,-1,3,-1,-1],"loss_changes":[4.4445696E7,0E0,1.724416E7,0E0,0E0],"parents":[2147483647,0,0,2,2],"right_children":[2,-1,4,-1,-1],"split_conditions":[5.911221E4,9.920923E2,6.0570008E4,1.0445522E3,1.1788973E3],"split_indices":[0,0,0,0,0],"split_type":[0,0,0,0,0],"sum_hessian":[5.734E3,2.64E3,3.094E3,2.94E3,1.54E2],"tree_param":{"num_deleted":"0","num_feature":"11","num_nodes":"5","size_leaf_vector":"0"}},{"base_weights":[2.3908025E3,2.3553872E3,2.562775E3,2.2645864E3,2.3920422E3,2.5252886E3,2.8114019E3,2.0838694E3,2.2890693E3],"categories":[],"categories_nodes":[],"categories_segments":[],"categories_sizes":[],"default_left":[1,1,1,1,0,0,0,0,0],"id":9,"left_children":[1,3,5,7,-1,-1,-1,-1,-1],"loss_changes":[2.8895232E7,1.0450944E7,1.92256E6,1.380352E6,0E0,0E0,0E0,0E0,0E0],"parents":[2147483647,0,0,1,1,2,2,3,3],"right_children":[2,4,6,8,-1,-1,-1,-1,-1],"split_conditions":[5.9539492E4,5.8924008E4,6.0716008E4,5.8091273E4,7.176127E2,7.575866E2,8.434206E2,6.251608E2,6.867208E2],"split_indices":[0,0,0,0,0,0,0,0,0],"split_type":[0,0,0,0,0,0,0,0,0],"sum_hessian":[5.734E3,4.767E3,9.67E2,1.389E3,3.378E3,8.5E2,1.17E2,1.76E2,1.213E3],"tree_param":{"num_deleted":"0","num_feature":"11","num_nodes":"9","size_leaf_vector":"0"}},{"base_weights":[1.6741941E3,1.6302365E3,1.7451294E3,1.5185247E3,1.6454828E3,1.7211359E3,1.9024432E3],"categories":[],"categories_nodes":[],"categories_segments":[],"categories_sizes":[],"default_left":[1,1,1,0,0,0,0],"id":10,"left_children":[1,3,5,-1,-1,-1,-1],"loss_changes":[1.503744E7,3.5584E6,4.9536E6,0E0,0E0,0E0,0E0],"parents":[2147483647,0,0,1,1,2,2],"right_children":[2,4,6,-1,-1,-1,-1],"split_conditions":[5.922189E4,5.8276008E4,6.0328484E4,4.555574E2,4.9364487E2,5.1634076E2,5.70733E2],"split_indices":[0,0,0,0,0,0,0],"split_type":[0,0,0,0,0,0,0],"sum_hessian":[5.734E3,3.555E3,2.179E3,4.39E2,3.116E3,1.901E3,2.78E2],"tree_param":{"num_deleted":"0","num_feature":"11","num_nodes":"7","size_leaf_vector":"0"}},{"base_weights":[1.1722913E3,1.1540149E3,1.2697075E3,1.106834E3,1.175427E3,1.2485425E3,1.4370027E3,1.0133753E3,1.1197455E3],"categories":[],"categories_nodes":[],"categories_segments":[],"categories_sizes":[],"default_left":[1,1,1,1,0,0,0,0,0],"id":11,"left_children":[1,3,5,7,-1,-1,-1,-1,-1],"loss_changes":[8.745472E6,3.588608E6,1.378432E6,7.0912E5,0E0,0E0,0E0,0E0,0E0],"parents":[2147483647,0,0,1,1,2,2,3,3],"right_children":[2,4,6,8,-1,-1,-1,-1,-1],"split_conditions":[5.9567266E4,5.8946945E4,6.0806047E4,5.8117008E4,3.526281E2,3.7456274E2,4.3110083E2,3.040126E2,3.3592365E2],"split_indices":[0,0,0,0,0,0,0,0,0],"split_type":[0,0,0,0,0,0,0,0,0],"sum_hessian":[5.734E3,4.839E3,8.95E2,1.527E3,3.312E3,8.02E2,9.3E1,1.95E2,1.332E3],"tree_param":{"num_deleted":"0","num_feature":"11","num_nodes":"9","size_leaf_vector":"0"}},{"base_weights":[8.209174E2,8.065422E2,8.829798E2,7.771128E2,8.2279816E2,8.7091E2,1.0333375E3,6.7734717E2,7.8320325E2,8.315557E2,7.6723016E2,8.1798413E2,8.94902E2,7.2355396E2,8.03647E2],"categories":[],"categories_nodes":[],"categories_segments":[],"categories_sizes":[],"default_left":[1,1,1,1,1,0,0,0,0,1,1,0,0,0,0],"id":12,"left_children":[1,3,5,7,9,-1,-1,-1,-1,11,13,-1,-1,-1,-1],"loss_changes":[4.404224E6,1.593856E6,1.038208E6,4.89728E5,8.16896E5,0E0,0E0,0E0,0E0,1.4784E6,8.656E4,0E0,0E0,0E0,0E0],"parents":[2147483647,0,0,1,1,2,2,3,3,4,4,9,9,10,10],"right_children":[2,4,6,8,10,-1,-1,-1,-1,12,14,-1,-1,-1,-1],"split_conditions":[5.9507992E4,5.8968008E4,6.0840008E4,5.8031008E4,5.9361547E4,2.61273E2,3.1000128E2,2.0320416E2,2.3496098E2,5.9258367E4,5.9436008E4,2.4539525E2,2.684706E2,2.170662E2,2.410941E2],"split_indices":[0,0,0,0,0,0,0,0,0,0,0,0,0,0,0],"split_type":[0,0,0,0,0,0,0,0,0,0,0,0,0,0,0],"sum_hessian":[5.734E3,4.667E3,1.067E3,1.678E3,2.989E3,9.94E2,7.3E1,1.03E2,1.575E3,2.57E3,4.19E2,2.128E3,4.42E2,2E2,2.19E2],"tree_param":{"num_deleted":"0","num_feature":"11","num_nodes":"15","size_leaf_vector":"0"}},{"base_weights":[5.749881E2,5.660942E2,6.2852045E2,5.2065765E2,5.7190576E2,6.190876E2,7.4640857E2,4.1667014E2,5.248617E2,5.590544E2,5.808205E2,5.926973E2,5.497728E2,5.891197E2,5.571558E2,5.7201965E2,6.639794E2,4.9040115E2,5.5961505E2,5.7974664E2,6.461722E2,5.149484E2,5.8189874E2],"categories":[],"categories_nodes":[],"categories_segments":[],"categories_sizes":[],"default_left":[1,1,1,1,1,0,0,0,0,1,1,1,1,1,1,0,0,0,0,0,0,0,0],"id":13,"left_children":[1,3,5,7,9,-1,-1,-1,-1,11,13,15,17,19,21,-1,-1,-1,-1,-1,-1,-1,-1],"loss_changes":[2.374784E6,1.003648E6,4.36416E5,3.048E4,1.74592E5,0E0,0E0,0E0,0E0,2.4E5,1.72224E5,1.78816E5,5.6352E5,6.24832E5,4.10496E5,0E0,0E0,0E0,0E0,0E0,0E0,0E0,0E0],"parents":[2147483647,0,0,1,1,2,2,3,3,4,4,9,9,10,10,11,11,12,12,13,13,14,14],"right_children":[2,4,6,8,10,-1,-1,-1,-1,12,14,16,18,20,22,-1,-1,-1,-1,-1,-1,-1,-1],"split_conditions":[5.9600008E4,5.8421008E4,6.0893992E4,5.7954492E4,5.9080008E4,1.8572629E2,2.2392258E2,1.25001045E2,1.5745851E2,5.8790547E4,5.9361547E4,5.8694395E4,5.887368E4,5.9292555E4,5.9454992E4,1.716059E2,1.9919382E2,1.4712035E2,1.6788452E2,1.73924E2,1.9385167E2,1.5448453E2,1.7456963E2],"split_indices":[0,0,0,0,0,0,0,0,0,0,0,0,0,0,0,0,0,0,0,0,0,0,0],"split_type":[0,0,0,0,0,0,0,0,0,0,0,0,0,0,0,0,0,0,0,0,0,0,0],"sum_hessian":[5.734E3,4.927E3,8.07E2,5.69E2,4.358E3,7.53E2,5.4E1,2.6E1,5.43E2,1.811E3,2.547E3,3.78E2,1.433E3,1.868E3,6.79E2,3E2,7.8E1,2.11E2,1.222E3,1.614E3,2.54E2,2.59E2,4.2E2],"tree_param":{"num_deleted":"0","num_feature":"11","num_nodes":"23","size_leaf_vector":"0"}},{"base_weights":[4.0285333E2,3.98798E2,4.7473947E2,3.802503E2,4.0643033E2,4.6300204E2,5.482789E2,3.4356638E2,3.8631415E2,3.9803903E2,4.1398236E2,3.990988E2,3.717632E2,4.1604584E2,3.920953E2,4.293834E2,4.0315E2,3.876059E2,4.5922824E2,3.2827216E2,3.8074203E2,3.5835397E2,3.988546E2,4.2003522E2,4.6406796E2,3.353038E2,4.106072E2,3.957542E2,3.4551367E2,3.5987985E2,-6.216797E0,1.0626758E2,3.9901538E2,1.9695247E2,3.3949704E2,3.83459E2,4.1722156E2],"categories":[],"categories_nodes":[],"categories_segments":[],"categories_sizes":[],"default_left":[1,1,1,1,1,0,0,0,1,1,1,1,1,0,1,1,1,1,0,0,0,1,1,0,0,1,1,0,0,0,0,0,0,0,0,0,0],"id":14,"left_children":[1,3,5,7,9,-1,-1,-1,11,13,15,17,19,-1,21,23,25,27,-1,-1,-1,29,31,-1,-1,33,35,-1,-1,-1,-1,-1,-1,-1,-1,-1,-1],"loss_changes":[1.48256E6,6.14848E5,5.96E3,2.23184E5,7.8336E4,0E0,0E0,0E0,1.05584E5,3.4112E4,1.5952E5,3.1472E5,1.30008E5,0E0,1.7704E5,6.7072E4,4.6288E5,7.0768E4,0E0,0E0,0E0,1.37972E5,1.2176E4,0E0,0E0,4.493E3,3.1248E4,0E0,0E0,0E0,0E0,0E0,0E0,0E0,0E0,0E0,0E0],"parents":[2147483647,0,0,1,1,2,2,3,3,4,4,8,8,9,9,10,10,11,11,12,12,14,14,15,15,16,16,17,17,21,21,22,22,25,25,26,26],"right_children":[2,4,6,8,10,-1,-1,-1,12,14,16,18,20,-1,22,24,26,28,-1,-1,-1,30,32,-1,-1,34,36,-1,-1,-1,-1,-1,-1,-1,-1,-1,-1],"split_conditions":[6.0309812E4,5.8957008E4,6.0939492E4,5.8161203E4,5.9204016E4,1.3890062E2,1.6448367E2,1.03069916E2,5.8790547E4,5.902528E4,5.9361547E4,5.8655215E4,5.8849496E4,1.2481376E2,5.9060008E4,5.9314992E4,5.9406492E4,5.8546855E4,1.3776848E2,9.848165E1,1.1422262E2,5.9220887E4,5.9042703E4,1.2601057E2,1.392204E2,5.8991695E4,5.948108E4,1.18726265E2,1.03654106E2,1.0796396E2,-1.8650391E0,3.1880274E1,1.1970462E2,5.9085743E1,1.0184911E2,1.1503771E2,1.2516647E2],"split_indices":[0,0,0,0,0,0,0,0,0,0,0,0,0,0,0,0,0,0,0,0,0,4,2,0,0,3,0,0,0,0,0,0,0,0,0,0,0],"split_type":[0,0,0,0,0,0,0,0,0,0,0,0,0,0,0,0,0,0,0,0,0,0,0,0,0,0,0,0,0,0,0,0,0,0,0,0,0],"sum_hessian":[5.734E3,5.434E3,3E2,1.599E3,3.835E3,2.65E2,3.5E1,2.35E2,1.364E3,1.842E3,1.993E3,7.12E2,6.52E2,4.4E2,1.402E3,8.07E2,1.186E3,6.04E2,1.08E2,1.18E2,5.34E2,2.43E2,1.159E3,6.46E2,1.61E2,1.22E2,1.064E3,4.99E2,1.05E2,2.42E2,1E0,1E0,1.158E3,5E0,1.17E2,2.2E2,8.44E2],"tree_param":{"num_deleted":"0","num_feature":"11","num_nodes":"37","size_leaf_vector":"0"}},{"base_weights":[2.8235092E2,2.790848E2,3.2726224E2,2.5310567E2,2.8218262E2,3.1457397E2,3.656418E2,2.1542242E2,2.5793884E2,2.8308548E2,1.9956946E2,2.5836743E2,9.9529945E1,2.776417E2,2.931399E2,1.4419167E2,2.6025516E2,3.1212442E2,2.7570834E2,3.0738422E2,2.848217E2,1.4998906E2,-1.4865234E1,2.7819217E2,3.365089E2,2.2062982E2,2.7702054E2,2.5488295E2,2.9636212E2,6.034375E1,1.6145973E2],"categories":[],"categories_nodes":[],"categories_segments":[],"categories_sizes":[],"default_left":[1,1,1,1,1,0,0,0,1,1,1,0,0,1,1,1,0,1,1,0,1,1,0,0,0,0,0,0,0,0,0],"id":15,"left_children":[1,3,5,7,9,-1,-1,-1,11,13,15,-1,-1,17,19,21,-1,23,25,-1,27,29,-1,-1,-1,-1,-1,-1,-1,-1,-1],"loss_changes":[7.4992E5,3.59392E5,7.1488E4,5.0068E4,2.99584E5,0E0,0E0,0E0,8.844E3,1.76928E5,1.4730875E5,0E0,0E0,1.19344E5,1.06768E5,3.081525E4,0E0,3.5464E4,1.50336E5,0E0,2.86904E5,2.1105625E4,0E0,0E0,0E0,0E0,0E0,0E0,0E0,0E0,0E0],"parents":[2147483647,0,0,1,1,2,2,3,3,4,4,8,8,9,9,10,10,13,13,14,14,15,15,17,17,18,18,20,20,21,21],"right_children":[2,4,6,8,10,-1,-1,-1,12,14,16,-1,-1,18,20,22,-1,24,26,-1,28,30,-1,-1,-1,-1,-1,-1,-1,-1,-1],"split_conditions":[6.0097383E4,5.8429746E4,6.084155E4,5.8004008E4,5.9883895E4,9.437219E1,1.0969255E2,6.462673E1,5.8758668E4,5.9235926E4,6.0000242E4,7.751023E1,2.9858984E1,5.8546855E4,5.936251E4,5.9998492E4,7.807655E1,5.84935E4,5.8620008E4,9.221527E1,5.9470008E4,5.982978E4,-4.4595704E0,8.345766E1,1.00952675E2,6.618895E1,8.310616E1,7.646489E1,8.890864E1,1.8103127E1,4.8437923E1],"split_indices":[0,0,1,0,0,0,0,0,1,0,0,0,0,0,0,0,0,0,0,0,0,4,0,0,0,0,0,0,0,0,0],"split_type":[0,0,0,0,0,0,0,0,0,0,0,0,0,0,0,0,0,0,0,0,0,0,0,0,0,0,0,0,0,0,0],"sum_hessian":[5.734E3,5.352E3,3.82E2,5.79E2,4.773E3,2.94E2,8.8E1,7.1E1,5.08E2,4.719E3,5.4E1,5.06E2,2E0,3.08E3,1.639E3,3E1,2.4E1,1.55E2,2.925E3,5.91E2,1.048E3,2.9E1,1E0,7E1,8.5E1,7.2E1,2.853E3,2.98E2,7.5E2,4E0,2.5E1],"tree_param":{"num_deleted":"0","num_feature":"11","num_nodes":"31","size_leaf_vector":"0"}},{"base_weights":[1.9783893E2,1.9575626E2,2.3478735E2,1.8413367E2,1.9943977E2,2.295491E2,3.2577512E2,1.9160628E2,1.6462791E2,1.9952835E2,1.1526042E1,1.7795259E2,2.1632916E2,1.2896906E2,1.6974858E2,1.960726E2,2.041518E2,-6.4697266E1,8.198633E1,1.5411792E2,1.8167828E2,2.0531253E2,2.4860283E2,1.4458984E1,1.3097008E2,2.0326077E2,1.9283672E2,2.1669633E2,1.9811522E2,1.5625581E2,4.0033855E1,1.824429E2,8.475E1,2.3028502E2,1.8195195E2,1.3228706E2,3.321875E1,1.9358125E2,2.1905373E2,1.6081009E2,1.9605171E2,2.1027974E2,2.4333017E2,1.5903403E2,2.0237741E2],"categories":[],"categories_nodes":[],"categories_segments":[],"categories_sizes":[],"default_left":[1,1,1,1,1,0,0,1,1,1,1,1,1,1,0,1,1,0,0,1,1,1,0,0,1,1,1,1,1,0,0,0,0,0,0,0,0,0,0,0,0,0,0,0,0],"id":16,"left_children":[1,3,5,7,9,-1,-1,11,13,15,17,19,21,23,-1,25,27,-1,-1,29,31,33,-1,-1,35,37,39,41,43,-1,-1,-1,-1,-1,-1,-1,-1,-1,-1,-1,-1,-1,-1,-1,-1],"loss_changes":[3.95376E5,1.95968E5,6.8682E4,1.61004E5,6.6192E4,0E0,0E0,2.81848E5,4.6216E4,2.5664E4,2.141644E4,2.6788E4,6.7357E4,9.79225E3,0E0,1.6144E4,8.8448E4,0E0,0E0,1.56955E4,2.367E4,1.06276E5,0E0,0E0,2.0425E3,6.766E4,1.39388E5,4.3338E4,1.64872E5,0E0,0E0,0E0,0E0,0E0,0E0,0E0,0E0,0E0,0E0,0E0,0E0,0E0,0E0,0E0,0E0],"parents":[2147483647,0,0,1,1,2,2,3,3,4,4,7,7,8,8,9,9,10,10,11,11,12,12,13,13,15,15,16,16,19,19,20,20,21,21,24,24,25,25,26,26,27,27,28,28],"right_children":[2,4,6,8,10,-1,-1,12,14,16,18,20,22,24,-1,26,28,-1,-1,30,32,34,-1,-1,36,38,40,42,44,-1,-1,-1,-1,-1,-1,-1,-1,-1,-1,-1,-1,-1,-1,-1,-1],"split_conditions":[6.0309812E4,5.8909992E4,6.100449E4,5.879237E4,6.0288625E4,6.886473E1,9.773254E1,5.8462453E4,5.8820594E4,5.924231E4,6.0271492E4,5.8020906E4,5.8694395E4,-1.1623755E2,5.0924576E1,5.902528E4,5.936251E4,-1.940918E1,2.45959E1,5.8036324E4,5.8523016E4,5.8546855E4,7.458085E1,4.3376956E0,5.8946195E4,5.898215E4,5.9045016E4,5.9334438E4,5.9406492E4,4.6876747E1,1.2010158E1,5.4732872E1,2.5425001E1,6.908551E1,5.4585587E1,3.968612E1,9.965626E0,5.807438E1,6.571612E1,4.824303E1,5.8815517E1,6.3083923E1,7.2999054E1,4.771021E1,6.0713226E1],"split_indices":[0,0,0,0,3,0,0,0,0,0,0,0,0,8,0,0,0,0,0,3,4,0,0,0,4,0,0,0,0,0,0,0,0,0,0,0,0,0,0,0,0,0,0,0,0],"split_type":[0,0,0,0,0,0,0,0,0,0,0,0,0,0,0,0,0,0,0,0,0,0,0,0,0,0,0,0,0,0,0,0,0,0,0,0,0,0,0,0,0,0,0,0,0],"sum_hessian":[5.734E3,5.434E3,3E2,1.32E3,4.114E3,2.87E2,1.3E1,9.48E2,3.72E2,4.112E3,2E0,6.16E2,3.32E2,5E1,3.22E2,2.378E3,1.734E3,1E0,1E0,8.9E1,5.27E2,2.53E2,7.9E1,1E0,4.9E1,7.19E2,1.659E3,5.52E2,1.182E3,8.7E1,2E0,5.22E2,5E0,1.18E2,1.35E2,4.8E1,1E0,4.54E2,2.65E2,1.56E2,1.503E3,4.52E2,1E2,1.2E2,1.062E3],"tree_param":{"num_deleted":"0","num_feature":"11","num_nodes":"45","size_leaf_vector":"0"}},{"base_weights":[1.3867671E2,1.3727347E2,1.6769786E2,1.2898312E2,1.3978201E2,1.63203E2,2.3502176E2,1.3447894E2,1.1312402E2,1.3990817E2,5.63125E1,1.6504022E2,1.0315664E2,1.284965E2,1.6813109E2,5.77717E1,1.1429438E2,1.3852567E2,1.4843312E2,9.8336914E1,1.1430469E1,1.2375637E2,1.6785547E2,1.3741113E2,6.8845985E1,1.3094954E2,1.0308234E2,9.730729E1,1.7003339E2,6.6551895E1,1.8027344E1,9.38066E1,1.17293076E2,1.401199E2,1.3103549E2,1.7425427E2,1.3045337E2,-4.578125E0,3.773242E1,-1.4056641E1,1.3219357E2,1.2514208E2,1.6498183E2,1.0623111E2,1.984668E1,5.8710938E0,1.1442031E2,7.094076E1,2.0109375E1,2.6121094E1,9.4710175E1,1.19044235E2,9.110689E1,1.3764996E2,1.58078E2,2.5976074E1,1.3213882E2,1.4643803E2,1.8617926E2,8.246239E1,1.4236818E2,2.2557291E1,-4.2992188E1,1.4290234E2,3.1015625E1],"categories":[],"categories_nodes":[],"categories_segments":[],"categories_sizes":[],"default_left":[1,1,1,1,1,1,0,1,1,1,1,1,1,1,1,1,1,1,1,0,1,1,0,0,0,1,1,1,0,1,0,1,1,1,1,1,1,1,0,0,1,0,0,0,0,0,0,0,0,0,0,0,0,0,0,0,0,0,0,0,0,0,0,0,0],"id":17,"left_children":[1,3,5,7,9,11,-1,13,15,17,19,21,23,25,27,29,31,33,35,-1,37,39,-1,-1,-1,41,43,45,-1,47,-1,49,51,53,55,57,59,61,-1,-1,63,-1,-1,-1,-1,-1,-1,-1,-1,-1,-1,-1,-1,-1,-1,-1,-1,-1,-1,-1,-1,-1,-1,-1,-1],"loss_changes":[2.10528E5,9.5856E4,4.03225E4,9.6786E4,3.6264E4,1.0224E4,0E0,1.6945E5,1.52285E4,2.876E4,1.396509E4,6.8875E3,2.2927422E3,3.6999E4,2.3165E3,1.9409141E3,9.21E3,2.4816E4,2.41895E5,0E0,2.2780303E3,2.3950594E4,0E0,0E0,0E0,1.2462E5,1.78105E4,8.716727E3,0E0,2.34375E-1,0E0,4.005625E2,2.13175E3,1.09844E5,7.1912E4,4.9361E4,1.82673E5,5.1393135E3,0E0,0E0,1.5070625E4,0E0,0E0,0E0,0E0,0E0,0E0,0E0,0E0,0E0,0E0,0E0,0E0,0E0,0E0,0E0,0E0,0E0,0E0,0E0,0E0,0E0,0E0,0E0,0E0],"parents":[2147483647,0,0,1,1,2,2,3,3,4,4,5,5,7,7,8,8,9,9,10,10,11,11,12,12,13,13,14,14,15,15,16,16,17,17,18,18,20,20,21,21,25,25,26,26,27,27,29,29,31,31,32,32,33,33,34,34,35,35,36,36,37,37,40,40],"right_children":[2,4,6,8,10,12,-1,14,16,18,20,22,24,26,28,30,32,34,36,-1,38,40,-1,-1,-1,42,44,46,-1,48,-1,50,52,54,56,58,60,62,-1,-1,64,-1,-1,-1,-1,-1,-1,-1,-1,-1,-1,-1,-1,-1,-1,-1,-1,-1,-1,-1,-1,-1,-1,-1,-1],"split_conditions":[6.0352008E4,5.8903297E4,6.100449E4,5.879237E4,6.0748355E4,6.768288E1,7.050653E1,5.8622938E4,-8.851758E1,5.9584008E4,1.9067244E1,-5.141287E1,6.0451992E4,5.8546855E4,-1.27465675E2,3.4037918E1,5.8820594E4,5.936251E4,5.9687023E4,2.9501076E1,6.0015656E4,6.0490508E4,5.0356644E1,4.1223343E1,2.0653797E1,5.8476855E4,5.9079824E4,2.7313541E1,5.1010017E1,5.9336875E4,5.408203E0,5.8550188E4,7.3436136E0,5.9276008E4,5.9273676E4,5.96149E4,5.9737992E4,5.9878992E4,1.1319727E1,-4.2169924E0,3.7741302E1,3.7542625E1,4.949455E1,3.1869333E1,5.9540043E0,1.7613282E0,3.4326096E1,2.1282228E1,6.0328126E0,7.8363285E0,2.8413054E1,3.5713272E1,2.7332067E1,4.129499E1,4.74234E1,7.7928224E0,3.9641647E1,4.393141E1,5.585378E1,2.4738718E1,4.2710457E1,6.7671876E0,-1.2897656E1,4.2870705E1,9.3046875E0],"split_indices":[0,0,0,0,2,10,0,0,9,0,10,8,0,0,8,10,0,0,0,0,0,0,0,0,0,0,2,10,0,2,0,3,9,0,4,0,0,0,0,0,10,0,0,0,0,0,0,0,0,0,0,0,0,0,0,0,0,0,0,0,0,0,0,0,0],"split_type":[0,0,0,0,0,0,0,0,0,0,0,0,0,0,0,0,0,0,0,0,0,0,0,0,0,0,0,0,0,0,0,0,0,0,0,0,0,0,0,0,0,0,0,0,0,0,0,0,0,0,0,0,0,0,0,0,0,0,0,0,0,0,0,0,0],"sum_hessian":[5.734E3,5.475E3,2.59E2,1.284E3,4.191E3,2.46E2,1.3E1,9.48E2,3.36E2,4.184E3,7E0,2.37E2,9E0,8.09E2,1.39E2,8E0,3.28E2,3.615E3,5.69E2,3E0,4E0,1.8E1,2.19E2,3E0,6E0,7.34E2,7.5E1,5E0,1.34E2,6E0,2E0,4.6E1,2.82E2,2.966E3,6.49E2,2.3E2,3.39E2,3E0,1E0,1E0,1.7E1,6.31E2,1.03E2,7.2E1,3E0,1E0,4E0,5E0,1E0,1E0,4.5E1,2.61E2,2.1E1,2.615E3,3.51E2,7E0,6.42E2,7.3E1,1.57E2,6.9E1,2.7E2,2E0,1E0,1.5E1,2E0],"tree_param":{"num_deleted":"0","num_feature":"11","num_nodes":"65","size_leaf_vector":"0"}},{"base_weights":[9.7232E1,9.65103E1,1.2911064E2,9.353917E1,1.0116586E2,1.2360089E2,1.8577951E2,7.4285805E1,9.438855E1,1.2778157E2,1.00350006E2,1.028952E2,1.3093135E2,2.798137E1,7.810952E1,9.4427E1,-1.6039062E1,1.038337E2,1.7168301E2,-6.9703125E1,1.0046348E2,1.1101172E2,4.516341E1,1.4239723E2,1.0747467E2,-4.526367E0,3.818633E1,1.2538672E2,7.538942E1,9.2669136E1,9.758613E1,9.5859375E0,1.0589863E2,2.0711797E2,1.2386186E2,1.0069591E2,4.6893467E1,1.8183594E1,1.1358567E2,5.7890625E0,5.188047E1,1.4535332E2,7.058594E1,2.5341797E1,1.0936771E2,2.6416016E1,-2.3645834E1,5.3223633E1,2.4138393E1,2.6801432E1,7.7078E1,9.4896355E1,7.936574E1,1.019532E2,9.0891716E1,3.2890625E1,1.2966992E2,8.34301E1,1.012933E2,6.2172745E1,-1.45755205E1],"categories":[],"categories_nodes":[],"categories_segments":[],"categories_sizes":[],"default_left":[1,1,1,1,1,1,0,1,1,1,1,1,1,1,1,1,0,1,1,0,1,1,1,1,1,1,1,0,1,1,1,0,0,0,1,1,1,0,0,0,0,0,0,0,0,0,0,0,0,0,0,0,0,0,0,0,0,0,0,0,0],"id":18,"left_children":[1,3,5,7,9,11,-1,13,15,17,19,21,23,25,27,29,-1,31,33,-1,35,37,39,41,43,45,47,-1,49,51,53,-1,-1,-1,55,57,59,-1,-1,-1,-1,-1,-1,-1,-1,-1,-1,-1,-1,-1,-1,-1,-1,-1,-1,-1,-1,-1,-1,-1,-1],"loss_changes":[1.1948E5,6.816E4,1.575425E4,4.923E4,3.4386E4,4.1345E3,0E0,2.4372562E4,1.5484E4,4.6305625E4,4.7794E4,1.13866875E4,6.75E3,4.485466E3,8.2938125E3,9.222E3,0E0,7.1586562E3,8.2368125E3,0E0,2.1586E4,5.102625E3,1.28654E3,7.78625E2,2.0483125E3,2.9910364E3,8.2769824E2,0E0,8.846125E3,5.5668E4,2.4558E4,0E0,0E0,0E0,1.547125E3,1.324E4,1.1237414E4,0E0,0E0,0E0,0E0,0E0,0E0,0E0,0E0,0E0,0E0,0E0,0E0,0E0,0E0,0E0,0E0,0E0,0E0,0E0,0E0,0E0,0E0,0E0,0E0],"parents":[2147483647,0,0,1,1,2,2,3,3,4,4,5,5,7,7,8,8,9,9,10,10,11,11,12,12,13,13,14,14,15,15,17,17,18,18,20,20,21,21,22,22,23,23,24,24,25,25,26,26,28,28,29,29,30,30,34,34,35,35,36,36],"right_children":[2,4,6,8,10,12,-1,14,16,18,20,22,24,26,28,30,-1,32,34,-1,36,38,40,42,44,46,48,-1,50,52,54,-1,-1,-1,56,58,60,-1,-1,-1,-1,-1,-1,-1,-1,-1,-1,-1,-1,-1,-1,-1,-1,-1,-1,-1,-1,-1,-1,-1,-1],"split_conditions":[6.0679008E4,5.930409E4,6.10473E4,5.804865E4,5.901017E4,-4.444259E-1,5.5733856E1,5.7921688E4,5.9304016E4,5.9085023E4,1.4663353E1,-7.08138E0,4.176841E1,5.776785E4,5.7787766E4,5.9080008E4,-4.811719E0,5.9003293E4,5.8945258E4,-2.0910938E1,1.626637E2,6.0829203E4,6.0970086E4,6.1011254E4,6.068499E4,5.78467E4,5.8009832E4,3.7616016E1,-8.814702E1,5.902585E4,5.9168867E4,2.8757813E0,3.176959E1,6.213539E1,5.915317E4,2.9400272E1,5.9402867E4,5.455078E0,3.4075703E1,1.7367188E0,1.5564141E1,4.3605995E1,2.1175781E1,7.6025395E0,3.2810314E1,7.924805E0,-7.0937505E0,1.5967091E1,7.2415185E0,8.04043E0,2.3123402E1,2.8468908E1,2.3809723E1,3.0585962E1,2.7267515E1,9.8671875E0,3.8900978E1,2.5029032E1,3.038799E1,1.8651825E1,-4.3726563E0],"split_indices":[0,2,0,4,0,9,0,0,2,4,10,9,9,3,3,0,0,1,3,0,9,1,2,1,0,0,1,0,9,0,0,0,0,0,1,10,1,0,0,0,0,0,0,0,0,0,0,0,0,0,0,0,0,0,0,0,0,0,0,0,0],"split_type":[0,0,0,0,0,0,0,0,0,0,0,0,0,0,0,0,0,0,0,0,0,0,0,0,0,0,0,0,0,0,0,0,0,0,0,0,0,0,0,0,0,0,0,0,0,0,0,0,0,0,0,0,0,0,0,0,0,0,0,0,0],"sum_hessian":[5.734E3,5.611E3,1.23E2,3.438E3,2.173E3,1.15E2,8E0,1.49E2,3.289E3,6E1,2.113E3,3.4E1,8.1E1,1.2E1,1.37E2,3.288E3,1E0,4.1E1,1.9E1,1E0,2.112E3,2.9E1,5E0,5.1E1,3E1,3E0,9E0,5E0,1.32E2,2.132E3,1.156E3,1E0,4E1,9E0,1E1,2.102E3,1E1,1E0,2.8E1,1E0,4E0,4.8E1,3E0,1E0,2.9E1,1E0,2E0,3E0,6E0,5E0,1.27E2,1.821E3,3.11E2,6.91E2,4.65E2,1E0,9E0,7.5E1,2.027E3,8E0,2E0],"tree_param":{"num_deleted":"0","num_feature":"11","num_nodes":"61","size_leaf_vector":"0"}},{"base_weights":[6.816952E1,6.7117065E1,8.24608E1,6.7689705E1,3.8209503E0,6.2583317E1,8.724491E1,6.727572E1,1.2803014E2,-2.2483429E1,5.4657627E1,3.4971912E1,7.135037E1,8.845482E1,2.2064175E1,6.780548E1,4.6642708E1,-3.0691406E1,2.9619532E1,2.6931152E1,7.137305E1,4.560664E1,-8.886133E1,7.2497505E1,2.4082031E0,8.6709015E1,1.3623785E2,-3.4414062E1,3.721289E1,6.668662E1,9.9675964E1,9.380208E0,6.1143684E1,-3.3943916E1,3.0189453E1,3.129576E1,-1.8105469E0,7.781684E1,6.689453E0,8.5989586E1,2.6413021E1,7.335595E1,1.1783203E1,9.610304E1,7.7239456E1,4.1760937E1,7.236328E0,5.4891785E1,6.726163E1,8.9732735E1,1.2421152E2,1.511263E1,-4.455664E1,4.984824E1,8.3584045E1,-4.6483643E1,-1.5899339E1,3.1028645E0,3.7757812E1,8.811894E1,1.1702639E2,4.903617E1,9.005604E1],"categories":[],"categories_nodes":[],"categories_segments":[],"categories_sizes":[],"default_left":[1,1,1,1,1,1,1,1,0,1,1,1,1,1,1,1,1,1,0,1,1,1,0,1,0,1,0,0,1,1,1,1,1,1,0,0,0,0,0,0,1,0,0,1,1,0,0,0,0,0,0,0,0,0,0,0,0,0,0,0,0,0,0],"id":19,"left_children":[1,3,5,7,9,11,13,15,-1,17,19,21,23,25,27,29,31,33,-1,35,37,39,-1,41,-1,43,-1,-1,45,47,49,51,53,55,-1,-1,-1,-1,-1,-1,57,-1,-1,59,61,-1,-1,-1,-1,-1,-1,-1,-1,-1,-1,-1,-1,-1,-1,-1,-1,-1,-1],"loss_changes":[8.0724E4,1.93546E5,3.15325E4,1.23754E5,6.675302E4,1.6628312E4,2.257425E4,5.4388E4,0E0,1.5021842E4,5.9566562E3,3.1708258E4,4.4915E3,1.363E4,7.2696567E3,1.76318E5,7.237272E4,6.767203E3,0E0,1.0602319E3,3.6475234E3,1.3230652E4,0E0,2.1585312E3,0E0,1.899725E4,0E0,0E0,5.158125E2,2.9946E4,3.081575E4,1.273173E4,2.0420438E4,5.596615E3,0E0,0E0,0E0,0E0,0E0,0E0,3.8495752E3,0E0,0E0,1.391075E4,5.0888812E4,0E0,0E0,0E0,0E0,0E0,0E0,0E0,0E0,0E0,0E0,0E0,0E0,0E0,0E0,0E0,0E0,0E0,0E0],"parents":[2147483647,0,0,1,1,2,2,3,3,4,4,5,5,6,6,7,7,9,9,10,10,11,11,12,12,13,13,14,14,15,15,16,16,17,17,19,19,20,20,21,21,23,23,25,25,28,28,29,29,30,30,31,31,32,32,33,33,40,40,43,43,44,44],"right_children":[2,4,6,8,10,12,14,16,-1,18,20,22,24,26,28,30,32,34,-1,36,38,40,-1,42,-1,44,-1,-1,46,48,50,52,54,56,-1,-1,-1,-1,-1,-1,58,-1,-1,60,62,-1,-1,-1,-1,-1,-1,-1,-1,-1,-1,-1,-1,-1,-1,-1,-1,-1,-1],"split_conditions":[6.008404E4,5.9883895E4,4.1579887E1,5.980678E4,6.0007508E4,6.0600613E4,9.657312E1,5.9687023E4,3.8409042E1,5.621321E1,-1.7467491E1,6.0597117E4,4.117222E1,6.10473E4,6.023315E4,5.9609992E4,5.9712836E4,6.038211E4,8.8858595E0,6.0037785E4,6.0216895E4,6.0291316E4,-2.66584E1,4.0945312E1,7.22461E-1,6.0458766E4,4.0871357E1,-1.0324219E1,6.02002E4,5.8161203E4,5.9655367E4,5.996193E4,5.9766E4,5.994816E4,9.056836E0,9.388728E0,-5.431641E-1,2.3345053E1,2.006836E0,2.5796877E1,6.0224215E4,2.2006786E1,3.534961E0,6.038735E4,6.063603E4,1.2528281E1,2.1708984E0,1.6467537E1,2.017849E1,2.691982E1,3.726346E1,4.533789E0,-1.3366993E1,1.4954473E1,2.5075214E1,-1.3945093E1,-4.7698016E0,9.308594E-1,1.1327344E1,2.6435684E1,3.5107918E1,1.4710852E1,2.7016813E1],"split_indices":[0,0,10,0,0,2,9,0,0,9,9,2,10,0,0,0,0,1,0,0,1,5,0,9,0,0,0,0,1,0,0,2,0,0,0,0,0,0,0,0,0,0,0,0,4,0,0,0,0,0,0,0,0,0,0,0,0,0,0,0,0,0,0],"split_type":[0,0,0,0,0,0,0,0,0,0,0,0,0,0,0,0,0,0,0,0,0,0,0,0,0,0,0,0,0,0,0,0,0,0,0,0,0,0,0,0,0,0,0,0,0,0,0,0,0,0,0,0,0,0,0,0,0,0,0,0,0,0,0],"sum_hessian":[5.734E3,5.346E3,3.88E2,5.298E3,4.8E1,7.8E1,3.1E2,5.264E3,3.4E1,3.2E1,1.6E1,2E1,5.8E1,3.04E2,6E0,5.13E3,1.34E2,2.8E1,4E0,7E0,9E0,1.9E1,1E0,5.7E1,1E0,2.96E2,8E0,1E0,5E0,4.959E3,1.71E2,3.8E1,9.6E1,2.7E1,1E0,6E0,1E0,8E0,1E0,5E0,1.4E1,5.6E1,1E0,1.44E2,1.52E2,4E0,1E0,2.35E2,4.724E3,1.25E2,4.6E1,3.5E1,3E0,6.6E1,3E1,1.5E1,1.2E1,5E0,9E0,1.08E2,3.6E1,4.9E1,1.03E2],"tree_param":{"num_deleted":"0","num_feature":"11","num_nodes":"63","size_leaf_vector":"0"}},{"base_weights":[4.7785664E1,4.6932346E1,5.7423336E1,4.718444E1,-2.1651953E1,1.11167534E2,5.623144E1,4.7025425E1,9.0836586E1,-3.3548176E1,1.1697266E1,5.7143734E1,1.0011328E1,4.7382866E1,3.1517885E1,9.911641E1,3.7078125E1,-5.6188057E1,-1.2211805E1,-3.515625E-1,2.3863281E1,5.1179672E1,6.667269E1,-1.4176562E1,2.849935E1,4.6621147E1,6.941323E1,2.9716482E0,4.0896076E1,1.04375E2,1.2748047E1,-7.34375E0,-6.3104816E1,5.514844E0,-2.7496094E1,6.3847656E0,-4.7252603E0,9.153598E1,4.8033714E1,1.891211E1,6.802171E1,1.8622396E1,-4.225E1,3.1739063E1,6.1503906E0,4.6719334E1,-4.206966E1,-2.1517578E1,7.0082565E1,-1.864681E1,1.5794141E1,3.461481E1,6.444705E1,2.7792969E1,1.08128006E2,-2.0175781E0,7.9023438E0,1.1671875E1,5.1852325E1,-1.3527344E1,2.8105469E1,6.496838E1,9.5877235E1],"categories":[],"categories_nodes":[],"categories_segments":[],"categories_sizes":[],"default_left":[1,1,1,1,1,0,1,1,1,1,1,1,1,1,1,1,0,1,1,1,0,1,1,1,1,1,1,1,1,1,0,0,0,1,0,0,0,0,1,1,1,0,0,0,0,0,0,0,0,0,0,0,0,0,0,0,0,0,0,0,0,0,0],"id":20,"left_children":[1,3,5,7,9,-1,11,13,15,17,19,21,23,25,27,29,-1,31,33,35,-1,37,39,41,43,45,47,49,51,53,-1,-1,-1,55,-1,-1,-1,-1,57,59,61,-1,-1,-1,-1,-1,-1,-1,-1,-1,-1,-1,-1,-1,-1,-1,-1,-1,-1,-1,-1,-1,-1],"loss_changes":[4.447E4,9.2207E4,2.3343375E4,3.2205E4,8.327019E3,0E0,1.8571375E4,2.7542E4,4.336953E3,6.5596367E3,8.879069E2,2.1877625E4,4.875885E3,8.2649E4,3.2271625E4,5.4820625E3,0E0,1.9014824E3,2.5900894E3,1.4802034E2,0E0,3.0897875E4,9.5378125E3,5.390694E3,2.3921826E2,4.5069E4,1.1793875E4,8.887788E3,1.1230797E4,1.0185781E3,0E0,0E0,0E0,1.0586188E2,0E0,0E0,0E0,0E0,3.549625E4,2.1695576E3,7.6344375E3,0E0,0E0,0E0,0E0,0E0,0E0,0E0,0E0,0E0,0E0,0E0,0E0,0E0,0E0,0E0,0E0,0E0,0E0,0E0,0E0,0E0,0E0],"parents":[2147483647,0,0,1,1,2,2,3,3,4,4,6,6,7,7,8,8,9,9,10,10,11,11,12,12,13,13,14,14,15,15,17,17,18,18,19,19,21,21,22,22,23,23,24,24,25,25,26,26,27,27,28,28,29,29,33,33,38,38,39,39,40,40],"right_children":[2,4,6,8,10,-1,12,14,16,18,20,22,24,26,28,30,-1,32,34,36,-1,38,40,42,44,46,48,50,52,54,-1,-1,-1,56,-1,-1,-1,-1,58,60,62,-1,-1,-1,-1,-1,-1,-1,-1,-1,-1,-1,-1,-1,-1,-1,-1,-1,-1,-1,-1,-1,-1],"split_conditions":[6.001843E4,5.987682E4,5.968241E4,5.980678E4,5.974636E4,3.335026E1,9.657312E1,5.968873E4,5.972347E4,4.5526497E1,5.9886484E4,5.5273438E1,6.023315E4,5.9609992E4,5.9708516E4,6.0016766E4,1.1123438E1,-1.4392612E1,6.1365936E1,5.9873516E4,7.1589847E0,6.0107367E4,6.004843E4,5.9402867E4,6.02002E4,5.970118E4,3.587065E1,5.9492203E4,5.989843E4,5.9830918E4,3.8244143E0,-2.203125E0,-1.8931446E1,5.9771484E4,-8.248829E0,1.9154297E0,-1.4175781E0,2.7460794E1,5.993446E4,5.9813055E4,6.093352E4,5.586719E0,-1.2675E1,9.521719E0,1.8451172E0,1.40158E1,-1.2620898E1,-6.4552736E0,2.102477E1,-5.5940433E0,4.7382426E0,1.0384443E1,1.9334116E1,8.337891E0,3.2438404E1,-6.052735E-1,2.3707032E0,3.5015626E0,1.5555698E1,-4.058203E0,8.431641E0,1.9490517E1,2.8763172E1],"split_indices":[2,0,4,0,3,0,9,0,3,8,4,10,0,0,0,2,0,8,8,1,0,2,2,1,1,7,10,3,2,2,0,0,0,1,0,0,0,0,3,0,1,0,0,0,0,0,0,0,0,0,0,0,0,0,0,0,0,0,0,0,0,0,0],"split_type":[0,0,0,0,0,0,0,0,0,0,0,0,0,0,0,0,0,0,0,0,0,0,0,0,0,0,0,0,0,0,0,0,0,0,0,0,0,0,0,0,0,0,0,0,0,0,0,0,0,0,0,0,0,0,0,0,0,0,0,0,0,0,0],"sum_hessian":[5.734E3,5.273E3,4.61E2,5.254E3,1.9E1,8E0,4.53E2,5.237E3,1.7E1,1.4E1,5E0,4.44E2,9E0,5.117E3,1.2E2,1.4E1,3E0,6E0,8E0,3E0,2E0,2.77E2,1.67E2,4E0,5E0,4.949E3,1.68E2,3E1,9E1,1.3E1,1E0,1E0,5E0,4E0,4E0,1E0,2E0,1.8E1,2.59E2,5E0,1.62E2,2E0,2E0,4E0,1E0,4.944E3,5E0,1E0,1.67E2,1.1E1,1.9E1,7.3E1,1.7E1,1E0,1.2E1,1E0,3E0,2.5E1,2.34E2,1E0,4E0,1.49E2,1.3E1],"tree_param":{"num_deleted":"0","num_feature":"11","num_nodes":"63","size_leaf_vector":"0"}},{"base_weights":[3.3488075E1,9.142643E1,3.3360764E1,2.609375E0,9.92635E1,3.0792772E1,3.58895E1,1.0780338E2,4.055599E1,3.1784492E1,1.7719423E1,4.7139297E1,3.459614E1,3.1992205E1,-6.49069E1,1.2339486E1,2.71311E1,1.510638E2,4.591014E1,1.7611382E1,3.6160828E1,3.1058275E1,5.1689785E1,1.0289258E2,-1.1904531E2,1.5203438E1,-4.056529E1,2.4063433E1,5.2617188E1,2.36875E1,2.029082E2,4.907031E0,4.6462593E1,1.2775391E2,1.6525097E1,4.057904E1,3.3498024E1,3.0565287E1,6.2492702E1,4.9276714E1,8.291462E1,-1.3890137E2,-1.9810547E1,1.3407154E1,5.5632812E1,6.1875E0,-4.938867E1,9.6171874E-1,2.5514942E1,-1.83125E1,1.5290039E1,4.2126965E1,5.218141E1,1.7007437E1,-4.43125E1,3.805081E1,6.195767E1,6.7305446E0,3.547161E1],"categories":[],"categories_nodes":[],"categories_segments":[],"categories_sizes":[],"default_left":[1,1,1,0,1,1,1,0,0,1,1,1,1,1,1,1,1,1,1,1,1,1,1,0,1,1,1,1,0,0,0,1,1,0,1,1,1,0,0,0,0,0,0,0,0,0,0,0,0,0,0,0,0,0,0,0,0,0,0],"id":21,"left_children":[1,3,5,-1,7,9,11,-1,-1,13,15,17,19,21,23,25,27,29,31,33,35,37,39,-1,41,43,45,47,-1,-1,-1,49,51,-1,53,55,57,-1,-1,-1,-1,-1,-1,-1,-1,-1,-1,-1,-1,-1,-1,-1,-1,-1,-1,-1,-1,-1,-1],"loss_changes":[3.9253E4,8.0937656E3,3.60655E4,0E0,1.1428438E3,3.634825E4,4.0244E4,0E0,0E0,5.519925E4,9.943965E3,3.062E4,6.80615E4,4.696025E4,6.675526E4,2.0465422E4,4.441199E3,1.5004852E4,6.3864375E3,2.4211016E4,2.64765E4,3.718825E4,4.8052812E3,0E0,7.1003438E3,8.331951E3,3.1932168E3,2.222129E3,0E0,0E0,0E0,1.4854417E3,4.942625E3,0E0,7.1800664E3,4.547675E4,7.8052375E4,0E0,0E0,0E0,0E0,0E0,0E0,0E0,0E0,0E0,0E0,0E0,0E0,0E0,0E0,0E0,0E0,0E0,0E0,0E0,0E0,0E0,0E0],"parents":[2147483647,0,0,1,1,2,2,4,4,5,5,6,6,9,9,10,10,11,11,12,12,13,13,14,14,15,15,16,16,17,17,18,18,19,19,20,20,21,21,22,22,24,24,25,25,26,26,27,27,31,31,32,32,34,34,35,35,36,36],"right_children":[2,4,6,-1,8,10,12,-1,-1,14,16,18,20,22,24,26,28,30,32,34,36,38,40,-1,42,44,46,48,-1,-1,-1,50,52,-1,54,56,58,-1,-1,-1,-1,-1,-1,-1,-1,-1,-1,-1,-1,-1,-1,-1,-1,-1,-1,-1,-1,-1,-1],"split_conditions":[-1.9642863E2,5.7945055E4,5.913614E4,7.8281254E-1,6.0084773E4,5.9113992E4,5.9168867E4,3.2341015E1,1.2166797E1,5.9231812E4,5.9128312E4,5.9136562E4,5.91946E4,5.9100008E4,5.9023004E4,5.9171633E4,5.918292E4,5.9136297E4,5.9136992E4,5.9156754E4,5.9361547E4,5.941333E4,6.69072E1,3.0867775E1,5.9452133E4,5.946133E4,5.9228766E4,-1.2208803E1,1.5785157E1,7.1062503E0,6.0872463E1,5.913683E4,5.915561E4,3.832617E1,5.9194117E4,5.9335266E4,5.9399496E4,9.169586E0,1.8747812E1,1.4783015E1,2.4874388E1,-4.167041E1,-5.9431643E0,4.022146E0,1.6689844E1,1.85625E0,-1.4816602E1,2.8851563E-1,7.654483E0,-5.49375E0,4.587012E0,1.263809E1,1.5654424E1,5.102231E0,-1.3293751E1,1.1415244E1,1.8587301E1,2.0191634E0,1.0641483E1],"split_indices":[8,0,0,0,1,0,0,0,0,4,0,0,0,0,0,4,1,0,0,2,0,2,10,0,1,2,2,8,0,0,0,0,0,0,0,0,0,0,0,0,0,0,0,0,0,0,0,0,0,0,0,0,0,0,0,0,0,0,0],"split_type":[0,0,0,0,0,0,0,0,0,0,0,0,0,0,0,0,0,0,0,0,0,0,0,0,0,0,0,0,0,0,0,0,0,0,0,0,0,0,0,0,0,0,0,0,0,0,0,0,0,0,0,0,0,0,0,0,0,0,0],"sum_hessian":[5.734E3,1.1E1,5.723E3,1E0,1E1,2.846E3,2.877E3,8E0,2E0,2.644E3,2.02E2,2.93E2,2.584E3,2.639E3,5E0,1.3E2,7.2E1,2E0,2.91E2,2.19E2,2.365E3,2.522E3,1.17E2,1E0,4E0,1.24E2,6E0,6.6E1,6E0,1E0,1E0,4E0,2.87E2,1E0,2.18E2,8.84E2,1.481E3,2.485E3,3.7E1,1.11E2,6E0,3E0,1E0,1.2E2,4E0,1E0,5E0,4E0,6.2E1,1E0,3E0,1.68E2,1.19E2,2.17E2,1E0,7.93E2,9.1E1,1.02E2,1.379E3],"tree_param":{"num_deleted":"0","num_feature":"11","num_nodes":"59","size_leaf_vector":"0"}},{"base_weights":[2.3494337E1,6.695342E1,2.3391514E1,8.134162E1,-8.121094E0,2.029171E1,2.4732782E1,5.75E0,-1.793164E1,1.990055E1,7.975213E1,3.9107258E1,2.3578777E1,2.3959839E1,1.4991549E1,1.4670468E2,2.0535715E1,3.1429028E1,4.7158947E1,8.979182E0,2.466721E1,2.1388195E1,5.8905396E1,5.504406E0,2.074656E1,1.6103906E2,4.4683594E1,-2.7988281E1,3.328776E1,1.023457E2,3.0296595E1,4.577821E1,9.5873695E1,1.0096695E1,-8.9375E1,2.4361067E1,4.2404263E1,2.1923414E1,-2.7314844E1,4.6300327E1,8.086506E1,-1.5589472E1,7.0837092E0,1.9875977E1,5.355078E1,8.400391E0,3.6585155E1,3.1271214E1,-2.8858072E1,4.7502113E1,-6.3932294E-1,1.216437E1,-7.1745257E0,1.6319742E1,2.479993E1,4.4714554E1,6.142578E-1],"categories":[],"categories_nodes":[],"categories_segments":[],"categories_sizes":[],"default_left":[1,1,1,0,1,1,1,0,0,1,1,1,1,1,1,1,1,1,1,1,1,1,1,1,1,0,0,0,1,0,1,1,0,1,0,1,1,0,0,0,0,0,0,0,0,0,0,0,0,0,0,0,0,0,0,0,0],"id":22,"left_children":[1,3,5,-1,7,9,11,-1,-1,13,15,17,19,21,23,25,27,29,31,33,35,37,39,41,43,-1,-1,-1,45,-1,47,49,-1,51,-1,53,55,-1,-1,-1,-1,-1,-1,-1,-1,-1,-1,-1,-1,-1,-1,-1,-1,-1,-1,-1,-1],"loss_changes":[2.406125E4,1.470302E4,2.32925E4,0E0,5.1135596E2,3.8743E4,6.5265E4,0E0,0E0,3.3995062E4,4.0598906E4,1.67555E4,5.8510375E4,8.3395375E4,4.26365E4,1.1624219E2,5.263129E3,9.266781E3,5.1623125E3,2.9259713E4,1.7640875E4,2.3511594E4,1.39713125E4,1.000458E4,1.2843766E4,0E0,0E0,0E0,1.8505176E2,0E0,9.723359E3,1.12330625E4,0E0,9.229355E3,0E0,1.1534E4,5.4757188E3,0E0,0E0,0E0,0E0,0E0,0E0,0E0,0E0,0E0,0E0,0E0,0E0,0E0,0E0,0E0,0E0,0E0,0E0,0E0,0E0],"parents":[2147483647,0,0,1,1,2,2,4,4,5,5,6,6,9,9,10,10,11,11,12,12,13,13,14,14,15,15,16,16,17,17,18,18,19,19,20,20,21,21,22,22,23,23,24,24,28,28,30,30,31,31,33,33,35,35,36,36],"right_children":[2,4,6,-1,8,10,12,-1,-1,14,16,18,20,22,24,26,28,30,32,34,36,38,40,42,44,-1,-1,-1,46,-1,48,50,-1,52,-1,54,56,-1,-1,-1,-1,-1,-1,-1,-1,-1,-1,-1,-1,-1,-1,-1,-1,-1,-1,-1,-1],"split_conditions":[-1.7089021E2,-1.5734467E2,5.8976992E4,2.4402487E1,5.9091156E4,5.90867E4,5.9024188E4,1.725E0,-5.3794923E0,5.8790547E4,5.912833E4,5.9003875E4,5.9062E4,5.8718188E4,5.8894383E4,5.9450625E4,5.9161305E4,5.872853E4,5.921753E4,5.9184543E4,6.086429E4,5.923128E4,5.8861195E4,5.8806008E4,5.5191734E1,4.831172E1,1.3405079E1,-8.396484E0,5.8870547E4,3.0703712E1,5.9879562E1,5.908283E4,2.876211E1,5.9124562E4,-2.6812502E1,-5.1842255E1,4.2063774E1,6.5770245E0,-8.194453E0,1.3890099E1,2.425952E1,-4.6768417E0,2.1251128E0,5.9627934E0,1.6065235E1,2.5201173E0,1.0975547E1,9.381365E0,-8.657422E0,1.4250634E1,-1.9179688E-1,3.649311E0,-2.1523578E0,4.8959227E0,7.4399796E0,1.3414367E1,1.8427736E-1],"split_indices":[9,8,0,0,0,4,0,0,0,0,1,0,0,0,0,2,1,1,5,4,1,2,7,0,9,0,0,0,0,0,8,4,0,1,0,8,9,0,0,0,0,0,0,0,0,0,0,0,0,0,0,0,0,0,0,0,0],"split_type":[0,0,0,0,0,0,0,0,0,0,0,0,0,0,0,0,0,0,0,0,0,0,0,0,0,0,0,0,0,0,0,0,0,0,0,0,0,0,0,0,0,0,0,0,0,0,0,0,0,0,0,0,0,0,0,0,0],"sum_hessian":[5.734E3,1.2E1,5.722E3,1E1,2E0,1.733E3,3.989E3,1E0,1E0,1.723E3,1E1,2.94E2,3.695E3,9.41E2,7.82E2,4E0,6E0,1.53E2,1.41E2,2.57E2,3.438E3,8.78E2,6.3E1,2.96E2,4.86E2,3E0,1E0,1E0,5E0,1E0,1.52E2,1.39E2,2E0,2.55E2,2E0,3.382E3,5.6E1,8.69E2,9E0,4.2E1,2.1E1,2E1,2.76E2,4.75E2,1.1E1,1E0,4E0,1.5E2,2E0,1.34E2,5E0,2.28E2,2.7E1,1.77E2,3.205E3,5.3E1,3E0],"tree_param":{"num_deleted":"0","num_feature":"11","num_nodes":"57","size_leaf_vector":"0"}},{"base_weights":[1.6483374E1,6.1822655E1,1.6401314E1,-1.0703125E0,6.892969E1,9.944634E0,1.6963434E1,7.6117744E1,2.918099E1,1.4144113E1,-7.7671614E0,5.2835495E1,1.6595543E1,2.2265625E1,8.1382164E1,5.6574035E0,1.9701336E1,-4.5036575E1,-2.4794304E0,3.500586E1,7.000451E1,-2.4542433E1,1.6998611E1,-5.3316946E0,1.252382E1,2.609049E1,2.857949E0,-6.548828E0,-4.823047E1,5.7339844E1,-7.296136E0,3.999707E1,4.046875E0,7.1252815E1,1.9398438E1,-3.1853125E1,1.8717448E0,3.0766207E1,1.6532341E1,-4.8517218E-1,-2.8546484E1,1.6138725E1,-4.6651787E-1,2.1186802E1,4.0165207E1,-1.788351E1,1.8910807E1,-7.342969E1,-3.2751953E1,7.046797E1,-4.1503906E0,6E-2,-2.1716562E1,5.35106E1,3.251975E1,1.0606445E1,-1.1095703E1,-4.5565987E1,1.3251202E-1,1.716748E1,-2.297578E1,2.232595E1,4.8171078E1,-2.1070946E1,1.680946E1],"categories":[],"categories_nodes":[],"categories_segments":[],"categories_sizes":[],"default_left":[1,1,1,0,1,1,1,1,0,1,1,1,1,0,0,1,1,1,1,1,1,1,1,1,1,1,1,0,1,1,1,1,1,0,0,1,1,1,1,0,0,0,0,0,0,0,0,0,0,0,0,0,0,0,0,0,0,0,0,0,0,0,0,0,0],"id":23,"left_children":[1,3,5,-1,7,9,11,13,-1,15,17,19,21,-1,-1,23,25,27,29,31,33,35,37,39,41,43,45,-1,47,49,51,53,55,-1,-1,57,59,61,63,-1,-1,-1,-1,-1,-1,-1,-1,-1,-1,-1,-1,-1,-1,-1,-1,-1,-1,-1,-1,-1,-1,-1,-1,-1,-1],"loss_changes":[2.032325E4,4.5435977E3,2.0613625E4,0E0,3.502539E2,3.439918E4,6.86185E4,1.7247266E2,0E0,1.7480172E4,1.7427621E4,1.3773641E4,8.68725E4,0E0,0E0,1.1309674E4,2.4138805E4,1.0363281E3,2.3180775E4,4.1647773E3,2.6027344E2,9.908025E3,3.264125E4,6.511788E3,4.327743E3,1.0398969E4,2.1314652E4,0E0,1.4955E3,5.1359785E3,7.851121E3,6.849297E2,6.1432996E2,0E0,0E0,1.7550621E4,4.955171E3,2.3604E4,5.2425875E4,0E0,0E0,0E0,0E0,0E0,0E0,0E0,0E0,0E0,0E0,0E0,0E0,0E0,0E0,0E0,0E0,0E0,0E0,0E0,0E0,0E0,0E0,0E0,0E0,0E0,0E0],"parents":[2147483647,0,0,1,1,2,2,4,4,5,5,6,6,7,7,9,9,10,10,11,11,12,12,15,15,16,16,17,17,18,18,19,19,20,20,21,21,22,22,23,23,24,24,25,25,26,26,28,28,29,29,30,30,31,31,32,32,35,35,36,36,37,37,38,38],"right_children":[2,4,6,-1,8,10,12,14,-1,16,18,20,22,-1,-1,24,26,28,30,32,34,36,38,40,42,44,46,-1,48,50,52,54,56,-1,-1,58,60,62,64,-1,-1,-1,-1,-1,-1,-1,-1,-1,-1,-1,-1,-1,-1,-1,-1,-1,-1,-1,-1,-1,-1,-1,-1,-1,-1],"split_conditions":[-2.0009691E2,5.7945055E4,5.8304312E4,-3.2109377E-1,6.0084773E4,5.8232375E4,5.8355008E4,5.7985453E4,8.754297E0,5.804865E4,2.3995392E1,5.833005E4,5.84172E4,6.679688E0,2.441465E1,4.4647015E1,5.8210555E4,5.7952934E4,2.9615559E1,2.8473751E1,3.3608727E1,5.848911E4,5.8546855E4,-2.5086426E1,5.811921E4,5.818851E4,5.8240258E4,-1.9646485E0,5.8088684E4,5.8295E4,5.8423984E4,5.8356508E4,5.8181758E4,2.1375845E1,5.8195314E0,3.3999474E1,5.8531492E4,5.8513008E4,5.8579797E4,-1.4555167E-1,-8.563946E0,4.8416176E0,-1.3995537E-1,6.356041E0,1.2049562E1,-5.365053E0,5.673242E0,-2.2028908E1,-9.825586E0,2.1140392E1,-1.2451172E0,1.8000001E-2,-6.514969E0,1.605318E1,9.755925E0,3.1819336E0,-3.328711E0,-1.3669797E1,3.975361E-2,5.150244E0,-6.8927345E0,6.6977854E0,1.44513235E1,-6.321284E0,5.042838E0],"split_indices":[8,0,0,0,1,5,0,0,0,4,10,0,0,0,0,10,0,0,10,8,9,1,0,8,2,0,0,0,3,0,2,7,1,0,0,9,5,0,0,0,0,0,0,0,0,0,0,0,0,0,0,0,0,0,0,0,0,0,0,0,0,0,0,0,0],"split_type":[0,0,0,0,0,0,0,0,0,0,0,0,0,0,0,0,0,0,0,0,0,0,0,0,0,0,0,0,0,0,0,0,0,0,0,0,0,0,0,0,0,0,0,0,0,0,0,0,0,0,0,0,0,0,0,0,0,0,0,0,0,0,0,0,0],"sum_hessian":[5.734E3,9E0,5.725E3,1E0,8E0,4.6E2,5.265E3,6E0,2E0,3.72E2,8.8E1,5.2E1,5.213E3,1E0,5E0,1.48E2,2.24E2,1E1,7.8E1,2.7E1,2.5E1,5E1,5.163E3,5.7E1,9.1E1,1.62E2,6.2E1,1E0,9E0,5E0,7.3E1,2.3E1,4E0,2.4E1,1E0,3.9E1,1.1E1,1.67E2,4.996E3,4.8E1,9E0,7.1E1,2E1,1.22E2,4E1,2.7E1,3.5E1,2E0,7E0,4E0,1E0,4.9E1,2.4E1,6E0,1.7E1,3E0,1E0,2.7E1,1.2E1,7E0,4E0,1.14E2,5.3E1,3.6E1,4.96E3],"tree_param":{"num_deleted":"0","num_feature":"11","num_nodes":"65","size_leaf_vector":"0"}},{"base_weights":[1.15540905E1,1.1121601E1,1.7372755E1,1.1438493E1,-2.8188408E1,4.447475E1,1.4193728E1,1.1213177E1,4.500569E1,-3.8630543E1,-1.1195914E0,2.2145E1,7.4696465E1,-2.1568714E1,1.6506842E1,1.150853E1,-9.548611E-2,2.2371094E1,4.9865376E1,-4.042448E1,7.59375E0,-1.1572048E1,1.791875E1,2.8256037E1,-1.7001953E1,2.7902344E1,8.273075E1,5.0740887E1,-3.133672E1,1.5532999E1,4.9947483E1,1.1097314E1,3.6693073E1,-6.822396E0,2.2692287E1,-1.7763672E1,3.06423E1,6.926693E1,3.8641407E1,-5.302874E1,-2.766659E1,-2.6200521E1,-3.6495535E0,3.1207031E1,-1.6857422E1,9.813379E1,5.3308594E1,1.8529297E1,-4.1226562E1,1.78617E1,5.9075723E0,5.3791504E1,9.597656E0,3.5939648E1,1.099635E1,9.898717E0,4.1597828E1,-1.376572E0,-2.5144693E1,2.8752403E1,-7.3502603E0,3.283138E1,8.753906E0,8.161719E1,3.3424805E1,5.6757812E0,4.4125E1,-2.1059896E1,-5.6601887E1,-3.8239452E1,-1.09921875E1,1.9902344E0,-8.376953E0,3.3751026E1,4.6927085E0,5.923698E1,8.869141E0,3.1028646E1,-9.484375E0,-8.61901E1,-2.9485416E1,1.058147E1,2.587856E1,-2.3188337E1,1.3627479E1,5.6943638E1,1.5863281E1],"categories":[],"categories_nodes":[],"categories_segments":[],"categories_sizes":[],"default_left":[1,1,1,1,1,1,1,1,1,1,1,1,1,1,1,1,1,1,1,1,0,1,0,1,0,0,1,0,1,1,1,1,1,1,1,0,1,1,1,1,1,0,1,1,0,0,1,1,1,1,1,1,0,0,0,0,0,0,0,0,0,0,0,0,0,0,0,0,0,0,0,0,0,0,0,0,0,0,0,0,0,0,0,0,0,0,0],"id":24,"left_children":[1,3,5,7,9,11,13,15,17,19,21,23,25,27,29,31,33,35,37,39,-1,41,-1,43,-1,-1,45,-1,47,49,51,53,55,57,59,-1,61,63,65,67,69,-1,71,73,-1,-1,75,77,79,81,83,85,-1,-1,-1,-1,-1,-1,-1,-1,-1,-1,-1,-1,-1,-1,-1,-1,-1,-1,-1,-1,-1,-1,-1,-1,-1,-1,-1,-1,-1,-1,-1,-1,-1,-1,-1],"loss_changes":[1.42390625E4,6.685531E4,3.3401133E4,3.9572938E4,1.2110969E4,2.6014422E4,2.9722562E4,1.7586438E4,2.7343516E3,2.8775977E3,2.7943232E3,6.461119E3,4.0828906E3,1.7129102E4,1.010118E4,5.2731E4,2.084914E4,3.200023E3,3.4207734E3,3.3569922E3,0E0,9.4742566E2,0E0,3.4549219E3,0E0,0E0,1.1132891E3,0E0,1.0627242E4,7.2016797E3,8.796797E2,1.2271E4,1.0364648E4,1.0442287E4,5.8552393E3,0E0,4.800537E1,1.2558984E3,3.364959E3,4.071836E2,2.5767002E3,0E0,2.033028E2,1.2581152E3,0E0,0E0,1.3188008E3,1.6948982E3,6.4333496E3,1.5017695E4,1.491615E4,5.3125E1,0E0,0E0,0E0,0E0,0E0,0E0,0E0,0E0,0E0,0E0,0E0,0E0,0E0,0E0,0E0,0E0,0E0,0E0,0E0,0E0,0E0,0E0,0E0,0E0,0E0,0E0,0E0,0E0,0E0,0E0,0E0,0E0,0E0,0E0,0E0],"parents":[2147483647,0,0,1,1,2,2,3,3,4,4,5,5,6,6,7,7,8,8,9,9,10,10,11,11,12,12,13,13,14,14,15,15,16,16,17,17,18,18,19,19,21,21,23,23,26,26,28,28,29,29,30,30,31,31,32,32,33,33,34,34,36,36,37,37,38,38,39,39,40,40,42,42,43,43,46,46,47,47,48,48,49,49,50,50,51,51],"right_children":[2,4,6,8,10,12,14,16,18,20,22,24,26,28,30,32,34,36,38,40,-1,42,-1,44,-1,-1,46,-1,48,50,52,54,56,58,60,-1,62,64,66,68,70,-1,72,74,-1,-1,76,78,80,82,84,86,-1,-1,-1,-1,-1,-1,-1,-1,-1,-1,-1,-1,-1,-1,-1,-1,-1,-1,-1,-1,-1,-1,-1,-1,-1,-1,-1,-1,-1,-1,-1,-1,-1,-1,-1],"split_conditions":[6.004491E4,5.9883895E4,6.0193395E4,5.980678E4,6.0000242E4,6.011929E4,6.0245883E4,5.9687023E4,-5.2034973E1,6.038211E4,-4.86299E0,6.021693E4,6.009947E4,5.993677E4,6.10473E4,5.963692E4,5.9766E4,5.977378E4,-2.8992104E1,5.743389E1,2.278125E0,6.0050633E4,5.3756256E0,7.54048E1,-5.100586E0,8.370704E0,6.0420207E4,1.5222266E1,-5.0437744E1,4.115942E1,6.1105188E4,-1.7346683E2,5.9568797E4,3.6822407E1,3.804467E1,-5.3291016E0,5.9776195E4,6.0069133E4,5.97918E4,5.9906695E4,5.9845875E4,-7.8601565E0,6.021221E4,6.0113285E4,-5.0572267E0,2.9440138E1,6.0219734E4,6.02436E4,3.484263E1,1.2137294E1,4.440663E1,6.0984027E4,2.879297E0,1.0781895E1,3.2989051E0,2.9696152E0,1.2479349E1,-4.1297162E-1,-7.5434084E0,8.625721E0,-2.2050781E0,9.849414E0,2.626172E0,2.4485157E1,1.0027442E1,1.7027345E0,1.32375E1,-6.3179693E0,-1.6980566E1,-1.1471836E1,-3.2976563E0,5.9707034E-1,-2.513086E0,1.0125308E1,1.4078126E0,1.7771095E1,2.6607423E0,9.308595E0,-2.8453126E0,-2.585703E1,-8.845625E0,3.174441E0,7.763568E0,-6.9565015E0,4.088244E0,1.7083092E1,4.7589846E0],"split_indices":[0,0,0,0,0,0,0,0,8,1,9,1,4,3,0,0,0,5,9,10,0,1,0,9,0,0,2,0,9,9,0,8,7,8,8,0,3,2,4,0,1,0,1,0,0,0,1,0,10,9,9,1,0,0,0,0,0,0,0,0,0,0,0,0,0,0,0,0,0,0,0,0,0,0,0,0,0,0,0,0,0,0,0,0,0,0,0],"split_type":[0,0,0,0,0,0,0,0,0,0,0,0,0,0,0,0,0,0,0,0,0,0,0,0,0,0,0,0,0,0,0,0,0,0,0,0,0,0,0,0,0,0,0,0,0,0,0,0,0,0,0,0,0,0,0,0,0,0,0,0,0,0,0,0,0,0,0,0,0,0,0,0,0,0,0,0,0,0,0,0,0,0,0,0,0,0,0],"sum_hessian":[5.734E3,5.34E3,3.94E2,5.298E3,4.2E1,4E1,3.54E2,5.264E3,3.4E1,3E1,1.2E1,2.4E1,1.6E1,2.1E1,3.33E2,5.13E3,1.34E2,7E0,2.7E1,2.9E1,1E0,8E0,4E0,2.1E1,3E0,3E0,1.3E1,2E0,1.9E1,3.25E2,8E0,5.049E3,8.1E1,1.04E2,3E1,1E0,6E0,8E0,1.9E1,1.3E1,1.6E1,2E0,6E0,2E1,1E0,7E0,6E0,3E0,1.6E1,2.61E2,6.4E1,7E0,1E0,1.9E1,5.03E3,1.3E1,6.8E1,8.1E1,2.3E1,2.5E1,5E0,5E0,1E0,5E0,3E0,3E0,1.6E1,2E0,1.1E1,9E0,7E0,3E0,3E0,1.8E1,2E0,5E0,1E0,2E0,1E0,2E0,1.4E1,1.38E2,1.23E2,1.3E1,5.1E1,6E0,1E0],"tree_param":{"num_deleted":"0","num_feature":"11","num_nodes":"87","size_leaf_vector":"0"}},{"base_weights":[8.107803E0,5.8186893E0,9.040455E0,-9.118635E-1,7.2113743E0,-2.400555E1,9.193065E0,2.2104414E0,-2.3366405E1,2.476974E1,5.921337E0,-7.810156E1,-1.3047105E1,6.2927456E1,9.097898E0,3.75778E1,4.4023925E-1,-6.188151E1,-1.915696E1,-1.161084E1,3.671853E1,-1.8509693E1,6.440572E0,-1.7253606E0,-3.9874218E1,2.2950521E1,7.4328125E1,8.860242E0,1.8588886E1,6.4958496E1,-1.3746875E1,-3.2668324E1,2.0149317E0,-2.8740885E1,-1.4940469E1,3.1780079E1,-3.976406E1,3.229368E1,7.927213E1,2.6764322E1,-2.3202187E1,1.6848421E1,5.566967E0,3.6901042E0,-3.335547E1,-4.6654297E1,-6.376953E0,9.099935E0,-7.6783853E0,6.8634766E1,1.7365376E1,9.120117E1,3.0972656E1,-3.6757812E1,3.9148438E1,2.1119792E0,-4.0631943E1,5.3374218E1,-3.0762598E-1,-4.474121E1,-1.32838545E1,-9.245052E0,-2.1348722E1,8.15625E-1,5.228711E1,-7.2100784E1,-2.145064E1,4.071471E1,-2.5563368E1,-1.3417969E0,4.148828E1,2.45E1,-2.841542E1,5.016593E1,6.4064064E0,-1.7226427E1,6.1444488E0,1.726451E1,-1.2761719E1,8.904534E0,4.3103336E1,-2.6684679E1,1.0664062E0,1.4838497E1,3.577202E1],"categories":[],"categories_nodes":[],"categories_segments":[],"categories_sizes":[],"default_left":[1,1,1,1,1,1,1,1,1,1,1,0,1,1,1,1,1,0,1,1,1,1,1,1,1,0,0,1,1,1,1,1,1,1,1,1,1,1,0,1,1,1,1,1,0,0,0,1,1,0,1,0,0,0,0,0,0,0,0,0,0,0,0,0,0,0,0,0,0,0,0,0,0,0,0,0,0,0,0,0,0,0,0,0,0],"id":25,"left_children":[1,3,5,7,9,11,13,15,17,19,21,-1,23,25,27,29,31,-1,33,35,37,39,41,43,45,-1,-1,47,49,51,53,55,57,59,61,63,65,67,-1,69,71,73,75,77,-1,-1,-1,79,81,-1,83,-1,-1,-1,-1,-1,-1,-1,-1,-1,-1,-1,-1,-1,-1,-1,-1,-1,-1,-1,-1,-1,-1,-1,-1,-1,-1,-1,-1,-1,-1,-1,-1,-1,-1],"loss_changes":[1.2191281E4,1.5594762E4,2.0761438E4,2.0103092E4,3.1066328E4,1.0244356E4,2.0163875E4,1.5760516E4,4.488992E3,4.1288504E4,1.6420008E4,0E0,5.094608E3,1.4844766E3,8.9681875E3,1.7756643E4,1.2630554E4,0E0,9.041455E2,3.0581967E4,1.0808836E4,6.357088E3,1.1353465E4,2.3498777E3,8.380586E2,0E0,0E0,1.5736344E4,4.80884E3,4.310289E3,7.5248643E3,3.1325625E3,2.7571232E4,1.631523E3,7.1507227E2,6.307243E3,7.336332E3,3.319707E4,0E0,1.2971687E3,6.913244E3,3.34251E4,1.5414145E4,2.9002092E3,0E0,0E0,0E0,2.550225E4,9.502204E3,0E0,3.9808008E3,0E0,0E0,0E0,0E0,0E0,0E0,0E0,0E0,0E0,0E0,0E0,0E0,0E0,0E0,0E0,0E0,0E0,0E0,0E0,0E0,0E0,0E0,0E0,0E0,0E0,0E0,0E0,0E0,0E0,0E0,0E0,0E0,0E0,0E0],"parents":[2147483647,0,0,1,1,2,2,3,3,4,4,5,5,6,6,7,7,8,8,9,9,10,10,12,12,13,13,14,14,15,15,16,16,18,18,19,19,20,20,21,21,22,22,23,23,24,24,27,27,28,28,29,29,30,30,31,31,32,32,33,33,34,34,35,35,36,36,37,37,39,39,40,40,41,41,42,42,43,43,47,47,48,48,50,50],"right_children":[2,4,6,8,10,12,14,16,18,20,22,-1,24,26,28,30,32,-1,34,36,38,40,42,44,46,-1,-1,48,50,52,54,56,58,60,62,64,66,68,-1,70,72,74,76,78,-1,-1,-1,80,82,-1,84,-1,-1,-1,-1,-1,-1,-1,-1,-1,-1,-1,-1,-1,-1,-1,-1,-1,-1,-1,-1,-1,-1,-1,-1,-1,-1,-1,-1,-1,-1,-1,-1,-1,-1],"split_conditions":[4.3579964E1,5.8921758E4,-9.188229E1,5.869243E4,5.8785992E4,5.8288508E4,-8.844037E1,-1.0755974E2,3.1515038E1,5.8632754E4,5.87799E4,-2.343047E1,5.8924094E4,5.8752895E4,6.0679008E4,5.8116E4,-9.7816345E1,-1.8564455E1,-1.7092995E1,-1.5139078E2,5.898765E4,5.8779418E4,-9.4697464E1,5.1639194E1,5.9409492E4,6.8851566E0,2.2298439E1,6.0458766E4,6.0682E4,5.8112203E4,5.8181383E4,5.8038844E4,-1.0341696E2,3.920553E1,-1.2430653E1,-1.7028528E2,5.90917E4,5.9220094E4,2.3781641E1,5.8808805E4,5.865521E4,5.9115164E4,-7.970692E1,-1.0456977E2,-1.0006641E1,-1.3996289E1,-1.913086E0,6.0412703E4,6.049949E4,2.0590431E1,6.104435E4,2.7360353E1,9.291798E0,-1.1027344E1,1.1744532E1,6.335938E-1,-1.2189584E1,1.6012266E1,-9.2287794E-2,-1.3422364E1,-3.9851565E0,-2.7735157E0,-6.404617E0,2.4468751E-1,1.5686133E1,-2.1630236E1,-6.435192E0,1.2214414E1,-7.6690106E0,-4.0253907E-1,1.2446485E1,7.3500004E0,-8.524627E0,1.504978E1,1.921922E0,-5.167928E0,1.8433347E0,5.1793528E0,-3.8285158E0,2.6713605E0,1.2931002E1,-8.005404E0,3.1992188E-1,4.4515495E0,1.0731606E1],"split_indices":[10,2,8,1,0,0,8,9,10,4,3,0,3,0,0,0,9,0,9,9,1,4,8,10,0,0,0,0,0,4,0,1,8,10,9,9,2,2,0,0,3,4,8,8,0,0,0,0,0,0,0,0,0,0,0,0,0,0,0,0,0,0,0,0,0,0,0,0,0,0,0,0,0,0,0,0,0,0,0,0,0,0,0,0,0],"split_type":[0,0,0,0,0,0,0,0,0,0,0,0,0,0,0,0,0,0,0,0,0,0,0,0,0,0,0,0,0,0,0,0,0,0,0,0,0,0,0,0,0,0,0,0,0,0,0,0,0,0,0,0,0,0,0,0,0,0,0,0,0,0,0,0,0,0,0,0,0,0,0,0,0,0,0,0,0,0,0,0,0,0,0,0,0],"sum_hessian":[5.734E3,1.662E3,4.072E3,2.85E2,1.377E3,1.8E1,4.054E3,2.51E2,3.4E1,9.3E1,1.284E3,2E0,1.6E1,6E0,4.048E3,1.1E1,2.4E2,2E0,3.2E1,2.3E1,7E1,2.6E1,1.258E3,1.2E1,4E0,2E0,4E0,3.951E3,9.7E1,7E0,4E0,1E1,2.3E2,8E0,2.4E1,9E0,1.4E1,6.5E1,5E0,2E0,2.4E1,9.6E1,1.162E3,1.1E1,1E0,3E0,1E0,3.895E3,5.6E1,1E0,9.6E1,3E0,4E0,3E0,1E0,2E0,8E0,9E0,2.21E2,3E0,5E0,1.4E1,1E1,4E0,5E0,4E0,1E1,5.7E1,8E0,1E0,1E0,2E0,2.2E1,2.2E1,7.4E1,2.8E1,1.134E3,6E0,5E0,3.874E3,2.1E1,1.7E1,3.9E1,8.6E1,1E1],"tree_param":{"num_deleted":"0","num_feature":"11","num_nodes":"85","size_leaf_vector":"0"}},{"base_weights":[5.6858916E0,3.389423E1,5.620822E0,4.1616833E1,-5.7200522E0,5.3764706E0,1.2786299E1,7.220703E0,4.4334373E1,7.4804688E0,-1.6060547E1,5.7187E0,-6.2328763E0,2.0097088E1,2.4448674E0,4.63763E1,1.2978516E1,4.6852202E0,7.5700874E0,6.143775E0,-1.3999402E1,1.7182451E1,7.7867966E1,1.0482529E1,-1.5335781E1,4.788332E0,-4.6773994E1,2.2682001E1,6.9451814E0,4.8071377E1,-2.843675E0,-3.7936882E1,-8.139257E0,1.8602577E1,-3.7776043E1,1.6957031E1,1.12822914E2,1.5068873E0,2.8848742E1,2.8324219E1,-2.2576881E1,4.910154E0,-1.7455797E1,-1.0082031E1,-7.177246E1,1.0434674E1,4.111341E1,6.2100586E1,6.821973E0,4.8066406E0,5.1917187E1,-8.053025E0,3.8436848E1,-1.3941016E2,-2.455447E1,2.6463379E1,-1.1819831E1,1.4681684E1,4.491947E1,1.0100098E1,-3.799163E1,4.9576824E1,1.7062801E1,6.46875E0,3.3453125E1,-5.723125E1,-1.1696398E1],"categories":[],"categories_nodes":[],"categories_segments":[],"categories_sizes":[],"default_left":[1,1,1,1,1,1,1,0,1,0,0,1,1,1,1,0,0,1,1,1,1,1,1,1,1,1,1,1,1,1,1,1,1,1,0,0,0,1,1,1,1,0,0,0,0,0,0,0,0,0,0,0,0,0,0,0,0,0,0,0,0,0,0,0,0,0,0],"id":26,"left_children":[1,3,5,7,9,11,13,-1,15,-1,-1,17,19,21,23,-1,-1,25,27,29,31,33,35,37,39,41,43,45,47,49,51,53,55,57,-1,-1,-1,59,61,63,65,-1,-1,-1,-1,-1,-1,-1,-1,-1,-1,-1,-1,-1,-1,-1,-1,-1,-1,-1,-1,-1,-1,-1,-1,-1,-1],"loss_changes":[1.0336125E4,4.215079E3,9.951625E3,7.080781E2,5.2964014E2,2.2030516E4,1.4164418E4,0E0,3.8365234E1,0E0,0E0,1.0254641E4,1.5369658E4,1.7183965E4,1.1451028E4,0E0,0E0,1.8551062E4,1.8021242E4,2.349968E4,1.3438379E4,8.975816E3,8.732549E3,9.023198E3,8.543135E3,9.429203E3,5.697088E3,1.6726895E4,1.2148273E4,1.5807188E3,1.1491858E4,2.2378045E4,1.0501395E4,1.0071824E4,0E0,0E0,0E0,1.3281643E4,3.5514785E3,2.3197876E2,7.625839E3,0E0,0E0,0E0,0E0,0E0,0E0,0E0,0E0,0E0,0E0,0E0,0E0,0E0,0E0,0E0,0E0,0E0,0E0,0E0,0E0,0E0,0E0,0E0,0E0,0E0,0E0],"parents":[2147483647,0,0,1,1,2,2,3,3,4,4,5,5,6,6,8,8,11,11,12,12,13,13,14,14,17,17,18,18,19,19,20,20,21,21,22,22,23,23,24,24,25,25,26,26,27,27,28,28,29,29,30,30,31,31,32,32,33,33,37,37,38,38,39,39,40,40],"right_children":[2,4,6,8,10,12,14,-1,16,-1,-1,18,20,22,24,-1,-1,26,28,30,32,34,36,38,40,42,44,46,48,50,52,54,56,58,-1,-1,-1,60,62,64,66,-1,-1,-1,-1,-1,-1,-1,-1,-1,-1,-1,-1,-1,-1,-1,-1,-1,-1,-1,-1,-1,-1,-1,-1,-1,-1],"split_conditions":[-1.7089021E2,-1.5734467E2,6.589226E1,5.816439E4,5.9091156E4,4.9748486E1,8.344835E1,2.1662111E0,4.1578873E1,2.2441406E0,-4.8181643E0,5.9232953E4,5.9169914E4,1.0646069E2,5.9263188E4,1.391289E1,3.893555E0,5.924953E4,5.909585E4,5.740272E1,5.9261555E4,1.0165839E2,5.93046E4,5.9148492E4,4.8884514E1,5.9313008E4,5.9237E4,5.9380613E4,5.90905E4,5.2307594E1,5.8726117E4,9.677289E0,5.9368035E4,8.7650635E1,-1.1332813E1,5.0871096E0,3.3846874E1,5.907193E4,9.5804596E1,5.995282E4,5.9571496E4,1.4730462E0,-5.236739E0,-3.0246096E0,-2.1531738E1,3.1304023E0,1.2334023E1,1.8630177E1,2.046592E0,1.4419923E0,1.5575156E1,-2.4159076E0,1.15310545E1,-4.1823048E1,-7.366341E0,7.939014E0,-3.5459495E0,4.4045053E0,1.3475842E1,3.0300295E0,-1.139749E1,1.4873048E1,5.1188407E0,1.9406251E0,1.0035938E1,-1.7169376E1,-3.5089195E0],"split_indices":[9,8,8,0,0,8,9,0,10,0,0,1,2,8,1,0,0,7,3,10,7,8,0,5,10,0,0,1,0,8,3,9,0,8,0,0,0,1,8,2,0,0,0,0,0,0,0,0,0,0,0,0,0,0,0,0,0,0,0,0,0,0,0,0,0,0,0],"split_type":[0,0,0,0,0,0,0,0,0,0,0,0,0,0,0,0,0,0,0,0,0,0,0,0,0,0,0,0,0,0,0,0,0,0,0,0,0,0,0,0,0,0,0,0,0,0,0,0,0,0,0,0,0,0,0,0,0,0,0,0,0,0,0,0,0,0,0],"sum_hessian":[5.734E3,1.2E1,5.722E3,1E1,2E0,5.535E3,1.87E2,1E0,9E0,1E0,1E0,5.377E3,1.58E2,1.09E2,7.8E1,8E0,1E0,3.453E3,1.924E3,6.1E1,9.7E1,1.05E2,4E0,5.4E1,2.4E1,3.447E3,6E0,7.5E1,1.849E3,1E1,5.1E1,1.8E1,7.9E1,1.03E2,2E0,2E0,2E0,3.7E1,1.7E1,3E0,2.1E1,3.429E3,1.8E1,3E0,3E0,4.6E1,2.9E1,3E0,1.846E3,1E0,9E0,4.6E1,5E0,1E0,1.7E1,7E0,7.2E1,9.1E1,1.2E1,3.1E1,6E0,5E0,1.2E1,1E0,2E0,4E0,1.7E1],"tree_param":{"num_deleted":"0","num_feature":"11","num_nodes":"67","size_leaf_vector":"0"}},{"base_weights":[3.98982E0,-6.1671777E0,4.130957E0,-2.8902779E1,-3.1983385E0,3.3665527E1,4.088407E0,7.6367188E0,-4.0433594E1,1.3239843E1,-5.798072E0,1.8215403E1,7.09082E1,-1.38619795E1,4.173857E0,-3.2929688E0,1.4748047E1,-7.2421875E0,-4.4758465E1,1.7155691E1,3.0771484E0,-4.39388E1,-3.794401E0,5.8216147E0,2.2008595E1,6.9976916E0,-8.803711E1,1.9458834E1,4.0663943E0,-4.989453E1,-9.5390625E0,5.5234375E0,2.0703907E1,-1.3541666E0,8.185547E0,-1.3275391E1,-5.2632812E1,1.1084765E1,-6.6374846E0,2.9720486E1,-8.109654E0,3.53612E1,9.139063E0,-2.2288794E1,4.2031765E0,-1.640625E0,-3.90625E-1,1.8416504E1,-1.2161458E1,-3.2242374E0,-2.0309376E1,6.1367188E0,3.1901367E1,-6.383073E1,6.4964194E0,4.692448E1,-8.168945E0,-2.8892578E1,1.56384945E1,-2.588672E0,-5.9460155E1,2.1043095E1,4.1079807E0],"categories":[],"categories_nodes":[],"categories_segments":[],"categories_sizes":[],"default_left":[1,1,1,1,1,1,1,1,1,1,1,1,0,1,1,0,0,0,1,1,1,1,1,0,0,1,0,1,1,0,0,0,0,1,0,0,0,1,1,1,1,1,1,1,1,0,0,0,0,0,0,0,0,0,0,0,0,0,0,0,0,0,0],"id":27,"left_children":[1,3,5,7,9,11,13,15,17,19,21,23,-1,25,27,-1,-1,-1,29,31,33,35,37,-1,-1,39,-1,41,43,-1,-1,-1,-1,45,-1,-1,-1,47,49,51,53,55,57,59,61,-1,-1,-1,-1,-1,-1,-1,-1,-1,-1,-1,-1,-1,-1,-1,-1,-1,-1],"loss_changes":[8.246773E3,5.2399277E3,6.9715E3,4.100751E3,3.110943E3,3.3116113E3,8.7241875E3,2.8173865E2,6.806914E2,3.4516528E2,4.57141E3,2.0095874E2,0E0,4.2392316E4,9.15868E3,0E0,0E0,0E0,6.093877E2,1.7455933E2,1.0163228E2,1.0104297E2,2.6117383E3,0E0,0E0,7.793207E3,0E0,6.077074E3,2.0230719E4,0E0,0E0,0E0,0E0,1.8717432E-1,0E0,0E0,0E0,1.9283236E3,2.3144602E3,2.6713086E2,1.1808797E4,7.933592E3,6.6314375E3,2.1082207E4,8.8235E3,0E0,0E0,0E0,0E0,0E0,0E0,0E0,0E0,0E0,0E0,0E0,0E0,0E0,0E0,0E0,0E0,0E0,0E0],"parents":[2147483647,0,0,1,1,2,2,3,3,4,4,5,5,6,6,7,7,8,8,9,9,10,10,11,11,13,13,14,14,18,18,19,19,20,20,21,21,22,22,25,25,27,27,28,28,33,33,37,37,38,38,39,39,40,40,41,41,42,42,43,43,44,44],"right_children":[2,4,6,8,10,12,14,16,18,20,22,24,-1,26,28,-1,-1,-1,30,32,34,36,38,-1,-1,40,-1,42,44,-1,-1,-1,-1,46,-1,-1,-1,48,50,52,54,56,58,60,62,-1,-1,-1,-1,-1,-1,-1,-1,-1,-1,-1,-1,-1,-1,-1,-1,-1,-1],"split_conditions":[5.8015492E4,3.6302505E1,-2.035282E2,5.78685E4,5.8048805E4,-2.0594482E2,-1.6433017E2,5.78452E4,5.7993445E4,5.7987023E4,5.805247E4,5.7985453E4,2.127246E1,-1.697969E2,-1.3541058E2,-9.8789066E-1,4.424414E0,-2.1726563E0,5.808308E4,5.7977805E4,5.80445E4,5.7959E4,5.7958016E4,1.7464845E0,6.6025786E0,-1.7089021E2,-2.6411135E1,5.9730555E4,-1.1942503E2,-1.496836E1,-2.861719E0,1.6570313E0,6.2111726E0,5.80115E4,2.4556642E0,-3.9826174E0,-1.57898445E1,5.8047992E4,5.8119277E4,5.816439E4,-1.6890039E2,-1.129271E2,-1.6538293E2,5.9145246E4,-1.07273254E2,-4.9218753E-1,-1.1718751E-1,5.5249515E0,-3.6484375E0,-9.6727127E-1,-6.092813E0,1.8410157E0,9.570411E0,-1.914922E1,1.9489259E0,1.4077345E1,-2.4506836E0,-8.667774E0,4.6915483E0,-7.766016E-1,-1.7838047E1,6.3129287E0,1.2323942E0],"split_indices":[5,10,8,0,2,8,8,0,1,1,2,0,0,8,8,0,0,0,1,1,0,0,5,0,0,9,0,2,8,0,0,0,0,0,0,0,0,0,2,0,9,9,9,5,8,0,0,0,0,0,0,0,0,0,0,0,0,0,0,0,0,0,0],"split_type":[0,0,0,0,0,0,0,0,0,0,0,0,0,0,0,0,0,0,0,0,0,0,0,0,0,0,0,0,0,0,0,0,0,0,0,0,0,0,0,0,0,0,0,0,0,0,0,0,0,0,0,0,0,0,0,0,0,0,0,0,0,0,0],"sum_hessian":[5.734E3,7.8E1,5.656E3,8E0,7E1,7E0,5.649E3,2E0,6E0,9E0,6.1E1,6E0,1E0,2.6E1,5.623E3,1E0,1E0,1E0,5E0,6E0,3E0,2E0,5.9E1,2E0,4E0,2.1E1,5E0,3.8E1,5.585E3,4E0,1E0,2E0,4E0,2E0,1E0,1E0,1E0,9E0,5E1,8E0,1.3E1,1.4E1,2.4E1,2.8E1,5.557E3,1E0,1E0,7E0,2E0,4.1E1,9E0,1E0,7E0,2E0,1.1E1,1.1E1,3E0,3E0,2.1E1,1.9E1,9E0,3E1,5.527E3],"tree_param":{"num_deleted":"0","num_feature":"11","num_nodes":"63","size_leaf_vector":"0"}},{"base_weights":[2.7881572E0,1.1260074E0,3.5494256E0,1.3544606E0,-2.8163784E1,3.176057E0,8.16001E0,-2.537026E0,2.3020697E0,-5.3443848E1,4.7511163E0,3.4015882E0,-2.2358887E1,2.7989775E1,5.545558E0,2.0012654E-1,-1.3931354E1,1.5064296E1,1.4803447E0,-1.1501953E1,-5.779241E1,-4.932031E0,1.930599E1,3.2672417E0,3.1596048E1,-4.2463543E1,-9.805803E0,1.0987459E1,4.6430664E1,3.073291E1,3.8848133E0,-3.6301807E-1,5.306901E1,-3.0666853E1,-9.418111E0,-1.247979E1,2.4578907E1,-2.0623632E1,1.8103815E0,-8.4078125E1,-3.04625E1,-1.3658854E0,-6.8541665E0,4.8828125E0,2.4076172E1,3.6302013E0,-7.9427543E0,-2.6142578E0,3.911356E1,-5.1429688E1,-1.1673828E1,-1.324197E1,8.108398E0,1.4773897E1,-1.4131511E1,9.526042E0,5.102232E1,3.480443E1,-1.5169922E1,-4.9959292E0,9.409719E0,2.476232E1,-1.5714121E0,-1.1357701E1,-4.3729004E1,-1.1569897E1,2.8654513E0,1.5746094E1,-3.1749722E1,1.7514107E1,5.4322266E1,-4.5458984E0,-3.9769096E1,1.664442E0,2.5810059E1,3.2182322E0,1.7246132E1,-2.1643229E1,-2.2630208E0,6.90625E0,-8.089844E0,9.197657E0,5.0160156E1,-2.0815104E1,-5.7203125E1,-7.0703125E-1,-1.509375E1,-4.984375E0,-1.8043678E1,1.8007568E1,-1.8482422E1,6.092617E1,2.1010157E1,3.4277344E0,4.2362957E1,6.3558035E0,-1.1427319E1,-5.3564453E0,1.4553409E1],"categories":[],"categories_nodes":[],"categories_segments":[],"categories_sizes":[],"default_left":[1,1,1,1,1,1,1,1,1,1,1,1,1,1,1,1,1,1,1,0,1,1,1,1,1,1,1,1,1,1,1,1,0,1,1,1,1,1,1,0,0,0,0,0,0,1,1,1,1,1,1,1,0,1,0,0,1,1,0,1,1,0,0,0,0,0,0,0,0,0,0,0,0,0,0,0,0,0,0,0,0,0,0,0,0,0,0,0,0,0,0,0,0,0,0,0,0,0,0],"id":28,"left_children":[1,3,5,7,9,11,13,15,17,19,21,23,25,27,29,31,33,35,37,-1,39,41,43,45,47,49,51,53,55,57,59,61,-1,63,65,67,69,71,73,-1,-1,-1,-1,-1,-1,75,77,79,81,83,85,87,-1,89,-1,-1,91,93,-1,95,97,-1,-1,-1,-1,-1,-1,-1,-1,-1,-1,-1,-1,-1,-1,-1,-1,-1,-1,-1,-1,-1,-1,-1,-1,-1,-1,-1,-1,-1,-1,-1,-1,-1,-1,-1,-1,-1,-1],"loss_changes":[7.2527383E3,1.2102639E4,6.744535E3,6.60666E3,1.1903189E4,2.103855E4,1.508691E4,1.0949779E4,1.5079039E4,7.9436914E2,1.0817766E3,1.3567047E4,7.659624E3,1.0150133E4,1.0798178E4,8.474748E3,4.8473086E3,2.3106934E4,9.914939E3,0E0,2.4674727E3,2.4911064E1,8.884412E1,1.4647945E4,4.474252E3,2.7124004E3,1.4000508E3,2.0158943E3,2.2252148E3,3.518288E3,1.2117066E4,8.600801E3,0E0,3.0344062E3,1.4868906E3,1.3009883E4,1.2707105E4,5.9755283E3,4.632883E3,0E0,0E0,0E0,0E0,0E0,0E0,1.9470613E4,8.744121E3,2.6439194E2,4.165209E3,4.0007227E2,1.3935059E2,6.237739E2,0E0,2.1610034E3,0E0,0E0,2.8812344E3,3.4122148E3,0E0,7.0083335E3,1.1622746E4,0E0,0E0,0E0,0E0,0E0,0E0,0E0,0E0,0E0,0E0,0E0,0E0,0E0,0E0,0E0,0E0,0E0,0E0,0E0,0E0,0E0,0E0,0E0,0E0,0E0,0E0,0E0,0E0,0E0,0E0,0E0,0E0,0E0,0E0,0E0,0E0,0E0,0E0],"parents":[2147483647,0,0,1,1,2,2,3,3,4,4,5,5,6,6,7,7,8,8,9,9,10,10,11,11,12,12,13,13,14,14,15,15,16,16,17,17,18,18,20,20,21,21,22,22,23,23,24,24,25,25,26,26,27,27,28,28,29,29,30,30,31,31,33,33,34,34,35,35,36,36,37,37,38,38,45,45,46,46,47,47,48,48,49,49,50,50,51,51,53,53,56,56,57,57,59,59,60,60],"right_children":[2,4,6,8,10,12,14,16,18,20,22,24,26,28,30,32,34,36,38,-1,40,42,44,46,48,50,52,54,56,58,60,62,-1,64,66,68,70,72,74,-1,-1,-1,-1,-1,-1,76,78,80,82,84,86,88,-1,90,-1,-1,92,94,-1,96,98,-1,-1,-1,-1,-1,-1,-1,-1,-1,-1,-1,-1,-1,-1,-1,-1,-1,-1,-1,-1,-1,-1,-1,-1,-1,-1,-1,-1,-1,-1,-1,-1,-1,-1,-1,-1,-1,-1],"split_conditions":[4.4313187E1,4.422429E1,6.008404E4,5.895964E4,-1.0697754E1,5.9883895E4,6.0193395E4,5.8820914E4,5.8790934E4,-9.929158E1,5.924097E4,5.980678E4,5.994816E4,6.011929E4,4.6072853E1,5.8685E4,5.8842992E4,5.8632754E4,5.8773504E4,-3.450586E0,-2.8857777E1,5.9034055E4,5.9795965E4,5.9686992E4,4.6919373E1,4.909929E1,6.348465E1,6.021693E4,6.009654E4,6.095251E4,5.5273438E1,-1.0755974E2,1.5920704E1,5.8842984E4,-2.980632E0,-1.4540514E2,5.872668E4,5.8818023E4,6.0269386E1,-2.5223438E1,-9.13875E0,-4.0976563E-1,-2.05625E0,1.4648438E0,7.2228518E0,5.9714438E4,5.9708516E4,5.9816797E4,5.925136E4,-1.4392612E1,5.9912E4,-2.354497E1,2.4325197E0,7.54048E1,-4.2394533E0,2.8578126E0,6.0217516E4,6.0476906E4,-4.5509768E0,6.0360008E4,6.0173785E4,7.428696E0,-4.7142366E-1,-3.4073105E0,-1.3118702E1,-3.4709692E0,8.596354E-1,4.7238283E0,-9.524917E0,5.2542324E0,1.629668E1,-1.3637695E0,-1.1930729E1,4.993326E-1,7.7430177E0,9.6546966E-1,5.1738396E0,-6.492969E0,-6.7890626E-1,2.071875E0,-2.4269533E0,2.7592971E0,1.5048047E1,-6.244531E0,-1.7160938E1,-2.1210939E-1,-4.5281253E0,-1.4953126E0,-5.4131036E0,5.402271E0,-5.544727E0,1.8277851E1,6.303047E0,1.0283203E0,1.2708888E1,1.9067411E0,-3.4281957E0,-1.6069337E0,4.3660226E0],"split_indices":[10,10,0,2,8,0,0,1,0,8,0,0,0,0,10,3,5,4,3,0,9,0,0,0,10,9,8,1,4,0,10,9,0,7,9,9,3,4,9,0,0,0,0,0,0,2,0,0,3,8,0,9,0,9,0,0,1,2,0,0,3,0,0,0,0,0,0,0,0,0,0,0,0,0,0,0,0,0,0,0,0,0,0,0,0,0,0,0,0,0,0,0,0,0,0,0,0,0,0],"split_type":[0,0,0,0,0,0,0,0,0,0,0,0,0,0,0,0,0,0,0,0,0,0,0,0,0,0,0,0,0,0,0,0,0,0,0,0,0,0,0,0,0,0,0,0,0,0,0,0,0,0,0,0,0,0,0,0,0,0,0,0,0,0,0,0,0,0,0,0,0,0,0,0,0,0,0,0,0,0,0,0,0,0,0,0,0,0,0,0,0,0,0,0,0,0,0,0,0,0,0],"sum_hessian":[5.734E3,1.802E3,3.932E3,1.789E3,1.3E1,3.639E3,2.93E2,3.5E2,1.439E3,7E0,6E0,3.608E3,3.1E1,3.3E1,2.6E2,2.83E2,6.7E1,8.6E1,1.353E3,1E0,6E0,4E0,2E0,3.592E3,1.6E1,1.1E1,2E1,1.8E1,1.5E1,1.5E1,2.45E2,2.81E2,2E0,1.3E1,5.4E1,2.2E1,6.4E1,1.9E1,1.334E3,2E0,4E0,2E0,2E0,1E0,1E0,3.48E3,1.12E2,3E0,1.3E1,8E0,3E0,1.7E1,3E0,1.6E1,2E0,2E0,1.3E1,1.4E1,1E0,9.4E1,1.51E2,1.2E1,2.69E2,6E0,7E0,4.6E1,8E0,9E0,1.3E1,5.3E1,1.1E1,1.1E1,8E0,1.327E3,7E0,3.379E3,1.01E2,3.2E1,8E1,1E0,2E0,4E0,9E0,2E0,6E0,1E0,2E0,7E0,1E1,1.5E1,1E0,9E0,4E0,3E0,1.1E1,3.4E1,6E1,3.9E1,1.12E2],"tree_param":{"num_deleted":"0","num_feature":"11","num_nodes":"99","size_leaf_vector":"0"}},{"base_weights":[1.9521517E0,1.995464E0,-2.07674E1,1.9237009E0,2.7481201E1,1.2016602E1,-3.4563477E1,2.3313398E0,-4.2273843E-1,5.5823566E1,9.5234375E0,1.4261719E1,2.640625E0,-4.292383E1,-6.3216147E0,1.5576371E0,4.7167525E0,-3.7742465E0,2.5209863E0,6.9552345E1,-6.4101562E0,-8.285937E0,2.0883928E1,-8.199219E0,-4.8228905E1,-8.525391E0,-9.5703125E-1,-2.5569788E-1,2.3815248E0,4.0882423E1,4.406792E0,2.0953993E1,-4.338112E0,2.9883139E1,1.7690164E0,2.0917969E1,7.6481445E1,-1.4248698E1,4.388021E-1,2.486849E1,-1.5117188E0,2.7202544E0,-3.8733668E0,8.831483E0,1.1716071E0,1.6914062E1,5.4042316E1,3.8518386E0,2.1476246E1,3.313203E1,4.5851564E0,-6.3945312E1,-3.863605E0,-8.539063E-1,4.53584E1,2.8834473E1,1.2648762E0,2.3671875E0,-1.7089844E0],"categories":[],"categories_nodes":[],"categories_segments":[],"categories_sizes":[],"default_left":[1,1,1,1,1,1,1,1,1,1,1,0,0,1,1,1,1,1,1,1,0,1,1,0,0,0,0,1,1,1,1,1,1,1,1,0,0,0,1,0,0,0,0,0,0,0,0,0,0,0,0,0,0,0,0,0,0,0,0],"id":29,"left_children":[1,3,5,7,9,11,13,15,17,19,21,-1,-1,23,25,27,29,31,33,35,-1,37,39,-1,-1,-1,-1,41,43,45,47,49,51,53,55,-1,-1,-1,57,-1,-1,-1,-1,-1,-1,-1,-1,-1,-1,-1,-1,-1,-1,-1,-1,-1,-1,-1,-1],"loss_changes":[5.6848867E3,1.0417789E4,5.3905317E3,5.4626016E3,7.6118145E3,4.6540833E1,1.6175479E3,8.9715E3,8.35608E3,5.572199E3,2.3985984E3,0E0,0E0,7.0986035E2,2.7307953E1,5.491002E3,1.3170869E4,5.61249E3,9.226695E3,8.512695E1,0E0,2.6637003E2,6.6225195E2,0E0,0E0,0E0,0E0,1.2380682E4,1.9710156E4,2.2401367E3,1.1114068E4,1.642147E3,1.07271455E4,5.7466973E3,5.967232E3,0E0,0E0,0E0,1.6470766E1,0E0,0E0,0E0,0E0,0E0,0E0,0E0,0E0,0E0,0E0,0E0,0E0,0E0,0E0,0E0,0E0,0E0,0E0,0E0,0E0],"parents":[2147483647,0,0,1,1,2,2,3,3,4,4,5,5,6,6,7,7,8,8,9,9,10,10,13,13,14,14,15,15,16,16,17,17,18,18,19,19,21,21,22,22,27,27,28,28,29,29,30,30,31,31,32,32,33,33,34,34,38,38],"right_children":[2,4,6,8,10,12,14,16,18,20,22,-1,-1,24,26,28,30,32,34,36,-1,38,40,-1,-1,-1,-1,42,44,46,48,50,52,54,56,-1,-1,-1,58,-1,-1,-1,-1,-1,-1,-1,-1,-1,-1,-1,-1,-1,-1,-1,-1,-1,-1,-1,-1],"split_conditions":[1.626637E2,1.3038649E2,5.9112676E4,2.679869E1,7.2476875E1,5.937061E4,6.002941E4,8.858299E0,4.2293007E1,5.935161E4,5.9195156E4,4.278516E0,7.921875E-1,5.916967E4,5.9641484E4,5.896497E4,8.900347E0,3.909348E1,5.0544895E1,5.8965008E4,-1.923047E0,5.917548E4,5.9797617E4,-2.4597657E0,-1.4468672E1,-2.5576172E0,-2.8710938E-1,5.8785992E4,5.9024188E4,8.888984E0,6.0379953E4,5.9318E4,-5.898003E0,4.599916E1,4.245263E1,6.275391E0,2.2944435E1,-4.2746096E0,5.919108E4,7.4605474E0,-4.5351565E-1,8.1607634E-1,-1.1620101E0,2.649445E0,3.5148215E-1,5.0742188E0,1.6212696E1,1.1555517E0,6.442874E0,9.93961E0,1.3755469E0,-1.9183594E1,-1.1590816E0,-2.5617188E-1,1.360752E1,8.650342E0,3.794629E-1,7.1015626E-1,-5.126953E-1],"split_indices":[9,8,0,9,10,2,2,8,8,2,0,0,0,0,0,5,8,10,10,0,0,0,0,0,0,0,0,0,0,8,5,0,8,10,8,0,0,0,0,0,0,0,0,0,0,0,0,0,0,0,0,0,0,0,0,0,0,0,0],"split_type":[0,0,0,0,0,0,0,0,0,0,0,0,0,0,0,0,0,0,0,0,0,0,0,0,0,0,0,0,0,0,0,0,0,0,0,0,0,0,0,0,0,0,0,0,0,0,0,0,0,0,0,0,0,0,0,0,0,0,0],"sum_hessian":[5.734E3,5.724E3,1E1,5.709E3,1.5E1,3E0,7E0,4.864E3,8.45E2,5E0,1E1,2E0,1E0,5E0,2E0,3.674E3,1.19E3,3.95E2,4.5E2,4E0,1E0,4E0,6E0,1E0,4E0,1E0,1E0,1.148E3,2.526E3,9E0,1.181E3,8E0,3.87E2,1.1E1,4.39E2,1E0,3E0,2E0,2E0,5E0,1E0,6.3E2,5.18E2,3.98E2,2.128E3,4E0,5E0,1.145E3,3.6E1,4E0,4E0,2E0,3.85E2,4E0,7E0,7E0,4.32E2,1E0,1E0],"tree_param":{"num_deleted":"0","num_feature":"11","num_nodes":"59","size_leaf_vector":"0"}},{"base_weights":[1.3768616E0,-3.842033E0,1.5476325E0,-1.265191E0,-4.0241863E1,1.9496567E1,1.4400877E0,7.2545695E-1,-2.5515024E1,-4.9333595E1,3.4778645E0,-1.2915527E1,2.8719652E1,-1.5192244E1,1.5672758E0,-2.588642E-1,3.8932617E1,-7.620573E1,-9.370739E0,-5.5180122E1,1.6425781E0,1.128125E1,-6.064453E0,7.6007814E0,-3.533203E1,6.622969E1,1.8889204E1,-3.0460379E1,1.4321094E1,2.1517813E1,1.4755898E0,5.597782E-1,-6.357422E1,5.4414062E0,4.828255E1,-2.4710287E1,7.530599E0,-6.1663086E1,-1.6582031E0,2.1298828E0,1.47421875E1,-4.1182293E1,-8.890625E0,7.2993164E1,1.958789E1,3.7281605E1,4.5540366E-1,-1.0731534E1,-4.0824654E1,1.5601562E0,3.3202473E1,-2.2971354E1,2.6385191E1,5.5295574E1,1.4457207E0,-9.473924E-2,5.0677734E1,-2.69375E1,-6.7871094E0,2.6889648E1,-2.0791666E1,-6.566183E1,-1.6835938E1,-9.628906E-1,3.4817708E0,6.149414E0,4.81875E1,-4.3220703E1,8.355114E0,-3.778672E1,1.0126674E1,-3.0065805E1,-5.733138E1,2.3246876E1,-1.6772135E1,4.283672E1,-7.484375E0,1.5319853E1,4.948884E1,-9.865131E0,1.5648674E0],"categories":[],"categories_nodes":[],"categories_segments":[],"categories_sizes":[],"default_left":[1,1,1,1,1,1,1,1,1,1,1,1,1,1,1,1,1,0,1,1,0,0,0,1,1,1,1,1,1,1,1,1,0,0,0,1,1,1,0,1,0,0,0,0,0,1,1,1,1,1,1,0,1,0,1,0,0,0,0,0,0,0,0,0,0,0,0,0,0,0,0,0,0,0,0,0,0,0,0,0,0],"id":30,"left_children":[1,3,5,7,9,11,13,15,17,19,21,23,25,27,29,31,33,-1,35,37,-1,-1,-1,39,41,43,45,47,49,51,53,55,-1,-1,-1,57,59,61,-1,63,-1,-1,-1,-1,-1,65,67,69,71,73,75,-1,77,-1,79,-1,-1,-1,-1,-1,-1,-1,-1,-1,-1,-1,-1,-1,-1,-1,-1,-1,-1,-1,-1,-1,-1,-1,-1,-1,-1],"loss_changes":[5.1171816E3,1.7020068E4,1.0692891E4,8.273173E3,4.9414336E3,1.0235934E4,1.1705237E4,5.9897686E3,9.924644E3,3.0709746E3,2.9180176E2,3.9477822E3,8.336223E3,1.9362E4,9.994016E3,8.1214785E3,9.898379E2,0E0,3.037931E3,3.0205762E3,0E0,0E0,0E0,1.6395041E2,2.5262012E2,1.4752148E2,7.441943E3,5.2871914E3,3.5623606E3,6.019744E3,8.692463E3,5.0892783E3,0E0,0E0,0E0,5.668457E1,3.8488337E3,3.2854102E2,0E0,2.0076897E1,0E0,0E0,0E0,0E0,0E0,3.4384434E3,4.5014565E3,6.590203E3,1.4729668E3,4.3655723E3,2.6725293E3,0E0,5.1217803E3,0E0,7.366869E3,0E0,0E0,0E0,0E0,0E0,0E0,0E0,0E0,0E0,0E0,0E0,0E0,0E0,0E0,0E0,0E0,0E0,0E0,0E0,0E0,0E0,0E0,0E0,0E0,0E0,0E0],"parents":[2147483647,0,0,1,1,2,2,3,3,4,4,5,5,6,6,7,7,8,8,9,9,10,10,11,11,12,12,13,13,14,14,15,15,16,16,18,18,19,19,23,23,24,24,25,25,26,26,27,27,28,28,29,29,30,30,31,31,35,35,36,36,37,37,39,39,45,45,46,46,47,47,48,48,49,49,50,50,52,52,54,54],"right_children":[2,4,6,8,10,12,14,16,18,20,22,24,26,28,30,32,34,-1,36,38,-1,-1,-1,40,42,44,46,48,50,52,54,56,-1,-1,-1,58,60,62,-1,64,-1,-1,-1,-1,-1,66,68,70,72,74,76,-1,78,-1,80,-1,-1,-1,-1,-1,-1,-1,-1,-1,-1,-1,-1,-1,-1,-1,-1,-1,-1,-1,-1,-1,-1,-1,-1,-1,-1],"split_conditions":[-9.212747E1,-7.631271E1,-1.0137874E2,-9.421637E1,5.9507867E4,-1.18668274E2,-8.207485E1,-9.5159195E1,-9.402652E1,-5.6637894E1,5.925895E4,-1.3209454E2,2.353849E1,5.9095E4,-7.290036E1,-9.5269806E1,5.830555E4,-2.286172E1,3.3114723E1,-9.290608E1,4.9277344E-1,3.384375E0,-1.819336E0,-1.4015424E2,-1.1962778E2,5.9758508E4,5.93575E4,-9.5016815E1,4.164884E1,2.5129578E1,-9.0126144E1,-7.6956436E1,-1.9072266E1,1.632422E0,1.4484766E1,-9.229072E1,5.905315E4,5.9235633E4,-4.9746096E-1,-1.451924E2,4.4226565E0,-1.2354689E1,-2.6671877E0,2.189795E1,5.8763676E0,2.4941965E1,5.938916E4,-8.2938675E1,5.9083E4,2.3059757E1,5.9519E4,-6.8914065E0,5.947082E4,1.6588673E1,2.4299786E1,-2.8421775E-2,1.52033205E1,-8.08125E0,-2.0361328E0,8.066895E0,-6.2375E0,-1.969855E1,-5.0507812E0,-2.888672E-1,1.0445312E0,1.8448243E0,1.445625E1,-1.2966211E1,2.5065343E0,-1.1336017E1,3.0380023E0,-9.019742E0,-1.7199415E1,6.974063E0,-5.0316405E0,1.2851016E1,-2.2453127E0,4.595956E0,1.4846652E1,-2.9595394E0,4.6946022E-1],"split_indices":[9,8,8,9,2,8,8,9,9,8,0,8,10,0,8,9,0,0,10,9,0,0,0,8,8,0,1,8,10,10,9,8,0,0,0,9,0,0,0,8,0,0,0,0,0,10,1,9,1,10,0,0,0,0,10,0,0,0,0,0,0,0,0,0,0,0,0,0,0,0,0,0,0,0,0,0,0,0,0,0,0],"split_type":[0,0,0,0,0,0,0,0,0,0,0,0,0,0,0,0,0,0,0,0,0,0,0,0,0,0,0,0,0,0,0,0,0,0,0,0,0,0,0,0,0,0,0,0,0,0,0,0,0,0,0,0,0,0,0,0,0,0,0,0,0,0,0,0,0,0,0,0,0,0,0,0,0,0,0,0,0,0,0,0,0],"sum_hessian":[5.734E3,1.81E2,5.553E3,1.7E2,1.1E1,3.2E1,5.521E3,1.58E2,1.2E1,9E0,2E0,7E0,2.5E1,4.1E1,5.48E3,1.55E2,3E0,2E0,1E1,8E0,1E0,1E0,1E0,4E0,3E0,4E0,2.1E1,2.7E1,1.4E1,2.4E1,5.456E3,1.54E2,1E0,1E0,2E0,5E0,5E0,7E0,1E0,3E0,1E0,2E0,1E0,3E0,1E0,1E1,1.1E1,1E1,1.7E1,9E0,5E0,2E0,2.2E1,2E0,5.454E3,1.53E2,1E0,4E0,1E0,3E0,2E0,6E0,1E0,1E0,2E0,3E0,7E0,1E0,1E1,4E0,6E0,1.2E1,5E0,4E0,5E0,4E0,1E0,1.6E1,6E0,5.6E1,5.398E3],"tree_param":{"num_deleted":"0","num_feature":"11","num_nodes":"81","size_leaf_vector":"0"}},{"base_weights":[9.620668E-1,1.5065246E0,-5.9433055E-1,1.2701137E0,4.139969E1,-1.0138256E1,2.2651985E0,7.771257E-1,8.575243E0,4.8264843E1,1.1615886E1,-2.5150953E1,-6.9947915E0,8.113281E1,2.125338E0,8.134662E-1,-7.15293E1,1.2214756E1,-9.651129E0,4.9632195E1,1.1142578E1,1.9385742E1,-2.6158855E0,4.1578774E0,-3.1954184E1,-5.3063477E1,-5.643913E0,-3.7768974E1,2.368866E0,7.626595E-1,3.4151043E1,1.0714118E1,3.385184E1,-2.4011988E1,1.5414522E1,-6.3671875E0,2.4433594E0,-1.6287388E1,2.7317709E1,-2.7774567E1,-7.098633E1,-1.7451563E1,-8.43125E1,-4.247721E0,-2.9840626E1,-4.3098957E1,-2.8945312E0,2.5546669E1,1.973556E0,8.323735E-1,-5.445E1,4.7882812E1,4.4583335E0,1.1203294E1,-2.6773438E1,-1.8098959E0,3.994629E1,-7.4954042E0,-4.3763523E1,-1.1861719E1,2.4719652E1,-2.299935E1,1.19921875E1,4.169043E1,-9.5182294E-1,-4.3353664E1,-2.079569E1,-8.723307E1,-1.1123047E1,-2.1796875E0,-2.072461E1,-1.204082E2,-3.214453E1,-5.2602367E0,1.7453451E1,8.277344E0,-3.634165E1,-4.657969E1,-1.2847656E1,7.914453E1,1.4585478E1,-2.632526E1,2.3555713E0],"categories":[],"categories_nodes":[],"categories_segments":[],"categories_sizes":[],"default_left":[1,1,1,1,1,1,1,1,1,1,1,1,1,0,1,1,0,1,1,0,0,0,1,1,1,1,1,1,1,1,1,1,1,1,1,0,0,1,1,1,1,1,1,1,1,1,0,1,1,0,0,0,0,0,0,0,0,0,0,0,0,0,0,0,0,0,0,0,0,0,0,0,0,0,0,0,0,0,0,0,0,0,0],"id":31,"left_children":[1,3,5,7,9,11,13,15,17,19,21,23,25,-1,27,29,-1,31,33,-1,-1,-1,35,37,39,41,43,45,47,49,51,53,55,57,59,-1,-1,61,63,65,67,69,71,73,75,77,-1,79,81,-1,-1,-1,-1,-1,-1,-1,-1,-1,-1,-1,-1,-1,-1,-1,-1,-1,-1,-1,-1,-1,-1,-1,-1,-1,-1,-1,-1,-1,-1,-1,-1,-1,-1],"loss_changes":[4.8606914E3,4.002048E4,4.0604883E4,1.5209004E4,4.551121E3,1.6010887E4,1.2457448E4,1.0461061E4,1.7829363E4,4.6215234E2,7.1418384E2,1.1897148E4,1.7436979E4,0E0,1.1203866E4,6.6779062E3,0E0,6.8779883E3,1.6568527E4,0E0,0E0,0E0,7.249359E1,6.1270405E3,5.859082E3,7.4313145E3,9.264988E3,1.1764102E3,1.0376411E4,1.52608E4,2.2329229E3,4.1509316E3,3.115041E3,9.132582E3,4.6079697E3,0E0,0E0,1.6044922E3,2.4775425E3,3.9910312E3,2.920039E3,2.0475464E2,3.6616934E3,5.8926196E3,4.0178984E3,3.334082E1,0E0,1.0008072E4,1.2169855E4,0E0,0E0,0E0,0E0,0E0,0E0,0E0,0E0,0E0,0E0,0E0,0E0,0E0,0E0,0E0,0E0,0E0,0E0,0E0,0E0,0E0,0E0,0E0,0E0,0E0,0E0,0E0,0E0,0E0,0E0,0E0,0E0,0E0,0E0],"parents":[2147483647,0,0,1,1,2,2,3,3,4,4,5,5,6,6,7,7,8,8,9,9,10,10,11,11,12,12,14,14,15,15,17,17,18,18,22,22,23,23,24,24,25,25,26,26,27,27,28,28,29,29,30,30,31,31,32,32,33,33,34,34,37,37,38,38,39,39,40,40,41,41,42,42,43,43,44,44,45,45,47,47,48,48],"right_children":[2,4,6,8,10,12,14,16,18,20,22,24,26,-1,28,30,-1,32,34,-1,-1,-1,36,38,40,42,44,46,48,50,52,54,56,58,60,-1,-1,62,64,66,68,70,72,74,76,78,-1,80,82,-1,-1,-1,-1,-1,-1,-1,-1,-1,-1,-1,-1,-1,-1,-1,-1,-1,-1,-1,-1,-1,-1,-1,-1,-1,-1,-1,-1,-1,-1,-1,-1,-1,-1],"split_conditions":[5.9361547E4,5.9354773E4,5.948108E4,5.928771E4,5.92815E4,5.9380438E4,5.907976E4,5.951083E4,5.9399047E4,6.752554E1,5.9401336E4,5.912334E4,5.9294023E4,2.4339846E1,5.950033E4,5.9411566E4,-2.145879E1,5.9377914E4,5.9512117E4,1.4889659E1,3.3427737E0,5.815723E0,5.9359555E4,5.9452645E4,5.9516016E4,5.9252117E4,4.9223324E1,5.9382656E4,5.9437867E4,5.939646E4,5.946379E4,5.9380152E4,5.9231594E4,5.945597E4,5.986527E4,-1.9101564E0,7.3300785E-1,5.9244812E4,5.907567E4,5.925622E4,5.96495E4,5.939216E4,5.9407992E4,4.5911343E1,5.9405754E4,5.951572E4,-8.683594E-1,5.9487195E4,5.920911E4,2.4971206E-1,-1.6335001E1,1.4364844E1,1.3375001E0,3.3609884E0,-8.032032E0,-5.429688E-1,1.1983887E1,-2.2486215E0,-1.3129058E1,-3.5585158E0,7.415896E0,-6.899805E0,3.5976565E0,1.250713E1,-2.855469E-1,-1.30061E1,-6.2387075E0,-2.6169922E1,-3.3369143E0,-6.539063E-1,-6.217383E0,-3.6122463E1,-9.64336E0,-1.5780711E0,5.2360353E0,2.4832032E0,-1.0902494E1,-1.3973907E1,-3.854297E0,2.374336E1,4.3756437E0,-7.8975782E0,7.066714E-1],"split_indices":[0,0,0,4,3,0,1,1,5,8,1,3,4,0,2,7,0,5,5,0,0,0,0,2,7,4,9,3,5,7,1,4,3,7,2,0,0,1,3,3,1,0,0,9,0,0,0,0,3,0,0,0,0,0,0,0,0,0,0,0,0,0,0,0,0,0,0,0,0,0,0,0,0,0,0,0,0,0,0,0,0,0,0],"split_type":[0,0,0,0,0,0,0,0,0,0,0,0,0,0,0,0,0,0,0,0,0,0,0,0,0,0,0,0,0,0,0,0,0,0,0,0,0,0,0,0,0,0,0,0,0,0,0,0,0,0,0,0,0,0,0,0,0,0,0,0,0,0,0,0,0,0,0,0,0,0,0,0,0,0,0,0,0,0,0,0,0,0,0],"sum_hessian":[5.734E3,4.248E3,1.486E3,4.224E3,2.4E1,3.42E2,1.144E3,3.958E3,2.66E2,1.9E1,5E0,5.8E1,2.84E2,1E0,1.143E3,3.957E3,1E0,2.22E2,4.4E1,1.8E1,1E0,3E0,2E0,1.1E1,4.7E1,7E0,2.77E2,6E0,1.137E3,3.952E3,5E0,2.09E2,1.3E1,2.8E1,1.6E1,1E0,1E0,6E0,5E0,4.4E1,3E0,4E0,3E0,2.63E2,1.4E1,5E0,1E0,1.8E1,1.119E3,3.948E3,4E0,3E0,2E0,2.07E2,2E0,2E0,1.1E1,1.6E1,1.2E1,4E0,1.2E1,5E0,1E0,3E0,2E0,1.2E1,3.2E1,2E0,1E0,1E0,3E0,1E0,2E0,2.52E2,1.1E1,2E0,1.2E1,4E0,1E0,2E0,1.6E1,1.4E1,1.105E3],"tree_param":{"num_deleted":"0","num_feature":"11","num_nodes":"83","size_leaf_vector":"0"}},{"base_weights":[6.602809E-1,-8.205044E0,7.491457E-1,-6.709124E0,-4.598828E1,2.9582093E0,3.3744273E-1,-1.6443104E1,7.295496E-2,7.553262E-1,1.4587835E1,-7.547589E0,8.661988E-1,-8.20452E0,-2.6332813E1,7.4260254E0,-6.122944E0,2.5322452E0,-1.5782802E1,1.3190298E1,1.0582031E2,-5.06183E0,-1.6857887E1,3.9019852E0,2.1262097E-1,-1.1791016E1,8.876302E0,-3.4179688E0,-3.1634277E1,1.1890346E1,-1.58828125E1,-7.723524E0,1.134375E1,1.5906067E-1,2.0050829E1,-1.1602864E1,-4.8294434E1,1.1856762E1,7.058073E1,-1.0543088E1,1.572176E0,-3.350965E1,-1.047623E1,5.88258E-1,1.4450494E1,-1.3654591E1,8.115681E-1,4.606771E0,-1.553125E1,1.2003906E1,1.3105469E0,-3.5103794E1,-3.6738281E0,1.6320667E1,-3.265625E0,7.6953125E0,-9.08318E0,2.4261541E0,-7.361005E0,1.3604194E1,2.9015507E1,-1.3596045E1,2.269043E1,1.75302E1,-4.8625216E0,2.5401367E1,-1.1583984E1,3.9889452E0,-2.2752735E1,-4.0140068E1,-1.9257812E0,1.0463379E1,-1.4402246E1,-4.30316E-1,2.0869207E1,1.6957514E1,-5.2532326E-2,-1.2455798E1,-9.793555E1,-3.5490234E1,8.934925E-1],"categories":[],"categories_nodes":[],"categories_segments":[],"categories_sizes":[],"default_left":[1,1,1,1,0,1,1,1,1,1,1,1,1,1,1,1,1,1,1,1,0,1,1,1,1,1,1,0,1,1,0,1,0,1,1,1,0,1,0,1,1,1,1,1,1,1,1,0,0,0,0,0,0,0,0,0,0,0,0,0,0,0,0,0,0,0,0,0,0,0,0,0,0,0,0,0,0,0,0,0,0],"id":32,"left_children":[1,3,5,7,-1,9,11,13,15,17,19,21,23,25,27,29,31,33,35,37,-1,39,41,43,45,47,49,-1,51,53,-1,55,-1,57,59,61,-1,63,-1,65,67,69,71,73,75,77,79,-1,-1,-1,-1,-1,-1,-1,-1,-1,-1,-1,-1,-1,-1,-1,-1,-1,-1,-1,-1,-1,-1,-1,-1,-1,-1,-1,-1,-1,-1,-1,-1,-1,-1],"loss_changes":[4.5242676E3,2.9131387E3,5.1639277E3,3.6981306E3,0E0,2.2840867E4,1.9968945E4,1.6579277E3,1.5944712E3,2.2109537E4,1.6709314E4,6.88076E3,8.903912E3,9.623047E2,1.1066968E3,1.853782E3,6.187937E2,2.8226125E4,9.360096E3,9.954189E3,0E0,8.70726E3,6.3436914E3,2.7780625E4,3.0692434E4,8.075277E2,5.525638E1,0E0,6.471089E2,9.9333875E2,0E0,4.472556E2,0E0,1.0230024E4,4.286418E3,4.8197783E3,0E0,1.3270197E4,0E0,5.195542E3,6.498618E3,3.4827402E3,4.0145303E3,1.2527516E4,6.909172E3,1.4238551E4,1.0565634E4,0E0,0E0,0E0,0E0,0E0,0E0,0E0,0E0,0E0,0E0,0E0,0E0,0E0,0E0,0E0,0E0,0E0,0E0,0E0,0E0,0E0,0E0,0E0,0E0,0E0,0E0,0E0,0E0,0E0,0E0,0E0,0E0,0E0,0E0],"parents":[2147483647,0,0,1,1,2,2,3,3,5,5,6,6,7,7,8,8,9,9,10,10,11,11,12,12,13,13,14,14,15,15,16,16,17,17,18,18,19,19,21,21,22,22,23,23,24,24,25,25,26,26,28,28,29,29,31,31,33,33,34,34,35,35,37,37,39,39,40,40,41,41,42,42,43,43,44,44,45,45,46,46],"right_children":[2,4,6,8,-1,10,12,14,16,18,20,22,24,26,28,30,32,34,36,38,-1,40,42,44,46,48,50,-1,52,54,-1,56,-1,58,60,62,-1,64,-1,66,68,70,72,74,76,78,80,-1,-1,-1,-1,-1,-1,-1,-1,-1,-1,-1,-1,-1,-1,-1,-1,-1,-1,-1,-1,-1,-1,-1,-1,-1,-1,-1,-1,-1,-1,-1,-1,-1,-1],"split_conditions":[5.799664E4,-3.1547236E0,5.8790547E4,5.7977695E4,-1.3796485E1,5.8620008E4,5.8896492E4,5.8010055E4,5.7982984E4,5.8546855E4,6.0024864E1,5.9077156E4,5.902585E4,5.800453E4,-1.0630361E2,5.8043E4,2.3505125E0,5.8497188E4,5.831302E1,5.931572E4,3.1746096E1,5.8942203E4,5.8954688E4,5.8997875E4,5.904491E4,5.804735E4,5.7901E4,-1.0253906E0,5.7952344E4,5.7985113E4,-4.764844E0,5.7981492E4,3.403125E0,5.8355008E4,5.360617E1,3.316163E1,-1.4488331E1,5.882693E4,2.117422E1,5.8581375E4,6.9439545E0,5.9148766E4,5.8948195E4,5.911278E4,5.92373E4,5.9220887E4,5.9050812E4,1.3820313E0,-4.659375E0,3.601172E0,3.9316407E-1,-1.0531138E1,-1.1021485E0,4.8962E0,-9.796875E-1,2.3085938E0,-2.7249541E0,7.2784626E-1,-2.2083015E0,4.0812583E0,8.704653E0,-4.0788136E0,6.8071294E0,5.25906E0,-1.4587566E0,7.6204104E0,-3.4751954E0,1.1966836E0,-6.825821E0,-1.2042021E1,-5.777344E-1,3.1390138E0,-4.320674E0,-1.2909481E-1,6.2607627E0,5.0872545E0,-1.5759699E-2,-3.7367396E0,-2.9380665E1,-1.0647071E1,2.6804778E-1],"split_indices":[4,9,0,0,0,0,0,1,4,0,9,2,0,1,8,0,8,0,8,2,0,2,1,0,0,2,0,0,0,5,0,0,0,0,10,8,0,5,0,3,9,2,7,7,2,4,2,0,0,0,0,0,0,0,0,0,0,0,0,0,0,0,0,0,0,0,0,0,0,0,0,0,0,0,0,0,0,0,0,0,0],"split_type":[0,0,0,0,0,0,0,0,0,0,0,0,0,0,0,0,0,0,0,0,0,0,0,0,0,0,0,0,0,0,0,0,0,0,0,0,0,0,0,0,0,0,0,0,0,0,0,0,0,0,0,0,0,0,0,0,0,0,0,0,0,0,0,0,0,0,0,0,0,0,0,0,0,0,0,0,0,0,0,0,0],"sum_hessian":[5.734E3,5.6E1,5.678E3,5.5E1,1E0,8.91E2,4.787E3,2.2E1,3.3E1,7.5E2,1.41E2,3E2,4.487E3,1.3E1,9E0,1.5E1,1.8E1,6.78E2,7.2E1,1.4E2,1E0,2.38E2,6.2E1,7.94E2,3.693E3,1.1E1,2E0,2E0,7E0,1.3E1,2E0,1.7E1,1E0,5.98E2,8E1,6.5E1,7E0,1.38E2,2E0,1.3E2,1.08E2,1.6E1,4.6E1,6.05E2,1.89E2,1.52E2,3.541E3,2E0,9E0,1E0,1E0,6E0,1E0,1E1,3E0,1E0,1.6E1,4.6E2,1.38E2,4.8E1,3.2E1,6.2E1,3E0,1.03E2,3.5E1,3E0,1.27E2,9.9E1,9E0,1.3E1,3E0,7E0,3.9E1,5.77E2,2.8E1,1.61E2,2.8E1,1.51E2,1E0,7E0,3.534E3],"tree_param":{"num_deleted":"0","num_feature":"11","num_nodes":"81","size_leaf_vector":"0"}},{"base_weights":[4.5887166E-1,2.334961E1,4.2682123E-1,1.0391741E1,5.7027344E1,-4.386348E0,6.0085034E-1,5.141276E0,2.0947266E1,-5.1284103E0,3.3256836E1,3.0966015E1,5.4573214E-1,3.3203125E-1,7.4628906E0,-2.7354789E0,-3.6212055E1,9.082031E-1,4.373698E1,8.157031E0,4.48125E1,2.651451E1,5.126659E-1,-3.3984375E-1,8.378906E-1,-1.9815694E0,-3.6166016E1,-4.2900066E1,2.610677E0,2.1354167E0,1.1459636E1,1.1111328E1,4.9330467E1,3.7641407E1,-8.6848956E-1,-4.721892E0,6.9324106E-1,2.1435547E0,-9.201764E0,-3.1045572E1,-5.8847656E1,9.330078E0,-5.4140625E0,5.5990234E1,1.1345703E1,6.4140625E0,4.3844727E1,-2.1289062E0,8.261719E-1,-5.699629E0,4.070117E1,1.1559834E1,4.7694057E-1],"categories":[],"categories_nodes":[],"categories_segments":[],"categories_sizes":[],"default_left":[1,1,1,1,0,1,1,1,0,1,1,1,1,1,0,1,1,0,0,1,1,1,1,0,0,1,0,1,1,0,0,0,1,1,1,1,1,0,0,0,0,0,0,0,0,0,0,0,0,0,0,0,0],"id":33,"left_children":[1,3,5,7,-1,9,11,13,-1,15,17,19,21,23,-1,25,27,-1,-1,29,31,33,35,-1,-1,37,-1,39,41,-1,-1,-1,43,45,47,49,51,-1,-1,-1,-1,-1,-1,-1,-1,-1,-1,-1,-1,-1,-1,-1,-1],"loss_changes":[4.1975605E3,2.8985195E3,4.8005884E3,2.8025415E2,0E0,5.7572764E3,9.236842E3,6.451337E1,0E0,1.4554006E4,1.3163516E3,2.792705E3,4.726373E3,1.3043747E0,0E0,4.565797E3,3.7470547E3,0E0,0E0,7.496396E1,3.654375E2,2.1655059E3,5.215277E3,0E0,0E0,5.4106646E3,0E0,4.416504E2,2.1227795E2,0E0,0E0,0E0,6.295996E2,6.8734326E2,8.166781E0,8.403753E3,1.252473E4,0E0,0E0,0E0,0E0,0E0,0E0,0E0,0E0,0E0,0E0,0E0,0E0,0E0,0E0,0E0,0E0],"parents":[2147483647,0,0,1,1,2,2,3,3,5,5,6,6,7,7,9,9,10,10,11,11,12,12,13,13,15,15,16,16,19,19,20,20,21,21,22,22,25,25,27,27,28,28,32,32,33,33,34,34,35,35,36,36],"right_children":[2,4,6,8,-1,10,12,14,-1,16,18,20,22,24,-1,26,28,-1,-1,30,32,34,36,-1,-1,38,-1,40,42,-1,-1,-1,44,46,48,50,52,-1,-1,-1,-1,-1,-1,-1,-1,-1,-1,-1,-1,-1,-1,-1,-1],"split_conditions":[-2.035282E2,-2.0594482E2,-8.850749E1,5.963616E4,1.7108204E1,-5.900518E1,-8.711186E1,5.7985453E4,6.28418E0,-7.6048515E1,5.7881594E4,-1.051219E2,5.7831805E4,5.7945055E4,2.2388673E0,-8.9145645E1,5.9507867E4,2.7246094E-1,1.3121095E1,-1.2980847E2,-8.821505E1,5.800222E4,5.8143992E4,-1.0195313E-1,2.513672E-1,5.9115164E4,-1.0849805E1,-6.401074E1,5.925895E4,6.4062506E-1,3.4378908E0,3.3333986E0,4.9106575E1,5.7967336E4,5.80465E4,5.8504258E4,5.820799E4,6.430664E-1,-2.7605293E0,-9.313672E0,-1.7654297E1,2.7990236E0,-1.6242188E0,1.6797071E1,3.403711E0,1.9242188E0,1.3153419E1,-6.386719E-1,2.4785157E-1,-1.7098887E0,1.2210352E1,3.46795E0,1.4308217E-1],"split_indices":[8,8,9,0,0,8,9,0,0,8,3,8,3,0,0,9,2,0,0,8,9,4,0,0,0,4,0,8,0,0,0,0,10,4,0,2,0,0,0,0,0,0,0,0,0,0,0,0,0,0,0,0,0],"split_type":[0,0,0,0,0,0,0,0,0,0,0,0,0,0,0,0,0,0,0,0,0,0,0,0,0,0,0,0,0,0,0,0,0,0,0,0,0,0,0,0,0,0,0,0,0,0,0,0,0,0,0,0,0],"sum_hessian":[5.734E3,7E0,5.727E3,6E0,1E0,1.99E2,5.528E3,5E0,1E0,1.96E2,3E0,9E0,5.519E3,2E0,3E0,1.83E2,1.3E1,1E0,2E0,4E0,5E0,6E0,5.513E3,1E0,1E0,1.8E2,3E0,1.1E1,2E0,2E0,2E0,1E0,4E0,4E0,2E0,1.83E2,5.33E3,1.15E2,6.5E1,8E0,3E0,1E0,1E0,3E0,1E0,1E0,3E0,1E0,1E0,1.8E2,3E0,1.03E2,5.227E3],"tree_param":{"num_deleted":"0","num_feature":"11","num_nodes":"53","size_leaf_vector":"0"}},{"base_weights":[3.297999E-1,-2.5410287E0,5.735434E-1,1.0561523E0,-1.3120956E1,1.9626188E1,3.2154E-1,-8.487831E-1,2.47875E1,3.2652344E1,-1.5520212E1,8.2536335E0,3.701114E1,-2.7624903E1,5.3728056E-1,-1.3627394E0,5.254297E1,2.8074574E1,5.1171875E-1,5.1302085E0,4.513086E1,-2.482746E1,-8.330358E0,-1.6306362E1,1.2677048E1,4.2198475E1,1.616183E1,-4.0563103E1,-3.3570313E0,8.514757E0,2.500414E-1,9.407748E-1,-1.4948785E1,3.0638672E1,1.3228907E1,-2.7089844E0,2.4882812E0,1.0611328E1,-2.9160156E0,-1.71875E0,-2.8167301E1,-4.193471E1,-4.05736E0,3.154297E-1,-2.8851562E1,-1.2373698E1,1.6977905E1,-5.705078E0,4.4878906E1,-1.3308594E1,3.061172E1,-4.619707E1,-1.8671316E1,-2.2886068E1,8.696094E0,-2.6329428E1,9.660759E0,-1.9632504E1,4.0219423E-1,-3.4124947E0,6.2656903E0,1.2412761E1,-2.1200275E1,3.7372265E1,1.9752604E1,1.7673828E1,-2.2753906E0,-2.0471354E1,9.876562E0,-3.176038E1,-6.1780133E0,-5.525625E1,-5.7539062E0,1.0829901E1,-7.455286E0,5.674479E0,-7.8808594E0,-1.697461E1,-2.1145833E0,1.8508568E1,-1.5236328E1,4.7299698E1,1.5394531E1,1.7292969E1,4.194336E1,-4.7928043E1,-6.654297E0,-3.6425781E0,-2.056901E1,-5.1996094E1,4.6679688E0,1.584668E1,-1.3270833E1,-4.755957E1,1.0753906E1,2.1649535E0,1.3170004E1,-1.518383E1,-4.0828125E1,2.920201E1,3.2067543E-1],"categories":[],"categories_nodes":[],"categories_segments":[],"categories_sizes":[],"default_left":[1,1,1,1,1,1,1,1,1,1,1,1,1,1,1,1,0,1,1,1,0,1,1,1,1,1,1,1,1,1,1,1,1,1,1,0,0,0,0,1,1,1,1,1,0,1,1,0,1,0,1,1,1,1,1,1,1,1,1,0,0,0,0,0,0,0,0,0,0,0,0,0,0,0,0,0,0,0,0,0,0,0,0,0,0,0,0,0,0,0,0,0,0,0,0,0,0,0,0,0,0],"id":34,"left_children":[1,3,5,7,9,11,13,15,17,19,21,23,25,27,29,31,-1,33,35,37,-1,39,41,43,45,47,49,51,53,55,57,59,61,63,65,-1,-1,-1,-1,67,69,71,73,75,-1,77,79,-1,81,-1,83,85,87,89,91,93,95,97,99,-1,-1,-1,-1,-1,-1,-1,-1,-1,-1,-1,-1,-1,-1,-1,-1,-1,-1,-1,-1,-1,-1,-1,-1,-1,-1,-1,-1,-1,-1,-1,-1,-1,-1,-1,-1,-1,-1,-1,-1,-1,-1],"loss_changes":[4.014501E3,1.7101861E4,2.5378334E4,1.5210485E4,1.3026461E4,1.3336605E4,3.148114E4,8.633204E3,1.980541E3,1.8290815E3,7.087217E3,4.878196E3,2.2381094E3,1.2423129E4,1.186755E4,9.715714E3,0E0,4.321289E2,3.22044E1,1.6324973E2,0E0,3.5790176E3,8.876107E3,1.4687666E3,4.1964473E3,2.9524844E3,3.3883093E3,2.3442188E3,3.729808E3,7.442032E3,1.513685E4,6.1874717E3,7.960423E3,5.8124414E2,3.847918E2,0E0,0E0,0E0,0E0,1.7242827E3,3.043166E3,3.0559482E3,2.9641309E3,2.2041705E2,0E0,2.4731348E2,1.8598955E3,0E0,6.9935547E2,0E0,2.9291016E1,1.0500195E3,1.24715576E2,5.0553086E3,1.7810627E3,5.2351587E3,4.574796E3,2.9631846E3,1.164475E4,0E0,0E0,0E0,0E0,0E0,0E0,0E0,0E0,0E0,0E0,0E0,0E0,0E0,0E0,0E0,0E0,0E0,0E0,0E0,0E0,0E0,0E0,0E0,0E0,0E0,0E0,0E0,0E0,0E0,0E0,0E0,0E0,0E0,0E0,0E0,0E0,0E0,0E0,0E0,0E0,0E0,0E0],"parents":[2147483647,0,0,1,1,2,2,3,3,4,4,5,5,6,6,7,7,8,8,9,9,10,10,11,11,12,12,13,13,14,14,15,15,17,17,18,18,19,19,21,21,22,22,23,23,24,24,25,25,26,26,27,27,28,28,29,29,30,30,31,31,32,32,33,33,34,34,39,39,40,40,41,41,42,42,43,43,45,45,46,46,48,48,50,50,51,51,52,52,53,53,54,54,55,55,56,56,57,57,58,58],"right_children":[2,4,6,8,10,12,14,16,18,20,22,24,26,28,30,32,-1,34,36,38,-1,40,42,44,46,48,50,52,54,56,58,60,62,64,66,-1,-1,-1,-1,68,70,72,74,76,-1,78,80,-1,82,-1,84,86,88,90,92,94,96,98,100,-1,-1,-1,-1,-1,-1,-1,-1,-1,-1,-1,-1,-1,-1,-1,-1,-1,-1,-1,-1,-1,-1,-1,-1,-1,-1,-1,-1,-1,-1,-1,-1,-1,-1,-1,-1,-1,-1,-1,-1,-1,-1],"split_conditions":[5.8287492E4,5.8210938E4,5.8355008E4,5.8199508E4,5.814454E4,5.8329008E4,5.8401492E4,5.8388875E4,1.644389E1,5.8232156E4,5.823942E4,5.8315355E4,5.834732E4,5.855169E4,5.8546855E4,5.8212477E4,1.5762891E1,5.82065E4,5.810915E4,5.822089E4,1.3539258E1,-2.8882309E1,-4.386803E1,5.821871E4,-1.0687546E2,4.366265E1,5.8343656E4,3.260441E1,-7.498251E1,-1.3065253E2,5.8580203E4,5.804865E4,5.8119688E4,-4.8925357E0,5.814803E4,-8.126953E-1,7.464844E-1,3.1833985E0,-8.7480474E-1,5.80029E4,5.8250484E4,5.8722875E4,5.8224844E4,5.8317E4,-8.655469E0,-9.4936966E1,3.4245403E1,-1.7115235E0,5.869033E4,-3.9925783E0,5.8463094E4,5.844565E4,5.8376508E4,5.880713E4,5.8811947E1,5.8493992E4,5.8459555E4,5.831302E1,5.8512566E4,-1.0237484E0,1.8797072E0,3.7238283E0,-6.360083E0,1.1211679E1,5.9257812E0,5.302149E0,-6.826172E-1,-6.1414065E0,2.9629688E0,-9.528114E0,-1.853404E0,-1.6576876E1,-1.726172E0,3.2489703E0,-2.2365859E0,1.7023438E0,-2.3642578E0,-5.092383E0,-6.34375E-1,5.5525703E0,-4.5708985E0,1.418991E1,4.6183596E0,5.187891E0,1.2583009E1,-1.4378413E1,-1.9962891E0,-1.0927734E0,-6.1707034E0,-1.5598828E1,1.4003906E0,4.754004E0,-3.98125E0,-1.4267872E1,3.226172E0,6.4948606E-1,3.9510014E0,-4.555149E0,-1.2248438E1,8.760603E0,9.6202634E-2],"split_indices":[0,0,0,0,7,0,0,4,9,0,0,2,5,2,0,7,0,0,1,0,0,8,9,4,8,10,4,9,9,9,0,4,4,9,3,0,0,0,0,3,4,2,4,0,0,9,9,0,2,0,1,1,0,2,8,0,0,8,1,0,0,0,0,0,0,0,0,0,0,0,0,0,0,0,0,0,0,0,0,0,0,0,0,0,0,0,0,0,0,0,0,0,0,0,0,0,0,0,0,0,0],"split_type":[0,0,0,0,0,0,0,0,0,0,0,0,0,0,0,0,0,0,0,0,0,0,0,0,0,0,0,0,0,0,0,0,0,0,0,0,0,0,0,0,0,0,0,0,0,0,0,0,0,0,0,0,0,0,0,0,0,0,0,0,0,0,0,0,0,0,0,0,0,0,0,0,0,0,0,0,0,0,0,0,0,0,0,0,0,0,0,0,0,0,0,0,0,0,0,0,0,0,0,0,0],"sum_hessian":[5.734E3,4.48E2,5.286E3,3.35E2,1.13E2,6.8E1,5.218E3,3.11E2,2.4E1,5E0,1.08E2,4.2E1,2.6E1,3.9E1,5.179E3,3.09E2,2E0,2.1E1,3E0,2E0,3E0,4.6E1,6.2E1,6E0,3.6E1,2E1,6E0,2.5E1,1.4E1,1.79E2,5E3,2.65E2,4.4E1,1.7E1,4E0,1E0,2E0,1E0,1E0,6E0,4E1,6E0,5.6E1,3E0,3E0,5E0,3.1E1,1E0,1.9E1,2E0,4E0,1.9E1,6E0,5E0,9E0,5E0,1.74E2,3.7E1,4.963E3,1.46E2,1.19E2,8E0,3.6E1,9E0,8E0,3E0,1E0,2E0,4E0,3.4E1,6E0,4E0,2E0,1E1,4.6E1,2E0,1E0,3E0,2E0,3E1,1E0,1.7E1,2E0,3E0,1E0,1.8E1,1E0,1E0,5E0,2E0,3E0,7E0,2E0,3E0,2E0,5.6E1,1.18E2,3.2E1,5E0,1.3E1,4.95E3],"tree_param":{"num_deleted":"0","num_feature":"11","num_nodes":"101","size_leaf_vector":"0"}},{"base_weights":[2.2705904E-1,1.9954604E-1,2.2712053E1,5.493174E-1,-1.6388808E0,3.0197657E1,2.6653645E0,5.121149E-1,6.0039062E1,-1.1482542E1,-1.0780655E-2,3.2636719E0,7.34375E-1,5.977508E-1,-2.1122122E1,1.34921875E1,7.656641E1,-3.133015E1,-6.2193885E0,-1.4982766E1,6.6436297E-1,1.8323769E-1,3.1984007E0,2.0830729E1,-2.7283089E1,-5.3317825E1,-1.525988E1,2.17632E0,-1.6447723E1,3.6989582E1,-1.9386963E1,1.0515793E1,-3.433223E-1,6.911336E-1,-3.789354E0,-2.146892E0,6.0500727E0,-5.6904297E0,-3.1503628E1,-1.4175781E1,-7.36596E1,1.4252344E1,-2.54369E1,-1.9941804E0,2.239414E1,-1.2096203E1,-5.058125E1,1.0796875E1,4.46875E1,-2.1803768E0,-3.6457275E1,-5.30625E0,1.6514322E1,2.4532843E0,-3.5785673E0],"categories":[],"categories_nodes":[],"categories_segments":[],"categories_sizes":[],"default_left":[1,1,1,1,1,0,1,1,1,1,1,0,0,1,1,0,0,1,1,1,1,1,1,0,1,1,1,1,1,1,1,1,1,0,0,0,0,0,0,0,0,0,0,0,0,0,0,0,0,0,0,0,0,0,0],"id":35,"left_children":[1,3,5,7,9,-1,11,13,15,17,19,-1,-1,21,23,-1,-1,25,27,29,31,33,35,-1,37,39,41,43,45,47,49,51,53,-1,-1,-1,-1,-1,-1,-1,-1,-1,-1,-1,-1,-1,-1,-1,-1,-1,-1,-1,-1,-1,-1],"loss_changes":[3.5433098E3,3.6848142E3,9.699431E2,1.0623447E4,1.4680119E4,0E0,1.0692158E0,8.927659E3,1.2748398E3,1.3385078E4,7.96514E3,0E0,0E0,5.1673623E3,5.479258E3,0E0,0E0,8.726768E3,8.966703E3,8.499596E3,7.488674E3,8.347674E3,1.0058141E4,0E0,1.3699873E3,7.7142266E3,5.4684253E3,4.935127E3,6.3691973E3,1.2240234E2,9.319606E3,6.7312603E3,6.206459E3,0E0,0E0,0E0,0E0,0E0,0E0,0E0,0E0,0E0,0E0,0E0,0E0,0E0,0E0,0E0,0E0,0E0,0E0,0E0,0E0,0E0,0E0],"parents":[2147483647,0,0,1,1,2,2,3,3,4,4,6,6,7,7,8,8,9,9,10,10,13,13,14,14,17,17,18,18,19,19,20,20,21,21,22,22,24,24,25,25,26,26,27,27,28,28,29,29,30,30,31,31,32,32],"right_children":[2,4,6,8,10,-1,12,14,16,18,20,-1,-1,22,24,-1,-1,26,28,30,32,34,36,-1,38,40,42,44,46,48,50,52,54,-1,-1,-1,-1,-1,-1,-1,-1,-1,-1,-1,-1,-1,-1,-1,-1,-1,-1,-1,-1,-1,-1],"split_conditions":[6.1058508E4,2.7494581E1,6.0973E4,2.7463493E1,5.4696136E1,9.059298E0,6.1091688E4,4.1696854E1,5.924481E4,3.426316E1,1.3161055E1,9.791016E-1,2.203125E-1,5.967653E4,3.8790966E1,4.0476565E0,2.2969923E1,5.943117E4,5.213864E1,5.6188896E1,2.1227858E1,5.9361547E4,4.0700737E1,6.249219E0,5.892788E4,5.8945227E4,5.929729E4,5.148771E1,7.486086E1,5.95735E4,5.8916445E4,6.0801613E1,5.92651E4,2.0734009E-1,-1.1368062E0,-6.4406765E-1,1.8150219E0,-1.707129E0,-9.451089E0,-4.2527347E0,-2.2097881E1,4.2757034E0,-7.63107E0,-5.9825414E-1,6.718242E0,-3.628861E0,-1.5174376E1,3.2390625E0,1.3406251E1,-6.5411305E-1,-1.0937183E1,-1.5918751E0,4.954297E0,7.359853E-1,-1.0735703E0],"split_indices":[0,8,1,8,10,0,0,9,0,9,9,0,0,2,10,0,0,2,10,10,9,0,10,0,0,1,3,10,9,0,1,10,1,0,0,0,0,0,0,0,0,0,0,0,0,0,0,0,0,0,0,0,0,0,0],"split_type":[0,0,0,0,0,0,0,0,0,0,0,0,0,0,0,0,0,0,0,0,0,0,0,0,0,0,0,0,0,0,0,0,0,0,0,0,0,0,0,0,0,0,0,0,0,0,0,0,0,0,0,0,0,0,0],"sum_hessian":[5.734E3,5.728E3,6E0,4.813E3,9.15E2,4E0,2E0,4.811E3,2E0,1.29E2,7.86E2,1E0,1E0,4.793E3,1.8E1,1E0,1E0,2.6E1,1.03E2,3.3E1,7.53E2,4.135E3,6.58E2,2E0,1.6E1,1E1,1.6E1,5.7E1,4.6E1,2E0,3.1E1,6.9E1,6.84E2,3.667E3,4.68E2,2.29E2,4.29E2,3E0,1.3E1,4E0,6E0,4E0,1.2E1,4.8E1,9E0,4.2E1,4E0,1E0,1E0,1.6E1,1.5E1,1.9E1,5E1,3.67E2,3.17E2],"tree_param":{"num_deleted":"0","num_feature":"11","num_nodes":"55","size_leaf_vector":"0"}},{"base_weights":[1.5889616E-1,2.2039192E-2,4.196788E0,2.4599011E-1,-7.569895E0,1.4365234E1,-1.16218284E-1,1.4645334E-1,1.2916853E1,6.331897E0,-1.0589605E1,4.853443E0,2.2447004E1,9.269025E0,-6.449805E0,2.010121E-1,-1.4400782E1,2.60798E0,3.1298958E1,4.714258E1,-1.9020432E-1,-2.0376272E1,-5.7422314E0,1.5704166E1,-8.039964E0,-6.078125E0,3.4961494E1,2.064135E0,3.431413E1,-2.6692709E1,-2.8358243E0,-6.501112E-1,1.0869246E0,-2.8318848E1,-4.728065E0,2.3595053E1,-1.2359835E1,1.48125E1,4.8024555E1,7.133635E0,-1.7560547E1,-5.8087055E1,-1.269109E1,-2.7139864E0,-3.6063965E1,3.64375E1,7.484375E0,1.5449219E1,-1.37151985E1,-3.54209E1,1.1557478E1,7.281576E1,1.8581055E1,8.7978E0,-4.0926434E1,6.992969E1,7.7651367E0,-5.8554688E0,-3.6379395E1,4.703962E0,-1.4044225E1,1.8731843E-1,-1.10302105E1,1.1397656E2,9.5674986E-1,-1.5253125E1,-3.757129E1,9.491072E0,-1.8271763E1,-2.1927083E0,2.8971874E1,-2.2291548E1,5.012835E0,2.5057291E1,8.305803E0,7.314844E1,1.0894531E1,2.5746094E1,4.5390624E-1,-2.2364397E1,8.033203E0,-1.3941406E1,-8.771094E1,-1.8443115E1,2.0101562E1,4.2538366E0,-1.7065248E1,-5.4685936E1,-3.7705078E0,-3.0360678E1,1.8089453E1,-2.2742188E1,-2.4023438E0,-4.584375E1,-1.6665365E1,2.6445312E1,-6.2197266E0,8.02E1,1.7947266E1,-2.6341145E0,2.8463778E1,2.8100912E1,-1.0720486E-1,-4.8121094E1,-2.4765625E0,1.2787947E1,-1.3697266E1,-1.4E1,4.2408853E0,-1.2225586E1,-4.8426563E1,-3.338831E0,1.7982178E1,-3.2630207E1,-8.585089E0],"categories":[],"categories_nodes":[],"categories_segments":[],"categories_sizes":[],"default_left":[1,1,1,1,1,1,1,1,1,1,1,1,1,1,1,1,1,1,1,0,1,1,1,1,1,1,1,1,1,1,1,1,1,1,1,1,1,1,1,1,1,1,1,1,1,0,1,0,1,1,1,1,1,1,1,0,1,1,1,1,1,0,0,0,0,0,0,0,0,0,0,0,0,0,0,0,0,0,0,0,0,0,0,0,0,0,0,0,0,0,0,0,0,0,0,0,0,0,0,0,0,0,0,0,0,0,0,0,0,0,0,0,0,0,0],"id":36,"left_children":[1,3,5,7,9,11,13,15,17,19,21,23,25,27,29,31,33,35,37,-1,39,41,43,45,47,49,51,53,55,57,59,61,63,65,67,69,71,73,75,77,79,81,83,85,87,-1,89,-1,91,93,95,97,99,101,103,-1,105,107,109,111,113,-1,-1,-1,-1,-1,-1,-1,-1,-1,-1,-1,-1,-1,-1,-1,-1,-1,-1,-1,-1,-1,-1,-1,-1,-1,-1,-1,-1,-1,-1,-1,-1,-1,-1,-1,-1,-1,-1,-1,-1,-1,-1,-1,-1,-1,-1,-1,-1,-1,-1,-1,-1,-1,-1],"loss_changes":[3.1691465E3,9.434687E3,8.246705E3,6.7960664E3,6.7417744E3,4.1958945E3,7.9656025E3,4.2482847E3,7.8773223E3,7.7279365E3,6.097587E3,3.9036362E3,1.0921821E4,9.673319E3,5.7769E3,4.0196367E3,2.5586172E3,9.087289E3,3.4248232E3,0E0,3.432928E3,1.1724824E4,8.0742495E3,2.2836433E3,1.9448755E3,5.584151E3,1.1668467E4,1.2807878E4,1.0803674E4,2.2091074E3,5.89718E3,2.3637254E4,3.827526E4,3.9403906E2,2.6769546E3,1.7274009E3,3.0449302E3,3.9181665E2,5.733034E3,2.350511E3,1.1632461E3,7.931545E3,7.3498296E3,8.272351E3,4.60475E3,0E0,5.3654053E3,0E0,1.0686963E3,1.7941895E1,2.0171311E3,9.9160156E2,3.4295962E3,6.534996E3,1.5406279E3,0E0,1.0375724E3,4.7052277E2,1.7358369E3,4.545385E3,2.5608423E3,0E0,0E0,0E0,0E0,0E0,0E0,0E0,0E0,0E0,0E0,0E0,0E0,0E0,0E0,0E0,0E0,0E0,0E0,0E0,0E0,0E0,0E0,0E0,0E0,0E0,0E0,0E0,0E0,0E0,0E0,0E0,0E0,0E0,0E0,0E0,0E0,0E0,0E0,0E0,0E0,0E0,0E0,0E0,0E0,0E0,0E0,0E0,0E0,0E0,0E0,0E0,0E0,0E0,0E0],"parents":[2147483647,0,0,1,1,2,2,3,3,4,4,5,5,6,6,7,7,8,8,9,9,10,10,11,11,12,12,13,13,14,14,15,15,16,16,17,17,18,18,20,20,21,21,22,22,23,23,24,24,25,25,26,26,27,27,28,28,29,29,30,30,31,31,32,32,33,33,34,34,35,35,36,36,37,37,38,38,39,39,40,40,41,41,42,42,43,43,44,44,46,46,48,48,49,49,50,50,51,51,52,52,53,53,54,54,56,56,57,57,58,58,59,59,60,60],"right_children":[2,4,6,8,10,12,14,16,18,20,22,24,26,28,30,32,34,36,38,-1,40,42,44,46,48,50,52,54,56,58,60,62,64,66,68,70,72,74,76,78,80,82,84,86,88,-1,90,-1,92,94,96,98,100,102,104,-1,106,108,110,112,114,-1,-1,-1,-1,-1,-1,-1,-1,-1,-1,-1,-1,-1,-1,-1,-1,-1,-1,-1,-1,-1,-1,-1,-1,-1,-1,-1,-1,-1,-1,-1,-1,-1,-1,-1,-1,-1,-1,-1,-1,-1,-1,-1,-1,-1,-1,-1,-1,-1,-1,-1,-1,-1,-1],"split_conditions":[6.589226E1,4.9748486E1,7.43378E1,4.7703075E1,5.85024E4,6.952637E1,5.8713973E4,4.686004E1,5.9686867E4,5.719364E1,4.2770164E1,6.45088E1,6.417929E1,5.902E4,6.711512E1,5.913614E4,6.0280098E1,4.8390697E1,6.1707664E1,1.4142774E1,6.063737E1,6.173757E1,7.241049E1,4.939747E1,4.147496E1,7.1657745E1,7.0897705E1,7.458569E1,5.9585492E4,7.818446E1,9.963968E1,5.9112992E4,5.9136562E4,5.928675E4,3.761283E1,3.5429474E1,4.9182556E1,5.9633168E4,6.573268E1,5.8145375E4,5.8417E4,5.8777637E1,6.0735312E4,6.104361E1,8.2623055E1,1.0931251E1,5.906976E4,4.6347656E0,5.5756775E1,7.0302086E1,6.849667E1,6.00615E4,5.916935E4,9.8513535E1,5.9301836E4,2.0978907E1,2.1140288E2,7.6923035E1,5.9485695E4,8.547686E1,9.62381E1,5.619553E-2,-3.3090632E0,3.419297E1,2.8702497E-1,-4.5759377E0,-1.1271387E1,2.8473215E0,-5.481529E0,-6.578125E-1,8.691563E0,-6.6874647E0,1.5038506E0,7.5171876E0,2.4917412E0,2.1944532E1,3.2683594E0,7.7238283E0,1.3617188E-1,-6.7093196E0,2.409961E0,-4.182422E0,-2.6313282E1,-5.5329347E0,6.030469E0,1.2761511E0,-5.1195745E0,-1.640578E1,-1.1311524E0,-9.108204E0,5.426836E0,-6.8226566E0,-7.207031E-1,