{"learner":{"attributes":{"best_iteration":"99","best_ntree_limit":"100","scikit_learn":"{\"n_estimators\": 100, \"objective\": \"reg:squarederror\", \"max_depth\": null, \"max_leaves\": null, \"max_bin\": null, \"grow_policy\": null, \"learning_rate\": null, \"verbosity\": null, \"booster\": \"gbtree\", \"tree_method\": null, \"gamma\": null, \"min_child_weight\": null, \"max_delta_step\": null, \"subsample\": null, \"sampling_method\": null, \"colsample_bytree\": null, \"colsample_bylevel\": null, \"colsample_bynode\": null, \"reg_alpha\": null, \"reg_lambda\": null, \"scale_pos_weight\": null, \"base_score\": null, \"missing\": NaN, \"num_parallel_tree\": null, \"random_state\": 42, \"n_jobs\": null, \"monotone_constraints\": null, \"interaction_constraints\": null, \"importance_type\": null, \"gpu_id\": null, \"validate_parameters\": null, \"predictor\": null, \"enable_categorical\": false, \"feature_types\": null, \"max_cat_to_onehot\": null, \"max_cat_threshold\": null, \"eval_metric\": null, \"early_stopping_rounds\": null, \"callbacks\": null, \"_estimator_type\": \"regressor\"}"},"feature_names":["open","high","low","macd","macd_signal","roc_5","sd_7","sd_21"],"feature_types":["float","float","float","float","float","float","float","float"],"gradient_booster":{"model":{"gbtree_model_param":{"num_parallel_tree":"1","num_trees":"100","size_leaf_vector":"0"},"tree_info":[0,0,0,0,0,0,0,0,0,0,0,0,0,0,0,0,0,0,0,0,0,0,0,0,0,0,0,0,0,0,0,0,0,0,0,0,0,0,0,0,0,0,0,0,0,0,0,0,0,0,0,0,0,0,0,0,0,0,0,0,0,0,0,0,0,0,0,0,0,0,0,0,0,0,0,0,0,0,0,0,0,0,0,0,0,0,0,0,0,0,0,0,0,0,0,0,0,0,0,0],"trees":[{"base_weights":[2.6104826E4],"categories":[],"categories_nodes":[],"categories_segments":[],"categories_sizes":[],"default_left":[0],"id":0,"left_children":[-1],"loss_changes":[0E0],"parents":[2147483647],"right_children":[-1],"split_conditions":[7.831448E3],"split_indices":[0],"split_type":[0],"sum_hessian":[1.0057E4],"tree_param":{"num_deleted":"0","num_feature":"8","num_nodes":"1","size_leaf_vector":"0"}},{"base_weights":[1.8274156E4],"categories":[],"categories_nodes":[],"categories_segments":[],"categories_sizes":[],"default_left":[0],"id":1,"left_children":[-1],"loss_changes":[0E0],"parents":[2147483647],"right_children":[-1],"split_conditions":[5.482247E3],"split_indices":[0],"split_type":[0],"sum_hessian":[1.0057E4],"tree_param":{"num_deleted":"0","num_feature":"8","num_nodes":"1","size_leaf_vector":"0"}},{"base_weights":[1.2792455E4,1.2738756E4,1.3135573E4],"categories":[],"categories_nodes":[],"categories_segments":[],"categories_sizes":[],"default_left":[1,0,0],"id":2,"left_children":[1,-1,-1],"loss_changes":[1.8087936E7,0E0,0E0],"parents":[2147483647,0,0],"right_children":[2,-1,-1],"split_conditions":[2.6251809E4,3.821627E3,3.940672E3],"split_indices":[0,0,0],"split_type":[0,0,0],"sum_hessian":[1.0057E4,8.729E3,1.328E3],"tree_param":{"num_deleted":"0","num_feature":"8","num_nodes":"3","size_leaf_vector":"0"}},{"base_weights":[8.95549E3,8.91378E3,9.17937E3],"categories":[],"categories_nodes":[],"categories_segments":[],"categories_sizes":[],"default_left":[1,0,0],"id":3,"left_children":[1,-1,-1],"loss_changes":[1.2189696E7,0E0,0E0],"parents":[2147483647,0,0],"right_children":[2,-1,-1],"split_conditions":[2.6181164E4,2.6741343E3,2.753811E3],"split_indices":[2,0,0],"split_type":[0,0,0],"sum_hessian":[1.0057E4,8.512E3,1.545E3],"tree_param":{"num_deleted":"0","num_feature":"8","num_nodes":"3","size_leaf_vector":"0"}},{"base_weights":[6.2693823E3,6.2136924E3,6.366835E3],"categories":[],"categories_nodes":[],"categories_segments":[],"categories_sizes":[],"default_left":[1,0,0],"id":4,"left_children":[1,-1,-1],"loss_changes":[1.5040512E7,0E0,0E0],"parents":[2147483647,0,0],"right_children":[2,-1,-1],"split_conditions":[2.6104074E4,1.8641078E3,1.9100505E3],"split_indices":[1,0,0],"split_type":[0,0,0],"sum_hessian":[1.0057E4,6.441E3,3.616E3],"tree_param":{"num_deleted":"0","num_feature":"8","num_nodes":"3","size_leaf_vector":"0"}},{"base_weights":[4.388943E3,4.3665845E3,4.5497383E3,4.203655E3,4.3848765E3],"categories":[],"categories_nodes":[],"categories_segments":[],"categories_sizes":[],"default_left":[1,1,0,0,0],"id":5,"left_children":[1,3,-1,-1,-1],"loss_changes":[1.630208E7,7.962624E6,0E0,0E0,0E0],"parents":[2147483647,0,0,1,1],"right_children":[2,4,-1,-1,-1],"split_conditions":[2.637479E4,2.5976074E4,1.3649215E3,1.2610964E3,1.315463E3],"split_indices":[2,1,0,0,0],"split_type":[0,0,0,0,0],"sum_hessian":[1.0057E4,8.854E3,1.203E3,9.17E2,7.937E3],"tree_param":{"num_deleted":"0","num_feature":"8","num_nodes":"5","size_leaf_vector":"0"}},{"base_weights":[3.072652E3,3.0126118E3,3.1066597E3,3.09002E3,3.2108875E3],"categories":[],"categories_nodes":[],"categories_segments":[],"categories_sizes":[],"default_left":[1,0,1,0,0],"id":6,"left_children":[1,-1,3,-1,-1],"loss_changes":[1.118208E7,0E0,1.159168E6,0E0,0E0],"parents":[2147483647,0,0,2,2],"right_children":[2,-1,4,-1,-1],"split_conditions":[2.605185E4,9.0378357E2,2.64298E4,9.2700604E2,9.632663E2],"split_indices":[1,0,2,0,0],"split_type":[0,0,0,0,0],"sum_hessian":[1.0057E4,3.669E3,6.388E3,5.535E3,8.53E2],"tree_param":{"num_deleted":"0","num_feature":"8","num_nodes":"5","size_leaf_vector":"0"}},{"base_weights":[2.1511345E3,1.9819358E3,2.1591848E3,2.1430408E3,2.2119075E3],"categories":[],"categories_nodes":[],"categories_segments":[],"categories_sizes":[],"default_left":[1,0,1,0,0],"id":7,"left_children":[1,-1,3,-1,-1],"loss_changes":[9.424896E6,0E0,3.424256E6,0E0,0E0],"parents":[2147483647,0,0,2,2],"right_children":[2,-1,4,-1,-1],"split_conditions":[2.5915814E4,5.9458075E2,2.6137455E4,6.4291223E2,6.6357227E2],"split_indices":[1,0,2,0,0],"split_type":[0,0,0,0,0],"sum_hessian":[1.0057E4,4.68E2,9.589E3,7.373E3,2.216E3],"tree_param":{"num_deleted":"0","num_feature":"8","num_nodes":"5","size_leaf_vector":"0"}},{"base_weights":[1.5059833E3,1.4445844E3,1.5193635E3,1.2272966E3,1.4530906E3,1.5134908E3,1.6292235E3],"categories":[],"categories_nodes":[],"categories_segments":[],"categories_sizes":[],"default_left":[1,1,1,0,0,0,0],"id":8,"left_children":[1,3,5,-1,-1,-1,-1],"loss_changes":[6.070272E6,1.580288E6,2.850816E6,0E0,0E0,0E0,0E0],"parents":[2147483647,0,0,1,1,2,2],"right_children":[2,4,6,-1,-1,-1,-1],"split_conditions":[2.601564E4,2.5757E4,2.6485266E4,3.68189E2,4.359272E2,4.5404727E2,4.8876706E2],"split_indices":[2,2,1,0,0,0,0],"split_type":[0,0,0,0,0,0,0],"sum_hessian":[1.0057E4,1.819E3,8.238E3,7.4E1,1.745E3,7.834E3,4.04E2],"tree_param":{"num_deleted":"0","num_feature":"8","num_nodes":"7","size_leaf_vector":"0"}},{"base_weights":[1.0543622E3,1.0336475E3,1.07558E3,9.3692365E2,1.0394794E3,1.0710469E3,1.1916174E3],"categories":[],"categories_nodes":[],"categories_segments":[],"categories_sizes":[],"default_left":[1,1,1,0,0,0,0],"id":9,"left_children":[1,3,5,-1,-1,-1,-1],"loss_changes":[3.309568E6,1.911296E6,1.324544E6,0E0,0E0,0E0,0E0],"parents":[2147483647,0,0,1,1,2,2],"right_children":[2,4,6,-1,-1,-1,-1],"split_conditions":[2.606651E4,2.5850324E4,2.65394E4,2.8107712E2,3.118438E2,3.213141E2,3.5748523E2],"split_indices":[2,2,1,0,0,0,0],"split_type":[0,0,0,0,0,0,0],"sum_hessian":[1.0057E4,5.114E3,4.943E3,3E2,4.814E3,4.767E3,1.76E2],"tree_param":{"num_deleted":"0","num_feature":"8","num_nodes":"7","size_leaf_vector":"0"}},{"base_weights":[7.381798E2,6.965434E2,7.444557E2,5.61092E2,7.021544E2,7.401393E2,7.9642706E2],"categories":[],"categories_nodes":[],"categories_segments":[],"categories_sizes":[],"default_left":[1,1,1,0,0,0,0],"id":10,"left_children":[1,3,5,-1,-1,-1,-1],"loss_changes":[2.109952E6,6.19072E5,1.368064E6,0E0,0E0,0E0,0E0],"parents":[2147483647,0,0,1,1,2,2],"right_children":[2,4,6,-1,-1,-1,-1],"split_conditions":[2.600868E4,2.5698496E4,2.6457195E4,1.683276E2,2.1064633E2,2.220418E2,2.3892813E2],"split_indices":[1,2,1,0,0,0,0],"split_type":[0,0,0,0,0,0,0],"sum_hessian":[1.0057E4,1.332E3,8.725E3,5.7E1,1.275E3,8.07E3,6.55E2],"tree_param":{"num_deleted":"0","num_feature":"8","num_nodes":"7","size_leaf_vector":"0"}},{"base_weights":[5.1681E2,4.960303E2,5.2406287E2,4.3436343E2,5.001571E2,5.224711E2,6.2725653E2,3.2535095E2,4.4270633E2,5.192933E2,5.4251196E2],"categories":[],"categories_nodes":[],"categories_segments":[],"categories_sizes":[],"default_left":[1,1,1,1,0,1,0,0,0,0,0],"id":11,"left_children":[1,3,5,7,-1,9,-1,-1,-1,-1,-1],"loss_changes":[1.255936E6,4.49792E5,8.93952E5,1.2398E4,0E0,1.85344E5,0E0,0E0,0E0,0E0,0E0],"parents":[2147483647,0,0,1,1,2,2,3,3,5,5],"right_children":[2,4,6,8,-1,10,-1,-1,-1,-1,-1],"split_conditions":[2.603253E4,2.5836984E4,2.6580523E4,2.5610275E4,1.5004713E2,2.640618E4,1.8817697E2,9.760529E1,1.328119E2,1.55788E2,1.627536E2],"split_indices":[2,1,1,2,0,1,0,0,0,0,0],"split_type":[0,0,0,0,0,0,0,0,0,0,0],"sum_hessian":[1.0057E4,2.62E3,7.437E3,1.71E2,2.449E3,7.33E3,1.07E2,1.5E1,1.56E2,6.35E3,9.8E2],"tree_param":{"num_deleted":"0","num_feature":"8","num_nodes":"11","size_leaf_vector":"0"}},{"base_weights":[3.6185577E2,3.5284967E2,3.713282E2,3.1945016E2,3.5556494E2,3.7011755E2,4.766817E2,2.6376047E2,3.2543585E2,3.670157E2,3.8201175E2],"categories":[],"categories_nodes":[],"categories_segments":[],"categories_sizes":[],"default_left":[1,1,1,1,0,1,0,0,0,0,0],"id":12,"left_children":[1,3,5,7,-1,9,-1,-1,-1,-1,-1],"loss_changes":[7.2704E5,3.5584E5,4.464E5,4.7164E4,0E0,3.808E4,0E0,0E0,0E0,0E0,0E0],"parents":[2147483647,0,0,1,1,2,2,3,3,5,5],"right_children":[2,4,6,8,-1,10,-1,-1,-1,-1,-1],"split_conditions":[2.607366E4,2.587887E4,2.6615734E4,2.566786E4,1.0666949E2,2.640509E4,1.4300452E2,7.912814E1,9.763076E1,1.1010471E2,1.1460353E2],"split_indices":[1,2,1,2,0,2,0,0,0,0,0],"split_type":[0,0,0,0,0,0,0,0,0,0,0],"sum_hessian":[1.0057E4,5.175E3,4.882E3,3.98E2,4.777E3,4.831E3,5.1E1,4.3E1,3.55E2,3.857E3,9.74E2],"tree_param":{"num_deleted":"0","num_feature":"8","num_nodes":"11","size_leaf_vector":"0"}},{"base_weights":[2.5336328E2,2.4070468E2,2.568746E2,2.0393839E2,2.4269049E2,2.5596556E2,3.1196725E2,7.933154E1,2.0647708E2,2.3304549E2,2.45892E2,2.5300789E2,2.6183414E2,2.9351794E2,3.7584082E2,2.5506042E2,2.4339209E2,2.5224591E2,2.6880365E2],"categories":[],"categories_nodes":[],"categories_segments":[],"categories_sizes":[],"default_left":[1,1,1,1,1,1,1,0,0,0,0,1,0,0,0,1,0,0,0],"id":13,"left_children":[1,3,5,7,9,11,13,-1,-1,-1,-1,15,-1,-1,-1,17,-1,-1,-1],"loss_changes":[3.8528E5,1.11136E5,3.13696E5,2.1264E4,6.984E3,6.8064E4,3.463E4,0E0,0E0,0E0,0E0,4.0064E4,0E0,0E0,0E0,9.632E4,0E0,0E0,0E0],"parents":[2147483647,0,0,1,1,2,2,3,3,4,4,5,5,6,6,11,11,15,15],"right_children":[2,4,6,8,10,12,14,-1,-1,-1,-1,16,-1,-1,-1,18,-1,-1,-1],"split_conditions":[2.6030766E4,2.5805414E4,2.6549455E4,2.5518025E4,2.5931434E4,2.612883E4,2.667393E4,2.3799463E1,6.1943127E1,6.991365E1,7.37676E1,2.6104074E4,7.855025E1,8.805539E1,1.1275225E2,2.608598E4,7.301763E1,7.5673775E1,8.06411E1],"split_indices":[1,2,2,2,2,1,1,0,0,0,0,1,0,0,0,1,0,0,0],"split_type":[0,0,0,0,0,0,0,0,0,0,0,0,0,0,0,0,0,0,0],"sum_hessian":[1.0057E4,2.199E3,7.858E3,1.18E2,2.081E3,7.736E3,1.22E2,3E0,1.15E2,5.37E2,1.544E3,5.173E3,2.563E3,9.9E1,2.3E1,4.242E3,9.31E2,3.537E3,7.05E2],"tree_param":{"num_deleted":"0","num_feature":"8","num_nodes":"19","size_leaf_vector":"0"}},{"base_weights":[1.7742755E2,1.7657613E2,2.0959602E2,1.602234E2,1.7777525E2,2.030065E2,2.7304138E2,1.19521416E2,1.617233E2,1.7433102E2,1.8044919E2,1.19572266E2,1.8054512E2,3.4137695E1,1.2470195E2],"categories":[],"categories_nodes":[],"categories_segments":[],"categories_sizes":[],"default_left":[1,1,1,1,1,0,0,0,0,0,1,1,0,0,0],"id":14,"left_children":[1,3,5,7,9,-1,-1,-1,-1,-1,11,13,-1,-1,-1],"loss_changes":[2.38432E5,1.63776E5,5.0762E4,2.2184E4,5.2608E4,0E0,0E0,0E0,0E0,0E0,8.256E3,5.6375E2,0E0,0E0,0E0],"parents":[2147483647,0,0,1,1,2,2,3,3,4,4,10,10,11,11],"right_children":[2,4,6,8,10,-1,-1,-1,-1,-1,12,14,-1,-1,-1],"split_conditions":[2.6505355E4,2.594884E4,2.6696281E4,2.5647E4,2.6060809E4,6.090195E1,8.1912415E1,3.5856426E1,4.851699E1,5.229931E1,-5.7901543E1,2.6228656E4,5.416354E1,1.0241309E1,3.7410587E1],"split_indices":[2,1,1,2,2,0,0,0,0,0,3,2,0,0,0],"split_type":[0,0,0,0,0,0,0,0,0,0,0,0,0,0,0],"sum_hessian":[1.0057E4,9.804E3,2.53E2,6.79E2,9.125E3,2.33E2,2E1,2.7E1,6.52E2,4.017E3,5.108E3,1E1,5.098E3,1E0,9E0],"tree_param":{"num_deleted":"0","num_feature":"8","num_nodes":"15","size_leaf_vector":"0"}},{"base_weights":[1.24237076E2,1.23614006E2,1.4733282E2,1.17204765E2,1.2522798E2,1.4102885E2,1.8623183E2,9.6265755E1,1.18286736E2,1.23666695E2,1.2853416E2,3.459082E1,9.7770096E1,1.25342995E2,1.1502816E2,1.3398074E2,1.233853E2,1.2361904E2,1.3528314E2,1.093273E2,1.2005319E2,1.2930113E2,1.497436E2,9.554025E1,1.300329E2,1.25982445E2,1.2168884E2,9.927263E1,7.038846E1],"categories":[],"categories_nodes":[],"categories_segments":[],"categories_sizes":[],"default_left":[1,1,1,1,1,0,0,1,0,1,1,0,0,1,1,1,1,1,0,0,0,0,0,1,0,0,0,0,0],"id":15,"left_children":[1,3,5,7,9,-1,-1,11,-1,13,15,-1,-1,17,19,21,23,25,-1,-1,-1,-1,-1,27,-1,-1,-1,-1,-1],"loss_changes":[1.26528E5,8.6688E4,3.7247E4,3.3628E4,2.444E4,0E0,0E0,6.174375E3,0E0,6.2824E4,5.3048E4,0E0,0E0,5.9632E4,1.2055E4,6.871E4,2.25988E5,2.048E3,0E0,0E0,0E0,0E0,0E0,1.666925E4,0E0,0E0,0E0,0E0,0E0],"parents":[2147483647,0,0,1,1,2,2,3,3,4,4,7,7,9,9,10,10,13,13,14,14,15,15,16,16,17,17,23,23],"right_children":[2,4,6,8,10,-1,-1,12,-1,14,16,-1,-1,18,20,22,24,26,-1,-1,-1,-1,-1,28,-1,-1,-1,-1,-1],"split_conditions":[2.6516004E4,2.602645E4,2.6628066E4,2.581727E4,2.612092E4,4.230866E1,5.586955E1,2.5518025E4,3.5486023E1,2.6104074E4,2.6181164E4,1.0377247E1,2.933103E1,2.6081516E4,2.6107746E4,2.616491E4,2.6334324E4,2.605185E4,4.0584946E1,3.279819E1,3.601596E1,3.879034E1,4.4923084E1,2.6251809E4,3.9009872E1,3.7794735E1,3.6506653E1,2.978179E1,2.1116539E1],"split_indices":[1,1,2,1,2,0,0,2,0,1,2,0,0,2,2,1,1,1,0,0,0,0,0,0,0,0,0,0,0],"split_type":[0,0,0,0,0,0,0,0,0,0,0,0,0,0,0,0,0,0,0,0,0,0,0,0,0,0,0,0,0],"sum_hessian":[1.0057E4,9.799E3,2.58E2,1.986E3,7.813E3,2.26E2,3.2E1,1.02E2,1.884E3,5.333E3,2.48E3,3E0,9.9E1,4.455E3,8.78E2,1.193E3,1.287E3,3.808E3,6.47E2,4.22E2,4.56E2,9.27E2,2.66E2,2.51E2,1.036E3,1.683E3,2.125E3,2.16E2,3.5E1],"tree_param":{"num_deleted":"0","num_feature":"8","num_nodes":"29","size_leaf_vector":"0"}},{"base_weights":[8.701879E1,8.6752426E1,1.1689669E2,8.2606346E1,8.827868E1,1.07316154E2,1.4946967E2,7.436098E1,8.37712E1,8.7599205E1,9.257419E1,5.2878227E1,7.566859E1,8.777276E1,8.2430756E1,8.841557E1,7.765108E1,9.893224E1,9.073407E1,2.8400782E1,5.6536594E1,1.8043945E1,7.5792274E1,8.2600494E1,1.0105033E2,6.85392E1,8.417328E1,8.738767E1,1.0284667E2,5.980976E1,8.441281E1,8.064099E1,9.205398E1,9.120991E1,7.860051E1,1.5986328E1,6.871933E1,8.683219E1,8.203348E1,9.1240616E1,8.6529144E1,9.793923E1,1.1032941E2,7.5047035E1,8.903383E1,9.212083E1,2.3564453E1],"categories":[],"categories_nodes":[],"categories_segments":[],"categories_sizes":[],"default_left":[1,1,1,1,1,0,0,1,1,1,1,1,1,1,1,1,1,0,1,0,0,0,0,1,0,1,1,1,1,0,1,0,1,0,0,0,0,0,0,0,0,0,0,0,0,0,0],"id":16,"left_children":[1,3,5,7,9,-1,-1,11,13,15,17,19,21,23,25,27,29,-1,31,-1,-1,-1,-1,33,-1,35,37,39,41,-1,43,-1,45,-1,-1,-1,-1,-1,-1,-1,-1,-1,-1,-1,-1,-1,-1],"loss_changes":[6.9904E4,5.5824E4,1.079725E4,1.9694E4,1.3124E4,0E0,0E0,5.634E3,5.408E3,4.4296E4,2.442E3,4.5391406E2,9.20375E2,3.121E4,3.7367E4,7.7272E4,5.35815E4,0E0,2.8215E3,0E0,0E0,0E0,0E0,7.29475E3,0E0,8.325625E2,1.86E3,1.0084E4,3.18525E3,0E0,8.466E3,0E0,9.105E2,0E0,0E0,0E0,0E0,0E0,0E0,0E0,0E0,0E0,0E0,0E0,0E0,0E0,0E0],"parents":[2147483647,0,0,1,1,2,2,3,3,4,4,7,7,8,8,9,9,10,10,11,11,12,12,13,13,14,14,15,15,16,16,18,18,23,23,25,25,26,26,27,27,28,28,30,30,32,32],"right_children":[2,4,6,8,10,-1,-1,12,14,16,18,20,22,24,26,28,30,-1,32,-1,-1,-1,-1,34,-1,36,38,40,42,-1,44,-1,46,-1,-1,-1,-1,-1,-1,-1,-1,-1,-1,-1,-1,-1,-1],"split_conditions":[2.6579965E4,2.6038074E4,2.6721996E4,2.5875586E4,2.6409305E4,3.2194847E1,4.48409E1,2.5668625E4,2.5976074E4,2.6181164E4,2.64298E4,2.5617855E4,2.555234E4,2.594405E4,2.5985414E4,2.6158045E4,2.6206545E4,2.9679674E1,2.6440615E4,8.520235E0,1.696098E1,5.4131837E0,2.2737682E1,2.5915814E4,3.03151E1,-3.6161346E-3,2.601564E4,2.605185E4,2.6176605E4,1.7942928E1,2.631855E4,2.4192299E1,2.6613975E4,2.7362974E1,2.3580154E1,4.7958984E0,2.0615799E1,2.6049658E1,2.4610044E1,2.7372187E1,2.5958744E1,2.9381771E1,3.3098824E1,2.251411E1,2.671015E1,2.763625E1,7.0693364E0],"split_indices":[2,1,1,1,1,0,0,1,1,2,2,1,2,2,2,1,1,0,2,0,0,0,0,1,0,5,2,1,1,0,2,0,0,0,0,0,0,0,0,0,0,0,0,0,0,0,0],"split_type":[0,0,0,0,0,0,0,0,0,0,0,0,0,0,0,0,0,0,0,0,0,0,0,0,0,0,0,0,0,0,0,0,0,0,0,0,0,0,0,0,0,0,0,0,0,0,0],"sum_hessian":[1.0057E4,9.972E3,8.5E1,2.698E3,7.274E3,6.9E1,1.6E1,3.42E2,2.356E3,6.299E3,9.75E2,2.2E1,3.2E2,5.75E2,1.781E3,5.814E3,4.85E2,2.07E2,7.68E2,4E0,1.8E1,1E0,3.19E2,4.19E2,1.56E2,2.03E2,1.578E3,5.434E3,3.8E2,1.36E2,3.49E2,9.6E1,6.72E2,1.26E2,2.93E2,1E0,2.02E2,6.86E2,8.92E2,9.71E2,4.463E3,2.38E2,1.42E2,1.21E2,2.28E2,6.71E2,1E0],"tree_param":{"num_deleted":"0","num_feature":"8","num_nodes":"47","size_leaf_vector":"0"}},{"base_weights":[6.096868E1,6.060632E1,7.331556E1,5.3655293E1,6.107677E1,7.132417E1,1.2034883E2,5.5529633E1,4.7825783E1,5.942778E1,6.2283348E1,2.0029297E1,7.1439125E1,5.304781E1,6.988006E1,4.023916E1,5.47283E1,6.0693867E1,5.4803516E1,6.44001E1,6.1037296E1,4.2041653E1,5.4310303E1,4.054801E1,7.919922E0,2.880547E1,5.5700844E1,5.9507275E1,6.6725334E1,5.1405647E1,5.7324287E1,6.23591E1,7.159923E1,5.153755E1,6.2974976E1,2.1585155E1,4.347596E1,1.5336914E1,5.4376328E1,6.730878E1,5.845384E1,2.6755533E1,5.1670017E1,5.7482742E1,1.31276045E1,3.9898884E1,5.2507187E1,6.520465E1,6.0283073E1],"categories":[],"categories_nodes":[],"categories_segments":[],"categories_sizes":[],"default_left":[1,1,1,1,1,1,0,1,1,1,1,0,0,1,0,1,1,1,1,1,1,1,1,0,0,0,0,1,0,1,1,0,0,1,1,0,0,0,0,0,0,0,0,0,0,0,0,0,0],"id":17,"left_children":[1,3,5,7,9,11,-1,13,15,17,19,-1,-1,21,-1,23,25,27,29,31,33,35,37,-1,-1,-1,-1,39,-1,41,43,-1,-1,45,47,-1,-1,-1,-1,-1,-1,-1,-1,-1,-1,-1,-1,-1,-1],"loss_changes":[4.0556E4,2.8696E4,1.782875E4,4.206125E3,1.4504E4,1.7875E2,0E0,1.2996625E4,6.1764688E3,1.9437E4,9.948E3,0E0,0E0,3.330375E3,0E0,4.7741406E2,4.37625E2,1.7808E4,4.29925E3,2.39225E4,5.809E4,4.112422E2,8.9875E1,0E0,0E0,0E0,0E0,1.7038E4,0E0,1.02875E3,2.585875E3,0E0,0E0,4.33775E3,1.2652E4,0E0,0E0,0E0,0E0,0E0,0E0,0E0,0E0,0E0,0E0,0E0,0E0,0E0,0E0],"parents":[2147483647,0,0,1,1,2,2,3,3,4,4,5,5,7,7,8,8,9,9,10,10,13,13,15,15,16,16,17,17,18,18,19,19,20,20,21,21,22,22,27,27,29,29,30,30,33,33,34,34],"right_children":[2,4,6,8,10,12,-1,14,16,18,20,-1,-1,22,-1,24,26,28,30,32,34,36,38,-1,-1,-1,-1,40,-1,42,44,-1,-1,46,48,-1,-1,-1,-1,-1,-1,-1,-1,-1,-1,-1,-1,-1,-1],"split_conditions":[2.6511586E4,2.5926297E4,2.6749045E4,2.5915814E4,2.6058215E4,-5.113205E-3,3.6104652E1,2.589886E4,2.5931969E4,2.605185E4,2.6104074E4,6.0087895E0,2.1431738E1,2.5697285E4,2.0964018E1,6.736426E1,-2.8056381E-3,2.6045574E4,2.6056875E4,2.6093078E4,2.6118064E4,2.5617855E4,2.5561121E4,1.2164404E1,2.3759766E0,8.641642E0,1.6710255E1,2.5976074E4,2.0017601E1,-1.4324958E-3,2.6083773E4,1.8707731E1,2.1479769E1,2.6092484E4,2.6181164E4,6.475547E0,1.30427885E1,4.601074E0,1.6312899E1,2.0192635E1,1.7536152E1,8.02666E0,1.5501006E1,1.7244823E1,3.9382815E0,1.1969666E1,1.5752156E1,1.9561396E1,1.8084923E1],"split_indices":[1,2,1,1,2,5,0,1,1,1,1,0,0,1,0,7,5,1,1,1,1,1,2,0,0,0,0,1,0,5,0,0,0,2,2,0,0,0,0,0,0,0,0,0,0,0,0,0,0],"split_type":[0,0,0,0,0,0,0,0,0,0,0,0,0,0,0,0,0,0,0,0,0,0,0,0,0,0,0,0,0,0,0,0,0,0,0,0,0,0,0,0,0,0,0,0,0,0,0,0,0],"sum_hessian":[1.0057E4,9.776E3,2.81E2,6.27E2,9.149E3,2.72E2,9E0,4.68E2,1.59E2,3.887E3,5.262E3,1E0,2.71E2,4.03E2,6.5E1,7.9E1,8E1,3.042E3,8.45E2,1.931E3,3.331E3,4.5E1,3.58E2,7.8E1,1E0,4E0,7.6E1,2.551E3,4.91E2,3.69E2,4.76E2,1.512E3,4.19E2,5.69E2,2.762E3,4E0,4.1E1,1E0,3.57E2,2.96E2,2.255E3,5E0,3.64E2,4.74E2,2E0,4.7E1,5.22E2,1.498E3,1.264E3],"tree_param":{"num_deleted":"0","num_feature":"8","num_nodes":"49","size_leaf_vector":"0"}},{"base_weights":[4.2715252E1,4.2605186E1,6.921538E1,3.6654118E1,4.2975018E1,6.1045532E1,9.0573135E1,1.5007568E1,3.6887085E1,4.1715454E1,4.444428E1,-6.254557E0,2.313737E1,3.3421844E1,3.86094E1,3.604594E1,4.192425E1,4.767326E1,4.3499603E1,-1.8408203E0,-7.5410156E0,6.1064453E0,2.5322266E1,3.540686E1,2.5258493E1,3.8273285E1,6.865039E1,4.25707E1,4.0683792E1,4.6129482E1,5.3015163E1,3.6521072E1,4.493629E1,3.2402424E1,4.3897488E1,1.64646E1,2.9381487E1,1.6465626E1,3.846E1,4.168301E1,4.7241722E1,3.765239E1,4.269155E1,1.3177734E1,4.61555E1,3.4805584E1,3.923037E1,4.4493843E1,5.071689E1],"categories":[],"categories_nodes":[],"categories_segments":[],"categories_sizes":[],"default_left":[1,1,1,1,1,0,0,1,1,1,1,1,1,1,1,0,1,1,1,0,0,0,0,1,1,1,0,1,1,1,0,1,1,0,0,0,0,0,0,0,0,0,0,0,0,0,0,0,0],"id":18,"left_children":[1,3,5,7,9,-1,-1,11,13,15,17,19,21,23,25,-1,27,29,31,-1,-1,-1,-1,33,35,37,-1,39,41,43,-1,45,47,-1,-1,-1,-1,-1,-1,-1,-1,-1,-1,-1,-1,-1,-1,-1,-1],"loss_changes":[2.6386E4,2.0476E4,1.4504844E3,2.436875E3,1.5592E4,0E0,0E0,1.5275688E3,2.2069375E3,4.517E3,1.1152E4,3.1526108E0,6.863574E1,2.3789688E3,1.26E3,0E0,2.201E3,5.562E3,3.21065E4,0E0,0E0,0E0,0E0,2.6591406E3,1.0753047E3,9.261875E2,0E0,1.1312E4,8.75775E3,4.4125E1,0E0,1.33025E3,4.8715E3,0E0,0E0,0E0,0E0,0E0,0E0,0E0,0E0,0E0,0E0,0E0,0E0,0E0,0E0,0E0,0E0],"parents":[2147483647,0,0,1,1,2,2,3,3,4,4,7,7,8,8,9,9,10,10,11,11,12,12,13,13,14,14,16,16,17,17,18,18,23,23,24,24,25,25,27,27,28,28,29,29,31,31,32,32],"right_children":[2,4,6,8,10,-1,-1,12,14,16,18,20,22,24,26,-1,28,30,32,-1,-1,-1,-1,34,36,38,-1,40,42,44,-1,46,48,-1,-1,-1,-1,-1,-1,-1,-1,-1,-1,-1,-1,-1,-1,-1,-1],"split_conditions":[2.664101E4,-1.1460786E-3,2.6755045E4,-6.0712574E-3,2.6078676E4,1.831366E1,2.7171942E1,-3.2511204E1,2.599331E4,2.5847125E4,2.6104074E4,2.6334625E4,2.5395254E4,2.5976375E4,6.622549E1,1.0813783E1,2.605185E4,2.6093637E4,2.6112336E4,-5.522461E-1,-2.2623048E0,1.8319336E0,7.59668E0,2.5952375E4,2.5972855E4,-4.3625996E1,2.0595118E1,2.6041129E4,2.6061625E4,2.6036941E4,1.590455E1,2.6111984E4,1.2043237E-3,9.720728E0,1.3169247E1,4.93938E0,8.814446E0,4.9396877E0,1.1538E1,1.2504904E1,1.4172517E1,1.1295717E1,1.2807466E1,3.9533205E0,1.384665E1,1.0441675E1,1.1769112E1,1.3348153E1,1.5215067E1],"split_indices":[1,5,1,5,1,0,0,4,2,1,1,0,2,0,6,0,1,2,2,0,0,0,0,1,2,3,0,2,1,2,0,1,5,0,0,0,0,0,0,0,0,0,0,0,0,0,0,0,0],"split_type":[0,0,0,0,0,0,0,0,0,0,0,0,0,0,0,0,0,0,0,0,0,0,0,0,0,0,0,0,0,0,0,0,0,0,0,0,0,0,0,0,0,0,0,0,0,0,0,0,0],"sum_hessian":[1.0057E4,1.0018E4,3.9E1,5.92E2,9.426E3,3.1E1,8E0,7E0,5.85E2,5.091E3,4.335E3,2E0,5E0,2.01E2,3.84E2,1.87E2,4.904E3,9.7E2,3.365E3,1E0,1E0,1E0,4E0,1.59E2,4.2E1,3.82E2,2E0,3.202E3,1.702E3,7.6E2,2.1E2,5.79E2,2.786E3,1.21E2,3.8E1,1.5E1,2.7E1,4E0,3.78E2,2.699E3,5.03E2,6.86E2,1.016E3,1E0,7.59E2,3.63E2,2.16E2,2.596E3,1.9E2],"tree_param":{"num_deleted":"0","num_feature":"8","num_nodes":"49","size_leaf_vector":"0"}},{"base_weights":[2.9927845E1,2.9478294E1,3.3904026E1,2.982811E1,2.3825176E1,3.3293617E1,5.1614624E1,2.9440878E1,4.191058E1,9.964619E0,2.8237206E1,4.0355156E1,3.1863163E1,4.2911488E1,6.432866E1,2.674032E1,2.9981657E1,3.718044E1,4.5414116E1,5.604507E0,1.4373413E1,2.1966955E1,3.131376E1,3.387588E1,4.491682E1,2.2405788E1,3.2498135E1,7.1833496E1,3.3236816E1,1.906902E1,2.7133879E1,2.9340466E1,3.082863E1,4.5652126E1,1.8851562E1,3.0940988E0,7.2216797E0,7.975307E0,1.5847924E1,3.1372114E1,4.6277504E0,4.350293E1,2.5988644E1,3.4168835E1,6.6845703E0,3.1019878E1,3.542529E1,-1.1901041E0,1.9673489E1,2.4898056E1,2.7911943E1,2.696845E1,2.9575092E1,3.0766481E1,4.9753174E1,7.89388E-1,3.5608017E0,4.977915E0,8.00551E0,8.41241E0,1.1464844E0,9.136067E0,1.6884174E1,2.462059E1,4.938205E1,-2.5196665E1,1.4981524E1,1.9521484E1,4.626788E1,1.9879976E1,3.0584297E1,3.4005405E1,2.1235289E1,3.850532E1,3.2984283E1],"categories":[],"categories_nodes":[],"categories_segments":[],"categories_sizes":[],"default_left":[1,1,1,1,1,1,1,1,1,1,1,1,1,0,1,1,1,0,1,1,1,1,1,1,0,0,1,0,0,1,1,1,1,0,0,1,1,1,1,1,1,1,1,0,0,1,1,0,0,0,0,0,0,0,0,0,0,0,0,0,0,0,0,0,0,0,0,0,0,0,0,0,0,0,0],"id":19,"left_children":[1,3,5,7,9,11,13,15,17,19,21,23,25,-1,27,29,31,-1,33,35,37,39,41,43,-1,-1,45,-1,-1,47,49,51,53,-1,-1,55,57,59,61,63,65,67,69,-1,-1,71,73,-1,-1,-1,-1,-1,-1,-1,-1,-1,-1,-1,-1,-1,-1,-1,-1,-1,-1,-1,-1,-1,-1,-1,-1,-1,-1,-1,-1],"loss_changes":[1.6979E4,1.7174E4,9.2545E3,3.8596E4,3.2252094E4,8.65375E3,7.804219E2,1.125E4,2.6534062E3,2.418413E3,7.0863125E3,3.2665312E3,4.214125E3,0E0,1.7921484E2,3.667125E3,2.8245E3,0E0,6.24375E1,2.4965942E2,4.7738867E2,2.203343E4,1.6264969E4,3.3716406E2,0E0,0E0,2.228625E3,0E0,0E0,8.928828E2,1.594375E3,1.389E3,1.92575E3,0E0,0E0,2.7306366E1,3.049878E1,3.214392E1,2.0045996E2,9.4845E3,1.5508452E4,4.4013906E3,4.6978516E3,0E0,0E0,1.4439E4,6.170625E2,0E0,0E0,0E0,0E0,0E0,0E0,0E0,0E0,0E0,0E0,0E0,0E0,0E0,0E0,0E0,0E0,0E0,0E0,0E0,0E0,0E0,0E0,0E0,0E0,0E0,0E0,0E0,0E0],"parents":[2147483647,0,0,1,1,2,2,3,3,4,4,5,5,6,6,7,7,8,8,9,9,10,10,11,11,12,12,14,14,15,15,16,16,18,18,19,19,20,20,21,21,22,22,23,23,26,26,29,29,30,30,31,31,32,32,35,35,36,36,37,37,38,38,39,39,40,40,41,41,42,42,45,45,46,46],"right_children":[2,4,6,8,10,12,14,16,18,20,22,24,26,-1,28,30,32,-1,34,36,38,40,42,44,-1,-1,46,-1,-1,48,50,52,54,-1,-1,56,58,60,62,64,66,68,70,-1,-1,72,74,-1,-1,-1,-1,-1,-1,-1,-1,-1,-1,-1,-1,-1,-1,-1,-1,-1,-1,-1,-1,-1,-1,-1,-1,-1,-1,-1,-1],"split_conditions":[2.6406496E4,2.6181164E4,2.665436E4,2.6156504E4,2.6197852E4,2.64298E4,9.2726685E1,-5.480426E-4,2.6174148E4,2.619311E4,2.6352355E4,2.641697E4,2.64426E4,1.2873446E1,6.1100677E1,-2.2358957E-3,1.60094E-4,1.1154132E1,2.5808435E1,2.618475E4,2.618634E4,2.6251809E4,2.6375004E4,2.6450805E4,1.3475047E1,6.721737E0,2.6497635E4,2.1550049E1,9.9710455E0,-5.250976E1,2.599125E4,2.5999846E4,2.6189094E4,1.3695639E1,5.655469E0,2.618389E4,2.618805E4,1.5262938E-3,-2.5019856E-4,2.62215E4,2.6268906E4,-1.1381743E-3,2.6391234E4,1.025065E1,2.005371E0,2.6485266E4,2.653804E4,-3.5703126E-1,5.9020467E0,7.469417E0,8.373584E0,8.090535E0,8.872528E0,9.229945E0,1.4925953E1,2.368164E-1,1.0682405E0,1.4933745E0,2.4016533E0,2.5237231E0,3.4394532E-1,2.7408204E0,5.0652523E0,7.3861775E0,1.4814615E1,-7.5589995E0,4.4944577E0,5.8564453E0,1.3880364E1,5.963993E0,9.175289E0,1.0201622E1,6.370587E0,1.1551597E1,9.895286E0],"split_indices":[2,2,1,2,2,2,7,5,1,1,1,2,1,0,4,5,5,0,3,2,2,0,2,0,0,0,2,0,0,4,2,1,1,0,0,1,1,5,5,2,2,5,2,0,0,1,1,0,0,0,0,0,0,0,0,0,0,0,0,0,0,0,0,0,0,0,0,0,0,0,0,0,0,0,0],"split_type":[0,0,0,0,0,0,0,0,0,0,0,0,0,0,0,0,0,0,0,0,0,0,0,0,0,0,0,0,0,0,0,0,0,0,0,0,0,0,0,0,0,0,0,0,0,0,0,0,0,0,0,0,0,0,0,0,0,0,0,0,0,0,0,0,0,0,0,0,0,0,0,0,0,0,0],"sum_hessian":[1.0057E4,9.043E3,1.014E3,8.512E3,5.31E2,9.83E2,3.1E1,8.251E3,2.61E2,1.29E2,4.02E2,1.61E2,8.22E2,2.1E1,1E1,1.385E3,6.866E3,1.16E2,1.45E2,6.6E1,6.3E1,1.35E2,2.67E2,7E1,9.1E1,5.4E1,7.68E2,7E0,3E0,7E1,1.315E3,3.928E3,2.938E3,1.43E2,2E0,2.7E1,3.9E1,1.3E1,5E1,8.7E1,4.8E1,7.9E1,1.88E2,6.9E1,1E0,5.18E2,2.5E2,2E0,6.8E1,3.48E2,9.67E2,3.64E2,3.564E3,2.931E3,7E0,5E0,2.2E1,1.2E1,2.7E1,1.2E1,1E0,8E0,4.2E1,6.5E1,2.2E1,1.2E1,3.6E1,9E0,7E1,8.3E1,1.05E2,3.95E2,1.23E2,1.04E2,1.46E2],"tree_param":{"num_deleted":"0","num_feature":"8","num_nodes":"75","size_leaf_vector":"0"}},{"base_weights":[2.097689E1,2.0879362E1,3.3347782E1,1.909998E1,2.1255573E1,3.0993544E1,5.604069E1,1.2240723E1,1.9281883E1,2.0538532E1,2.2101492E1,6.3085938E0,3.1252365E1,2.2290787E1,6.519104E0,1.9691536E1,1.6841726E1,1.7124512E1,2.0657227E1,2.4709818E1,2.130149E1,6.3094306E0,3.0434303E1,2.2506893E0,1.0646851E1,-1.5322266E0,1.9736473E1,1.5794481E1,1.8895874E1,1.8043098E1,1.0360119E1,2.32513E1,2.0341576E1,2.334879E1,2.8692503E1,1.716218E1,2.2451643E1,9.404297E0,-9.5182294E-1,-2.4216797E0,7.8098145E0,6.337695E0,1.5281808E1,4.1822915E0,-9.337891E0,1.9664276E1,4.8029297E1,1.7048954E1,1.3502397E1,2.0062086E1,1.2504818E1,1.8284187E1,-7.251953E0,-2.314209E0,1.6862583E1,2.044731E1,3.1908503E1,8.113387E0,2.0698677E1,2.9490149E1,2.309039E1,1.47055855E1,1.8290346E1,2.2290806E1,3.9318848E1],"categories":[],"categories_nodes":[],"categories_segments":[],"categories_sizes":[],"default_left":[1,1,1,1,1,1,0,1,1,1,1,0,0,1,1,1,1,1,1,1,1,1,0,1,1,1,1,1,1,1,1,1,1,1,0,1,1,0,0,0,0,0,0,0,0,0,0,0,0,0,0,0,0,0,0,0,0,0,0,0,0,0,0,0,0],"id":20,"left_children":[1,3,5,7,9,11,-1,13,15,17,19,-1,-1,21,23,25,27,29,31,33,35,37,-1,39,41,43,45,47,49,51,53,55,57,59,-1,61,63,-1,-1,-1,-1,-1,-1,-1,-1,-1,-1,-1,-1,-1,-1,-1,-1,-1,-1,-1,-1,-1,-1,-1,-1,-1,-1,-1,-1],"loss_changes":[1.1439E4,6.276E3,2.3767812E3,1.9500625E3,4.5385E3,2.6285156E2,0E0,2.6148105E3,1.37275E3,1.457375E3,7.32575E3,0E0,0E0,2.0204316E3,5.3984314E2,1.4169375E3,2.4365625E2,7.8240234E2,3.059375E3,4.083875E3,1.335925E4,1.6625949E2,0E0,4.604757E2,2.2271252E2,2.1747621E2,2.0194375E3,2.6723438E2,3.4539258E2,9.6197266E2,1.7697251E3,1.0538219E4,1.666125E4,3.6484375E2,0E0,1.4825625E3,5.24375E3,0E0,0E0,0E0,0E0,0E0,0E0,0E0,0E0,0E0,0E0,0E0,0E0,0E0,0E0,0E0,0E0,0E0,0E0,0E0,0E0,0E0,0E0,0E0,0E0,0E0,0E0,0E0,0E0],"parents":[2147483647,0,0,1,1,2,2,3,3,4,4,5,5,7,7,8,8,9,9,10,10,13,13,14,14,15,15,16,16,17,17,18,18,19,19,20,20,21,21,23,23,24,24,25,25,26,26,27,27,28,28,29,29,30,30,31,31,32,32,33,33,35,35,36,36],"right_children":[2,4,6,8,10,12,-1,14,16,18,20,-1,-1,22,24,26,28,30,32,34,36,38,-1,40,42,44,46,48,50,52,54,56,58,60,-1,62,64,-1,-1,-1,-1,-1,-1,-1,-1,-1,-1,-1,-1,-1,-1,-1,-1,-1,-1,-1,-1,-1,-1,-1,-1,-1,-1,-1,-1],"split_conditions":[2.6602004E4,-5.5052724E-4,2.677616E4,2.580186E4,2.6078545E4,2.6549215E4,1.6812208E1,-3.847631E1,7.155788E0,2.5847125E4,2.6104074E4,1.8925782E0,9.37571E0,2.5641025E4,-1.4431144E-3,-5.725338E-3,2.6145875E4,2.1519213E1,2.5976074E4,2.6097113E4,2.6123406E4,2.5574602E4,9.130291E0,3.744679E1,2.579918E4,-6.805197E-3,6.622549E1,2.6102414E4,-6.752251E-4,2.4687157E1,2.408486E1,2.595924E4,2.5993129E4,2.6065996E4,8.607751E0,2.610955E4,3.1028832E-3,2.821289E0,-2.855469E-1,-7.2650397E-1,2.3429444E0,1.9013087E0,4.5845428E0,1.2546875E0,-2.8013673E0,5.899283E0,1.440879E1,5.1146865E0,4.0507193E0,6.018626E0,3.7514455E0,5.485256E0,-2.175586E0,-6.9426274E-1,5.058775E0,6.134193E0,9.572551E0,2.4340162E0,6.2096033E0,8.847045E0,6.927117E0,4.411676E0,5.487104E0,6.687242E0,1.1795654E1],"split_indices":[1,5,1,2,1,2,0,3,3,1,1,0,0,1,5,5,2,4,1,1,1,2,0,7,1,5,6,1,5,3,4,1,1,2,0,1,5,0,0,0,0,0,0,0,0,0,0,0,0,0,0,0,0,0,0,0,0,0,0,0,0,0,0,0,0],"split_type":[0,0,0,0,0,0,0,0,0,0,0,0,0,0,0,0,0,0,0,0,0,0,0,0,0,0,0,0,0,0,0,0,0,0,0,0,0,0,0,0,0,0,0,0,0,0,0,0,0,0,0,0,0,0,0,0,0,0,0,0,0,0,0,0,0],"sum_hessian":[1.0057E4,9.981E3,7.6E1,1.751E3,8.23E3,7.1E1,5E0,4.7E1,1.704E3,4.468E3,3.762E3,1E0,7E1,1.6E1,3.1E1,1.453E3,2.51E2,1.55E2,4.313E3,8.76E2,2.886E3,6E0,1E1,1.6E1,1.5E1,3E0,1.45E3,1.72E2,7.9E1,1.35E2,2E1,4.6E2,3.853E3,6.58E2,2.18E2,6.31E2,2.255E3,4E0,2E0,9E0,7E0,9E0,6E0,2E0,1E0,1.448E3,2E0,1.07E2,6.5E1,6.5E1,1.4E1,1.34E2,1E0,7E0,1.3E1,3.5E2,1.1E2,1.1E2,3.743E3,2.2E1,6.36E2,2.03E2,4.28E2,2.236E3,1.9E1],"tree_param":{"num_deleted":"0","num_feature":"8","num_nodes":"65","size_leaf_vector":"0"}},{"base_weights":[1.4701036E1,1.45029335E1,1.8152405E1,1.3780041E1,1.5038932E1,2.3579576E1,1.6148232E1,1.1118737E1,1.3992253E1,1.528297E1,1.2865967E1,1.8863342E1,2.7014877E1,6.042902E0,1.8946695E1,1.6085356E1,1.0174529E1,1.3319352E1,1.4615997E1,1.502418E1,2.5125237E1,1.2332107E0,1.55024E1,1.5196522E1,2.0184704E1,2.632373E0,8.703683E0,1.8269196E1,3.7580273E1,1.15896E1,2.4071533E1,2.8389137E0,1.077651E1,1.4041656E1,9.330189E0,1.4763612E1,8.353308E0,1.5003803E1,4.2435547E1,2.2143866E1,3.083252E1,-2.3613281E0,4.73666E0,9.870895E0,1.630229E1,4.89054E0,-3.9930555E-1,5.7899737E0,9.703739E0,1.7320024E1,2.135404E1,4.1339355E1,1.5029297E1,1.2979753E1,-6.1751304E0,1.1348308E1,2.8823153E1,-6.2680286E-1,7.529514E0,1.4992266E1,9.610382E0,1.3333366E1,1.747461E1,2.907189E0,1.0735668E1,1.4510928E1,1.7526024E1,-3.3782551E0,9.830358E0,1.5172855E1,1.2347911E1,6.4882812E0,3.1290365E1,-3.8972657E0,-9.056222E-1,-1.1106771E0,5.3688965E0,1.5248725E1,-1.49822445E1,1.873564E1,1.30573635E1,5.507724E0,-4.34375E0,-2.086914E0,2.5507812E0,5.9683313E0,1.6464844E0,3.557129E0,1.0168823E1,1.9953241E1,1.3760686E1,2.2176662E1,9.294597E0],"categories":[],"categories_nodes":[],"categories_segments":[],"categories_sizes":[],"default_left":[1,1,1,1,1,1,1,1,1,1,1,1,0,1,1,1,1,1,1,1,1,1,1,0,0,1,1,1,1,1,1,1,1,1,1,1,1,1,0,0,1,1,1,1,1,1,1,1,1,1,1,0,0,0,0,0,0,0,0,0,0,0,0,0,0,0,0,0,0,0,0,0,0,0,0,0,0,0,0,0,0,0,0,0,0,0,0,0,0,0,0,0,0],"id":21,"left_children":[1,3,5,7,9,11,13,15,17,19,21,23,-1,25,27,29,31,33,35,37,39,41,43,-1,-1,45,47,49,51,53,55,57,59,61,63,65,67,69,-1,-1,71,73,75,77,79,81,83,85,87,89,91,-1,-1,-1,-1,-1,-1,-1,-1,-1,-1,-1,-1,-1,-1,-1,-1,-1,-1,-1,-1,-1,-1,-1,-1,-1,-1,-1,-1,-1,-1,-1,-1,-1,-1,-1,-1,-1,-1,-1,-1,-1,-1],"loss_changes":[6.6135E3,3.480375E3,5.5145625E3,2.1395625E3,2.695625E3,1.8234531E3,1.1168992E4,1.2666406E3,1.3835E3,1.2098125E4,1.7063508E4,3.3554688E0,0E0,7.756599E2,3.2522031E3,1.4085039E3,1.113125E3,5.1130938E3,1.6710938E3,2.0305E3,1.4271797E3,1.3208864E3,1.8841562E3,0E0,0E0,2.7579428E2,8.659497E1,5.1733594E2,2.2640918E2,8.704136E2,6.402002E2,3.4610162E2,1.0308711E3,3.5090938E3,2.5145137E3,1.0684062E3,8.476304E2,1.955625E3,0E0,0E0,2.428125E2,1.1273593E2,2.0189893E2,8.114162E3,2.882211E3,1.5500702E2,9.4937904E1,1.258606E0,6.388257E1,1.9467188E3,4.5854297E2,0E0,0E0,0E0,0E0,0E0,0E0,0E0,0E0,0E0,0E0,0E0,0E0,0E0,0E0,0E0,0E0,0E0,0E0,0E0,0E0,0E0,0E0,0E0,0E0,0E0,0E0,0E0,0E0,0E0,0E0,0E0,0E0,0E0,0E0,0E0,0E0,0E0,0E0,0E0,0E0,0E0,0E0],"parents":[2147483647,0,0,1,1,2,2,3,3,4,4,5,5,6,6,7,7,8,8,9,9,10,10,11,11,13,13,14,14,15,15,16,16,17,17,18,18,19,19,20,20,21,21,22,22,25,25,26,26,27,27,28,28,29,29,30,30,31,31,32,32,33,33,34,34,35,35,36,36,37,37,40,40,41,41,42,42,43,43,44,44,45,45,46,46,47,47,48,48,49,49,50,50],"right_children":[2,4,6,8,10,12,14,16,18,20,22,24,-1,26,28,30,32,34,36,38,40,42,44,-1,-1,46,48,50,52,54,56,58,60,62,64,66,68,70,-1,-1,72,74,76,78,80,82,84,86,88,90,92,-1,-1,-1,-1,-1,-1,-1,-1,-1,-1,-1,-1,-1,-1,-1,-1,-1,-1,-1,-1,-1,-1,-1,-1,-1,-1,-1,-1,-1,-1,-1,-1,-1,-1,-1,-1,-1,-1,-1,-1,-1,-1],"split_conditions":[2.6462637E4,-1.02934166E-4,2.6485266E4,-1.4575308E-3,2.6180965E4,2.6474996E4,2.6498734E4,-2.4606255E1,2.6055941E4,2.615851E4,2.620908E4,2.646971E4,8.104464E0,2.648191E4,2.6703898E4,-3.189463E1,2.5823719E4,2.6051844E4,2.6457195E4,2.621401E4,2.618189E4,2.6194195E4,2.6312686E4,4.5589566E0,6.0554113E0,2.6486965E4,2.648932E4,2.660269E4,5.4050814E-3,2.633936E4,2.5912004E4,3.744679E1,2.5976385E4,2.6039227E4,2.604648E4,2.6408191E4,2.6447004E4,2.6137555E4,1.2730664E1,6.64316E0,-2.3272182E1,2.6185195E4,2.618634E4,2.625304E4,2.6429984E4,1.716351E1,2.648017E4,2.6488559E4,3.5164914E0,2.653804E4,2.6702004E4,1.2401807E1,4.508789E0,3.893926E0,-1.8525392E0,3.4044924E0,8.646946E0,-1.8804087E-1,2.2588542E0,4.4976797E0,2.8831148E0,4.00001E0,5.242383E0,8.721567E-1,3.2207005E0,4.3532786E0,5.2578073E0,-1.0134766E0,2.9491074E0,4.551857E0,3.7043734E0,1.9464844E0,9.38711E0,-1.1691798E0,-2.7168667E-1,-3.3320314E-1,1.610669E0,4.574618E0,-4.4946737E0,5.6206923E0,3.9172091E0,1.6523172E0,-1.303125E0,-6.2607425E-1,7.652344E-1,1.7904994E0,4.9394533E-1,1.0671387E0,3.050647E0,5.9859724E0,4.128206E0,6.652999E0,2.7883792E0],"split_indices":[2,5,1,5,2,1,1,4,2,2,1,1,0,2,2,4,2,1,1,1,1,1,1,0,0,0,1,1,5,0,2,7,1,2,2,2,2,2,0,0,3,2,2,0,2,3,2,0,6,1,0,0,0,0,0,0,0,0,0,0,0,0,0,0,0,0,0,0,0,0,0,0,0,0,0,0,0,0,0,0,0,0,0,0,0,0,0,0,0,0,0,0,0],"split_type":[0,0,0,0,0,0,0,0,0,0,0,0,0,0,0,0,0,0,0,0,0,0,0,0,0,0,0,0,0,0,0,0,0,0,0,0,0,0,0,0,0,0,0,0,0,0,0,0,0,0,0,0,0,0,0,0,0,0,0,0,0,0,0,0,0,0,0,0,0,0,0,0,0,0,0,0,0,0,0,0,0,0,0,0,0,0,0,0,0,0,0,0,0],"sum_hessian":[1.0057E4,9.516E3,5.41E2,4.063E3,5.453E3,1.43E2,3.98E2,3.04E2,3.759E3,4.897E3,5.56E2,6.3E1,8E1,8.7E1,3.11E2,4.6E1,2.58E2,1.819E3,1.94E3,4.774E3,1.23E2,1.03E2,4.53E2,2E1,4.3E1,3.9E1,4.8E1,3.02E2,9E0,3.1E1,1.5E1,2E1,2.38E2,1.538E3,2.81E2,1.894E3,4.6E1,4.772E3,2E0,8.4E1,3.9E1,5.1E1,5.2E1,5.8E1,3.95E2,2.2E1,1.7E1,1.4E1,3.4E1,2.36E2,6.6E1,7E0,2E0,2.9E1,2E0,5E0,1E1,1.2E1,8E0,4.9E1,1.89E2,1.279E3,2.59E2,5.1E1,2.3E2,1.741E3,1.53E2,5E0,4.1E1,4.482E3,2.9E2,1E0,3.8E1,2.4E1,2.7E1,5E0,4.7E1,4.8E1,1E1,2.23E2,1.72E2,2.1E1,1E0,1.1E1,6E0,1.3E1,1E0,3E0,3.1E1,1.33E2,1.03E2,6.1E1,5E0],"tree_param":{"num_deleted":"0","num_feature":"8","num_nodes":"93","size_leaf_vector":"0"}},{"base_weights":[1.0306063E1,1.0243408E1,1.6981848E1,1.0042617E1,1.2070364E1,1.1803622E1,2.402976E1,1.0284331E1,6.1899037E0,1.7679981E1,1.1077444E1,1.3169885E1,-8.908691E0,4.3245914E1,1.562235E1,1.0032709E1,1.6371567E1,1.4189768E0,1.0305288E1,1.3701503E1,2.0618046E1,8.536973E0,1.24808035E1,1.527832E0,1.3851482E1,6.982422E-1,-1.234375E1,2.0077148E1,4.942456E1,5.1356025E0,2.436849E1,1.0184222E1,6.4133444E0,1.4857547E1,1.9717203E1,3.5010319E0,-1.0548986E1,1.8407606E1,6.844881E0,1.4203218E1,-1.4016927E0,2.1516705E1,7.9157367E0,9.488499E0,5.1370635E0,1.6324635E1,1.0892619E1,6.834961E0,-2.5195312E0,2.7108887E1,1.2397546E1,8.595703E0,-2.8117187E0,1.850358E1,3.5871094E1,9.951552E0,1.660557E1,2.5368435E0,9.4922085E0,1.5342336E1,1.1317871E1,1.8140764E1,2.25495E1,8.3259827E-1,2.1753906E1,-2.8331055E1,-3.8214984E0,8.479278E0,2.7044357E1,-1.0809005E0,8.628729E0,-3.984375E-1,1.4445155E1,-2.3388672E0,2.3632812E-1,1.1014648E1,2.8378906E0,6.2057157E0,1.1767507E1,1.5626724E0,8.462556E0,1.2642731E1,1.8708517E1,4.3730054E0,1.2968312E1,3.731027E0,1.3604248E1,-5.0097656E-1,9.662109E0,-1.5157552E1,1.04713545E1,1.936559E1,4.510742E0],"categories":[],"categories_nodes":[],"categories_segments":[],"categories_sizes":[],"default_left":[1,1,1,1,1,1,1,1,1,1,1,1,1,1,1,1,1,1,1,1,1,1,1,1,1,0,0,0,0,1,1,1,1,1,1,1,1,1,1,1,1,0,1,1,1,1,1,0,0,0,1,1,1,1,0,0,0,0,0,0,0,0,0,0,0,0,0,0,0,0,0,0,0,0,0,0,0,0,0,0,0,0,0,0,0,0,0,0,0,0,0,0,0],"id":22,"left_children":[1,3,5,7,9,11,13,15,17,19,21,23,25,27,29,31,33,35,37,39,41,43,45,47,49,-1,-1,-1,-1,51,53,55,57,59,61,63,65,67,69,71,73,-1,75,77,79,81,83,-1,-1,-1,85,87,89,91,-1,-1,-1,-1,-1,-1,-1,-1,-1,-1,-1,-1,-1,-1,-1,-1,-1,-1,-1,-1,-1,-1,-1,-1,-1,-1,-1,-1,-1,-1,-1,-1,-1,-1,-1,-1,-1,-1,-1],"loss_changes":[4.032875E3,3.535125E3,3.0739648E3,8.3046875E3,5.273797E3,1.6737412E3,5.4636074E3,1.27845625E4,1.0450408E4,1.4241016E3,2.8775156E3,3.9146777E2,1.4062045E2,5.823613E2,2.4429727E3,4.3880625E3,1.3988906E3,6.216586E3,7.892672E3,5.124463E2,7.6571875E2,9.2502344E2,3.100414E3,1.0314041E2,6.0841113E2,0E0,0E0,0E0,0E0,4.0914816E2,3.4818262E2,1.14778125E4,3.9026055E3,2.2790234E2,4.189453E1,1.0307683E4,4.317993E3,7.0593086E3,2.8652812E3,2.2831445E2,5.158074E0,0E0,7.889218E1,1.6776406E3,7.950653E2,1.1239414E3,5.126324E3,0E0,0E0,0E0,4.3030615E2,1.0184802E2,9.786731E2,5.7390137E1,0E0,0E0,0E0,0E0,0E0,0E0,0E0,0E0,0E0,0E0,0E0,0E0,0E0,0E0,0E0,0E0,0E0,0E0,0E0,0E0,0E0,0E0,0E0,0E0,0E0,0E0,0E0,0E0,0E0,0E0,0E0,0E0,0E0,0E0,0E0,0E0,0E0,0E0,0E0],"parents":[2147483647,0,0,1,1,2,2,3,3,4,4,5,5,6,6,7,7,8,8,9,9,10,10,11,11,12,12,13,13,14,14,15,15,16,16,17,17,18,18,19,19,20,20,21,21,22,22,23,23,24,24,29,29,30,30,31,31,32,32,33,33,34,34,35,35,36,36,37,37,38,38,39,39,40,40,42,42,43,43,44,44,45,45,46,46,50,50,51,51,52,52,53,53],"right_children":[2,4,6,8,10,12,14,16,18,20,22,24,26,28,30,32,34,36,38,40,42,44,46,48,50,-1,-1,-1,-1,52,54,56,58,60,62,64,66,68,70,72,74,-1,76,78,80,82,84,-1,-1,-1,86,88,90,92,-1,-1,-1,-1,-1,-1,-1,-1,-1,-1,-1,-1,-1,-1,-1,-1,-1,-1,-1,-1,-1,-1,-1,-1,-1,-1,-1,-1,-1,-1,-1,-1,-1,-1,-1,-1,-1,-1,-1],"split_conditions":[2.7794908E-3,2.6418398E4,2.6201996E4,2.6181164E4,2.64298E4,7.3472336E1,2.624168E4,2.6151875E4,2.6313E4,2.642702E4,2.6461996E4,-4.5725307E1,2.581819E4,3.0145054E1,2.6528E4,2.613768E4,2.6169984E4,2.6251809E4,2.6374795E4,3.3439438E1,3.806012E1,2.6456879E4,2.6485266E4,2.5646395E4,2.5763004E4,2.0947267E-1,-3.7031252E0,6.0231447E0,1.4827369E1,4.475831E-3,5.9112892E1,2.6135074E4,2.6147406E4,2.617374E4,2.618552E4,2.6212045E4,2.6259545E4,2.6368205E4,2.6391336E4,2.6381059E4,2.641095E4,6.455012E0,2.6419996E4,2.644799E4,2.645699E4,2.6469254E4,2.6491754E4,2.0504885E0,-7.5585943E-1,8.132667E0,2.5944695E4,3.2162006E1,6.1752573E-3,5.5295105E1,1.0761329E1,2.9854658E0,4.9816713E0,7.610531E-1,2.8476627E0,4.6027007E0,3.3953614E0,5.4422293E0,6.76485E0,2.497795E-1,6.526172E0,-8.499317E0,-1.1464496E0,2.5437834E0,8.113308E0,-3.242702E-1,2.5886188E0,-1.1953125E-1,4.3335466E0,-7.0166016E-1,7.089844E-2,3.3043947E0,8.5136724E-1,1.8617147E0,3.5302522E0,4.6880174E-1,2.5387669E0,3.7928193E0,5.6125555E0,1.3119017E0,3.8904939E0,1.1193081E0,4.0812745E0,-1.5029298E-1,2.898633E0,-4.5472655E0,3.1414065E0,5.809677E0,1.3532227E0],"split_indices":[5,1,1,2,2,6,0,2,2,1,2,4,0,6,2,2,2,0,2,3,7,0,1,0,0,0,0,0,0,5,3,1,1,0,1,2,2,1,1,2,0,0,0,1,2,2,2,0,0,0,1,7,5,3,0,0,0,0,0,0,0,0,0,0,0,0,0,0,0,0,0,0,0,0,0,0,0,0,0,0,0,0,0,0,0,0,0,0,0,0,0,0,0],"split_type":[0,0,0,0,0,0,0,0,0,0,0,0,0,0,0,0,0,0,0,0,0,0,0,0,0,0,0,0,0,0,0,0,0,0,0,0,0,0,0,0,0,0,0,0,0,0,0,0,0,0,0,0,0,0,0,0,0,0,0,0,0,0,0,0,0,0,0,0,0,0,0,0,0,0,0,0,0,0,0,0,0,0,0,0,0,0,0,0,0,0,0,0,0],"sum_hessian":[1.0057E4,9.966E3,9.1E1,8.985E3,9.81E2,5.4E1,3.7E1,8.453E3,5.32E2,1.45E2,8.36E2,5.1E1,3E0,1E1,2.7E1,8.12E3,3.33E2,2.47E2,2.85E2,6.4E1,8.1E1,3E2,5.36E2,3E0,4.8E1,1E0,2E0,3E0,7E0,1.3E1,1.4E1,7.792E3,3.28E2,2.33E2,1E2,2.11E2,3.6E1,8.4E1,2.01E2,6.2E1,2E0,7.5E1,6E0,2.33E2,6.7E1,1.54E2,3.82E2,1E0,2E0,3E0,4.5E1,9E0,4E0,1.1E1,3E0,7.522E3,2.7E2,1.46E2,1.82E2,2.02E2,3.1E1,6.9E1,3.1E1,1.85E2,2.6E1,9E0,2.7E1,4E1,4.4E1,3.7E1,1.64E2,1E0,6.1E1,1E0,1E0,3E0,3E0,9.7E1,1.36E2,3.3E1,3.4E1,6.3E1,9.1E1,9.3E1,2.89E2,6E0,3.9E1,1E0,8E0,2E0,2E0,1E1,1E0],"tree_param":{"num_deleted":"0","num_feature":"8","num_nodes":"93","size_leaf_vector":"0"}},{"base_weights":[7.2265177E0,5.7445726E0,7.432154E0,7.486624E0,6.1694413E-1,1.01539135E1,7.236015E0,5.6585855E0,1.45076885E1,-4.877821E0,3.1442225E0,8.734822E0,1.4380727E1,2.1229086E0,7.4544816E0,6.967696E0,3.29358E0,1.19975195E1,1.92229E1,-9.226693E0,-1.2309659E0,7.6648026E0,1.1342057E0,7.307373E0,1.0037407E1,1.5621957E1,5.196546E0,-5.632214E-1,3.415649E0,7.4123044E0,1.6995577E1,5.5187845E0,1.800065E1,-4.3909383E0,6.6955166E0,1.47486E1,9.865024E0,1.115625E1,2.0017818E1,-4.1121874E0,-1.4876023E1,-4.7152157E0,8.9475447E-1,5.270612E0,1.290791E1,-5.7364006E0,2.621078E0,8.492014E0,2.9842122E0,1.4329394E1,9.583013E0,1.6374805E1,5.025586E0,-1.1054688E0,8.190205E0,-2.212221E0,1.936384E-1,4.6136107E0,2.5506592E-1,7.177357E0,8.22479E0,1.9251465E1,5.544085E0,6.581048E0,2.7478633E0,5.6210938E0,1.8878593E1,-6.8664867E-1,-7.6485286E0,1.2544321E0,7.5539412E0,1.3337143E1,2.2118582E1,2.8261719E0,1.0444537E1,2.0212053E1,4.5703125E0,-6.6082764E0,2.9277343E-1,-1.5588405E1,-5.405599E0,-7.834961E0,-2.5957031E0,1.5316162E0,-4.423828E0,6.4289823E0,1.3562826E0,5.9581475E0,1.5460798E1,-6.4570314E-1,-1.1169021E1,5.0604024E0,7.2890073E-1,6.921682E0,1.0193384E1,-1.0576172E0,4.2144213E0,7.591444E0,1.0790122E1,1.4573476E1,2.1524717E1,7.141493E0,-7.008789E0,-1.6894531E-1,-3.3623047E0,4.4596353E-1,9.557706E0,-7.8808594E-1,-2.4233072E0,-1.3852896E-1,5.5648226E-1,2.8231077E0,7.8989763E0,6.7732483E-1,-8.556641E0,8.10151E0,6.9190726E0,8.469889E0,5.375839E0,8.060329E0,2.3324902E1,-7.013672E0,8.805989E0],"categories":[],"categories_nodes":[],"categories_segments":[],"categories_sizes":[],"default_left":[1,1,1,1,1,1,1,1,1,1,1,1,1,1,1,1,1,1,1,1,1,1,1,1,1,1,1,1,1,1,1,1,1,1,1,1,1,0,1,1,1,1,1,1,1,1,1,1,1,0,1,1,1,1,1,1,1,1,1,1,1,1,1,0,0,0,0,0,0,0,0,0,0,0,0,0,0,0,0,0,0,0,0,0,0,0,0,0,0,0,0,0,0,0,0,0,0,0,0,0,0,0,0,0,0,0,0,0,0,0,0,0,0,0,0,0,0,0,0,0,0,0,0],"id":23,"left_children":[1,3,5,7,9,11,13,15,17,19,21,23,25,27,29,31,33,35,37,39,41,43,45,47,49,51,53,55,57,59,61,63,65,67,69,71,73,-1,75,77,79,81,83,85,87,89,91,93,95,-1,97,99,101,103,105,107,109,111,113,115,117,119,121,-1,-1,-1,-1,-1,-1,-1,-1,-1,-1,-1,-1,-1,-1,-1,-1,-1,-1,-1,-1,-1,-1,-1,-1,-1,-1,-1,-1,-1,-1,-1,-1,-1,-1,-1,-1,-1,-1,-1,-1,-1,-1,-1,-1,-1,-1,-1,-1,-1,-1,-1,-1,-1,-1,-1,-1,-1,-1,-1,-1],"loss_changes":[3.0223125E3,1.0982465E4,4.6398438E3,1.170023E4,4.3619053E3,3.4193438E3,9.187531E3,2.2371738E3,2.0063711E3,1.5587532E3,1.9448914E3,7.540742E2,1.5945762E3,1.1790906E3,3.0535E3,7.3979863E3,6.8786665E3,5.9370703E2,1.8706445E2,1.2390356E3,4.115787E2,7.6046533E2,1.5473927E3,1.0808779E3,3.112422E2,9.467969E2,3.6750958E2,1.389632E2,8.658762E2,1.4429062E3,7.716006E2,1.2063916E3,4.807832E2,9.7217993E2,8.406035E2,2.563291E2,2.7233545E2,0E0,7.865039E1,2.768141E2,5.7413086E1,1.1852191E2,1.2532768E2,2.043899E2,2.6272168E2,7.3949536E2,5.6865E2,3.8096582E2,2.4312744E2,0E0,4.2533984E2,7.995137E2,3.046894E2,1.4227013E1,1.3341107E2,8.611755E0,9.357506E0,9.54188E2,2.4392822E2,1.402625E3,1.1820469E3,1.0884131E3,3.4849774E2,0E0,0E0,0E0,0E0,0E0,0E0,0E0,0E0,0E0,0E0,0E0,0E0,0E0,0E0,0E0,0E0,0E0,0E0,0E0,0E0,0E0,0E0,0E0,0E0,0E0,0E0,0E0,0E0,0E0,0E0,0E0,0E0,0E0,0E0,0E0,0E0,0E0,0E0,0E0,0E0,0E0,0E0,0E0,0E0,0E0,0E0,0E0,0E0,0E0,0E0,0E0,0E0,0E0,0E0,0E0,0E0,0E0,0E0,0E0,0E0],"parents":[2147483647,0,0,1,1,2,2,3,3,4,4,5,5,6,6,7,7,8,8,9,9,10,10,11,11,12,12,13,13,14,14,15,15,16,16,17,17,18,18,19,19,20,20,21,21,22,22,23,23,24,24,25,25,26,26,27,27,28,28,29,29,30,30,31,31,32,32,33,33,34,34,35,35,36,36,38,38,39,39,40,40,41,41,42,42,43,43,44,44,45,45,46,46,47,47,48,48,50,50,51,51,52,52,53,53,54,54,55,55,56,56,57,57,58,58,59,59,60,60,61,61,62,62],"right_children":[2,4,6,8,10,12,14,16,18,20,22,24,26,28,30,32,34,36,38,40,42,44,46,48,50,52,54,56,58,60,62,64,66,68,70,72,74,-1,76,78,80,82,84,86,88,90,92,94,96,-1,98,100,102,104,106,108,110,112,114,116,118,120,122,-1,-1,-1,-1,-1,-1,-1,-1,-1,-1,-1,-1,-1,-1,-1,-1,-1,-1,-1,-1,-1,-1,-1,-1,-1,-1,-1,-1,-1,-1,-1,-1,-1,-1,-1,-1,-1,-1,-1,-1,-1,-1,-1,-1,-1,-1,-1,-1,-1,-1,-1,-1,-1,-1,-1,-1,-1,-1,-1,-1],"split_conditions":[2.5992004E4,2.5976074E4,2.601564E4,2.59551E4,2.5989035E4,2.601892E4,2.6023984E4,2.5915814E4,2.5956086E4,2.5968055E4,2.5988113E4,2.6005164E4,2.602958E4,2.6021871E4,3.1028832E-3,2.5900016E4,2.591581E4,2.595508E4,2.596299E4,2.5977766E4,2.5983719E4,2.5999996E4,2.5980504E4,2.600914E4,2.600864E4,5.4086193E1,2.60062E4,2.601909E4,2.6027705E4,4.1268862E-4,7.648973E1,2.5850324E4,-2.086516E-3,2.591575E4,2.593395E4,2.596914E4,2.5935785E4,3.3468752E0,2.866364E1,2.0366222E1,1.1887283E1,2.5972254E4,7.812771E0,1.8390358E1,2.5971781E4,1.9528046E1,2.5992254E4,2.5998512E4,2.6000824E4,4.2988186E0,2.601329E4,2.6029766E4,2.6051234E4,2.6037865E4,9.619775E0,-4.7677066E-4,2.6019555E4,2.6027879E4,2.605275E4,2.6051844E4,2.1655006E1,2.6201996E4,2.6442395E4,1.9743145E0,8.24359E-1,1.6863282E0,5.663578E0,-2.059946E-1,-2.2945588E0,3.7632963E-1,2.2661824E0,4.001143E0,6.635575E0,8.478516E-1,3.1333613E0,6.0636163E0,1.3710938E0,-1.982483E0,8.783203E-2,-4.676522E0,-1.6216798E0,-2.3504884E0,-7.7871096E-1,4.5948488E-1,-1.3271484E0,1.9286947E0,4.068848E-1,1.7874444E0,4.63824E0,-1.9371095E-1,-3.3507063E0,1.5181208E0,2.1867023E-1,2.0765047E0,3.0580153E0,-3.1728518E-1,1.2643265E0,2.2774334E0,3.2370367E0,4.372043E0,6.4574156E0,2.142448E0,-2.1026368E0,-5.0683595E-2,-1.0086914E0,1.3378906E-1,2.867312E0,-2.3642579E-1,-7.269922E-1,-4.155869E-2,1.6694468E-1,8.4693235E-1,2.369693E0,2.0319746E-1,-2.5669923E0,2.430453E0,2.075722E0,2.5409667E0,1.6127518E0,2.418099E0,6.997471E0,-2.1041017E0,2.6417968E0],"split_indices":[2,1,2,1,1,1,2,1,2,2,0,2,0,1,5,1,2,0,1,0,1,1,2,0,1,7,2,1,0,5,6,2,5,0,1,1,2,0,3,6,3,2,3,6,0,6,0,2,2,0,1,1,1,0,7,5,2,1,0,1,6,1,1,0,0,0,0,0,0,0,0,0,0,0,0,0,0,0,0,0,0,0,0,0,0,0,0,0,0,0,0,0,0,0,0,0,0,0,0,0,0,0,0,0,0,0,0,0,0,0,0,0,0,0,0,0,0,0,0,0,0,0,0],"split_type":[0,0,0,0,0,0,0,0,0,0,0,0,0,0,0,0,0,0,0,0,0,0,0,0,0,0,0,0,0,0,0,0,0,0,0,0,0,0,0,0,0,0,0,0,0,0,0,0,0,0,0,0,0,0,0,0,0,0,0,0,0,0,0,0,0,0,0,0,0,0,0,0,0,0,0,0,0,0,0,0,0,0,0,0,0,0,0,0,0,0,0,0,0,0,0,0,0,0,0,0,0,0,0,0,0,0,0,0,0,0,0,0,0,0,0,0,0,0,0,0,0,0,0],"sum_hessian":[1.0057E4,1.229E3,8.828E3,9.17E2,3.12E2,5.9E2,8.238E3,7.29E2,1.88E2,9.8E1,2.14E2,4.44E2,1.46E2,3.38E2,7.9E3,4.68E2,2.61E2,1.25E2,6.3E1,4.4E1,5.4E1,6.5E1,1.49E2,2.15E2,2.29E2,1.28E2,1.8E1,1.1E2,2.28E2,7.867E3,3.3E1,4.15E2,5.3E1,8E1,1.81E2,5.2E1,7.3E1,7E0,5.6E1,2.4E1,2E1,2E1,3.4E1,4.6E1,1.9E1,2.6E1,1.23E2,1.68E2,4.7E1,1.9E1,2.1E2,1.19E2,9E0,6E0,1.2E1,3.4E1,7.6E1,1.65E2,6.3E1,6.11E3,1.757E3,2.7E1,6E0,2.99E2,1.16E2,4E0,4.9E1,3.8E1,4.2E1,2.5E1,1.56E2,4.6E1,6E0,6E0,6.7E1,5.5E1,1E0,1.5E1,9E0,1.8E1,2E0,7E0,1.3E1,3.1E1,3E0,3.5E1,1.1E1,6E0,1.3E1,1.4E1,1.2E1,5.3E1,7E1,9E1,7.8E1,1.1E1,3.6E1,8.2E1,1.28E2,9.1E1,2.8E1,8E0,1E0,5E0,1E0,2E0,1E1,5E0,2.9E1,4E1,3.6E1,1.08E2,5.7E1,6.1E1,2E0,1.328E3,4.782E3,1.616E3,1.41E2,8E0,1.9E1,1E0,5E0],"tree_param":{"num_deleted":"0","num_feature":"8","num_nodes":"123","size_leaf_vector":"0"}},{"base_weights":[5.0661793E0,5.055875E0,2.9702148E1,4.5476375E0,5.4666038E0,5.0423083E0,2.3575182E0,6.551096E0,4.8820343E0,4.6348543E0,8.467043E0,-1.1026673E0,3.4344256E0,5.768409E0,9.755232E0,1.1250561E0,5.6146708E0,-6.5621513E-1,4.725237E0,7.3715186E0,9.778343E0,1.5579618E0,-3.8890746E0,1.719458E0,4.0048685E0,9.373904E0,5.268985E0,8.94226E0,1.3108751E1,-6.409896E0,1.7428766E0,6.317799E0,4.9357E0,1.0094075E1,-1.9080882E0,1.7922558E1,4.6414866E0,9.268428E0,5.4243836E0,8.430377E0,1.025389E1,-1.0898438E0,2.5745618E0,-6.0797386E0,-1.8763897E0,6.184529E-1,2.5689237E0,3.2053688E0,4.427956E0,7.1333413E0,1.1562417E1,2.2066157E-2,5.4504404E0,1.1100175E1,8.60791E0,5.3022747E0,-1.305462E1,2.2708137E0,-3.22074E0,5.6357107E0,1.106933E1,-3.814406E0,5.696318E0],"categories":[],"categories_nodes":[],"categories_segments":[],"categories_sizes":[],"default_left":[1,1,0,1,1,1,1,1,1,1,1,1,1,1,1,1,1,1,1,1,1,1,1,1,1,1,1,1,0,1,1,1,1,0,0,0,0,0,0,0,0,0,0,0,0,0,0,0,0,0,0,0,0,0,0,0,0,0,0,0,0,0,0],"id":24,"left_children":[1,3,-1,5,7,9,11,13,15,17,19,21,23,25,27,29,31,33,35,37,39,41,43,45,47,49,51,53,-1,55,57,59,61,-1,-1,-1,-1,-1,-1,-1,-1,-1,-1,-1,-1,-1,-1,-1,-1,-1,-1,-1,-1,-1,-1,-1,-1,-1,-1,-1,-1,-1,-1],"loss_changes":[2.4031094E3,2.0741094E3,0E0,4.863367E3,3.4903125E3,5.081953E3,3.1003413E3,4.816453E3,9.941203E3,1.572625E3,4.867422E2,1.473951E3,6.133506E2,2.7668594E3,9.1878125E2,2.7624229E3,1.4124922E3,7.729084E2,3.4835547E3,7.475283E2,2.509375E1,2.7736533E2,4.1627637E2,1.480538E2,1.4647949E2,8.442832E2,1.3099453E3,1.27390625E2,0E0,3.5713057E3,1.4407144E3,4.7407305E3,1.0291145E4,0E0,0E0,0E0,0E0,0E0,0E0,0E0,0E0,0E0,0E0,0E0,0E0,0E0,0E0,0E0,0E0,0E0,0E0,0E0,0E0,0E0,0E0,0E0,0E0,0E0,0E0,0E0,0E0,0E0,0E0],"parents":[2147483647,0,0,1,1,3,3,4,4,5,5,6,6,7,7,8,8,9,9,10,10,11,11,12,12,13,13,14,14,15,15,16,16,17,17,18,18,19,19,20,20,21,21,22,22,23,23,24,24,25,25,26,26,27,27,29,29,30,30,31,31,32,32],"right_children":[2,4,-1,6,8,10,12,14,16,18,20,22,24,26,28,30,32,34,36,38,40,42,44,46,48,50,52,54,-1,56,58,60,62,-1,-1,-1,-1,-1,-1,-1,-1,-1,-1,-1,-1,-1,-1,-1,-1,-1,-1,-1,-1,-1,-1,-1,-1,-1,-1,-1,-1,-1,-1],"split_conditions":[2.680529E4,2.606356E4,8.910645E0,2.605185E4,2.6104074E4,2.6046754E4,2.604926E4,2.6088795E4,2.611134E4,2.571864E4,2.6047205E4,2.605014E4,2.6055186E4,2.606397E4,2.6098125E4,2.608916E4,2.6181164E4,-5.97081E1,2.5757E4,2.6046887E4,2.6048605E4,2.605355E4,2.604502E4,2.605216E4,2.605872E4,2.6067875E4,2.605418E4,-5.3667586E-4,3.9326255E0,2.609316E4,2.6116531E4,2.6162455E4,2.6197086E4,3.0282228E0,-5.724265E-1,5.3767676E0,1.392446E0,2.7805285E0,1.6273152E0,2.5291133E0,3.076167E0,-3.2695314E-1,7.723686E-1,-1.8239217E0,-5.6291693E-1,1.8553588E-1,7.7067715E-1,9.616107E-1,1.3283869E0,2.1400025E0,3.4687252E0,6.6198474E-3,1.6351322E0,3.3300526E0,2.5823731E0,1.5906825E0,-3.9163861E0,6.8124413E-1,-9.6622205E-1,1.6907133E0,3.320799E0,-1.1443218E0,1.7088956E0],"split_indices":[1,1,0,1,1,1,2,2,2,1,2,0,1,0,2,2,2,3,2,0,1,1,2,2,1,1,2,5,0,0,0,2,2,0,0,0,0,0,0,0,0,0,0,0,0,0,0,0,0,0,0,0,0,0,0,0,0,0,0,0,0,0,0],"split_type":[0,0,0,0,0,0,0,0,0,0,0,0,0,0,0,0,0,0,0,0,0,0,0,0,0,0,0,0,0,0,0,0,0,0,0,0,0,0,0,0,0,0,0,0,0,0,0,0,0,0,0,0,0,0,0,0,0,0,0,0,0,0,0],"sum_hessian":[1.0057E4,1.0054E4,3E0,4.499E3,5.555E3,3.669E3,8.3E2,1.942E3,3.613E3,3.281E3,3.88E2,1.97E2,6.33E2,1.563E3,3.79E2,5.9E2,3.023E3,5.5E1,3.226E3,2.15E2,1.73E2,1.01E2,9.6E1,1.59E2,4.74E2,1.88E2,1.375E3,3.08E2,7.1E1,4.4E1,5.46E2,1.481E3,1.542E3,5E0,5E1,1.9E1,3.207E3,1.07E2,1.08E2,5E1,1.23E2,2.8E1,7.3E1,4.5E1,5.1E1,7E1,8.9E1,1.67E2,3.07E2,9.5E1,9.3E1,4.6E1,1.329E3,3.7E1,2.71E2,1.6E1,2.8E1,4.94E2,5.2E1,1.297E3,1.84E2,1.23E2,1.419E3],"tree_param":{"num_deleted":"0","num_feature":"8","num_nodes":"63","size_leaf_vector":"0"}},{"base_weights":[3.5511575E0,3.4754946E0,6.1058483E0,-3.1212637E-1,3.5202396E0,5.8470397E0,2.3019531E1,-2.8569267E0,3.7099392E0,3.4110932E0,4.5193357E0,9.885641E0,4.794031E0,-1.1751512E0,-1.2998242E1,5.545773E0,-7.04827E0,3.5577006E0,1.0904421E0,8.70097E0,3.759564E0,8.11289E0,1.487765E1,3.7016146E0,8.006339E0,-4.768799E0,7.322141E-2,-1.5687012E1,-1.4954427E0,5.824219E-1,1.3448307E1,-1.9010416E0,-8.7269535E0,3.4096718E0,6.5023627E0,-1.5901064E0,3.3488822E0,6.503125E0,1.1620902E1,6.023328E-1,4.430103E0,6.304453E0,9.879464E0,1.6497885E1,3.4375E0,7.1630106E0,1.5840929E0,1.2072712E1,1.4702785E0,-5.620052E0,4E0,7.0871186E-1,-5.4066405E0,5.46875E-2,-2.2978516E0,-8.652344E-1,4.428571E0,1.5635603E1,-8.586914E0,-2.9199219E0,6.8359375E-2,-1.01875E1,-1.4423828E0,3.5519812E0,-7.3205376E-1,6.000503E0,8.882724E0,1.1935125E-1,-1.150837E1,9.189239E0,9.49588E-1,6.8658853E0,-6.742188E-1,1.0211019E1,1.5624721E1,1.1395366E0,-5.3123374E0,5.714298E0,3.333366E0,2.6966796E0,8.165283E0,1.0270508E1,1.0292969E0,5.3532033E0,1.2370972E1,-2.5715187E-1,4.5992284E0,6.0153704E0,2.1860878E1,-1.6292318E1,3.937779E0],"categories":[],"categories_nodes":[],"categories_segments":[],"categories_sizes":[],"default_left":[1,1,1,1,1,1,0,1,1,1,1,1,1,1,1,1,1,1,1,1,1,1,1,1,1,1,1,0,1,1,1,1,1,1,1,1,1,1,1,1,1,1,1,0,0,1,1,1,1,0,0,0,0,0,0,0,0,0,0,0,0,0,0,0,0,0,0,0,0,0,0,0,0,0,0,0,0,0,0,0,0,0,0,0,0,0,0,0,0,0,0],"id":25,"left_children":[1,3,5,7,9,11,-1,13,15,17,19,21,23,25,27,29,31,33,35,37,39,41,43,45,47,49,51,-1,53,55,57,59,61,63,65,67,69,71,73,75,77,79,81,-1,-1,83,85,87,89,-1,-1,-1,-1,-1,-1,-1,-1,-1,-1,-1,-1,-1,-1,-1,-1,-1,-1,-1,-1,-1,-1,-1,-1,-1,-1,-1,-1,-1,-1,-1,-1,-1,-1,-1,-1,-1,-1,-1,-1,-1,-1],"loss_changes":[1.9229531E3,1.6570469E3,1.1260996E3,1.1876648E3,1.0376562E3,1.164623E3,0E0,1.1956595E3,9.2785114E2,2.9594766E3,2.979168E3,3.925752E2,7.7045605E2,2.7849426E2,2.8582483E2,1.5218665E3,4.3893646E1,3.5486719E3,3.1472773E3,8.5497363E2,1.6994355E3,8.1478516E1,2.0278857E2,1.2493413E3,1.4971995E3,1.4191171E2,1.6750455E2,0E0,3.8571782E0,1.4302933E2,8.5722485E2,6.2193556E0,3.850302E1,4.6011484E3,4.1379102E2,4.0366282E3,3.9428647E3,2.2593994E2,1.847959E2,4.5724207E2,9.147383E2,1.4581726E2,6.2105225E1,0E0,0E0,5.46427E2,6.007558E2,1.9436582E3,1.0722275E3,0E0,0E0,0E0,0E0,0E0,0E0,0E0,0E0,0E0,0E0,0E0,0E0,0E0,0E0,0E0,0E0,0E0,0E0,0E0,0E0,0E0,0E0,0E0,0E0,0E0,0E0,0E0,0E0,0E0,0E0,0E0,0E0,0E0,0E0,0E0,0E0,0E0,0E0,0E0,0E0,0E0,0E0],"parents":[2147483647,0,0,1,1,2,2,3,3,4,4,5,5,7,7,8,8,9,9,10,10,11,11,12,12,13,13,14,14,15,15,16,16,17,17,18,18,19,19,20,20,21,21,22,22,23,23,24,24,25,25,26,26,28,28,29,29,30,30,31,31,32,32,33,33,34,34,35,35,36,36,37,37,38,38,39,39,40,40,41,41,42,42,45,45,46,46,47,47,48,48],"right_children":[2,4,6,8,10,12,-1,14,16,18,20,22,24,26,28,30,32,34,36,38,40,42,44,46,48,50,52,-1,54,56,58,60,62,64,66,68,70,72,74,76,78,80,82,-1,-1,84,86,88,90,-1,-1,-1,-1,-1,-1,-1,-1,-1,-1,-1,-1,-1,-1,-1,-1,-1,-1,-1,-1,-1,-1,-1,-1,-1,-1,-1,-1,-1,-1,-1,-1,-1,-1,-1,-1,-1,-1,-1,-1,-1,-1],"split_conditions":[1.6664802E-3,2.582745E4,2.6746E4,3.6316704E1,2.6418398E4,2.1344368E1,6.9058595E0,3.1230808E1,1.1267012E-3,2.6181164E4,2.64298E4,2.3666773E1,3.1108686E-3,-7.760423E-4,2.582351E4,2.570575E4,2.570399E4,2.614803E4,2.6313E4,2.6423295E4,2.644552E4,1.8604782E-3,1.0449859E1,2.5933907E1,5.2645767E1,9.260241E0,1.2067142E-3,-4.706104E0,2.5797445E4,-1.2378918E-4,2.580576E4,2.568979E4,2.581E4,2.6137555E4,2.6173629E4,2.6251809E4,2.6374795E4,3.1734577E1,2.6435844E4,2.645199E4,2.6485266E4,1.5259856E0,2.350729E1,4.9493656E0,1.03125E0,2.618857E4,2.5978053E-3,4.1816723E1,5.6277443E1,-1.6860156E0,1.2E0,2.1261357E-1,-1.6219922E0,1.6406251E-2,-6.893555E-1,-2.5957033E-1,1.3285714E0,4.690681E0,-2.5760744E0,-8.759766E-1,2.0507812E-2,-3.05625E0,-4.3271485E-1,1.0655944E0,-2.1961613E-1,1.800151E0,2.6648173E0,3.5805378E-2,-3.4525113E0,2.7567716E0,2.848764E-1,2.0597656E0,-2.0226564E-1,3.0633056E0,4.6874166E0,3.41861E-1,-1.5937012E0,1.7142894E0,1.0000098E0,8.090039E-1,2.449585E0,3.0811524E0,3.0878907E-1,1.6059611E0,3.7112916E0,-7.714556E-2,1.3797686E0,1.8046112E0,6.558264E0,-4.887696E0,1.1813338E0],"split_indices":[5,1,0,7,1,7,0,7,5,2,2,6,5,5,1,2,1,2,2,2,2,5,3,6,7,3,5,0,0,5,0,0,1,2,2,0,2,3,1,0,1,4,6,0,0,1,5,7,7,0,0,0,0,0,0,0,0,0,0,0,0,0,0,0,0,0,0,0,0,0,0,0,0,0,0,0,0,0,0,0,0,0,0,0,0,0,0,0,0,0,0],"split_type":[0,0,0,0,0,0,0,0,0,0,0,0,0,0,0,0,0,0,0,0,0,0,0,0,0,0,0,0,0,0,0,0,0,0,0,0,0,0,0,0,0,0,0,0,0,0,0,0,0,0,0,0,0,0,0,0,0,0,0,0,0,0,0,0,0,0,0,0,0,0,0,0,0,0,0,0,0,0,0,0,0,0,0,0,0,0,0,0,0,0,0],"sum_hessian":[1.0057E4,9.77E3,2.87E2,1.14E2,9.656E3,2.84E2,3E0,7E1,4.4E1,8.709E3,9.47E2,5.7E1,2.27E2,6.1E1,9E0,3.8E1,6E0,8.191E3,5.18E2,1.44E2,8.03E2,4.4E1,1.3E1,1.71E2,5.6E1,1.5E1,4.6E1,7E0,2E0,2.4E1,1.4E1,2E0,4E0,7.801E3,3.9E2,2.37E2,2.81E2,8.4E1,6E1,1.41E2,6.62E2,2.4E1,2E1,1.1E1,2E0,6.4E1,1.07E2,3.4E1,2.2E1,1.4E1,1E0,4.2E1,4E0,1E0,1E0,1.8E1,6E0,1.3E1,1E0,1E0,1E0,3E0,1E0,7.542E3,2.59E2,3.25E2,6.5E1,2.03E2,3.4E1,8.1E1,2E2,8E1,4E0,4.7E1,1.3E1,1.3E2,1.1E1,3.03E2,3.59E2,9E0,1.5E1,1.9E1,1E0,4.9E1,1.5E1,6.7E1,4E1,2.2E1,1.2E1,2E0,2E1],"tree_param":{"num_deleted":"0","num_feature":"8","num_nodes":"91","size_leaf_vector":"0"}},{"base_weights":[2.4889758E0,2.4480753E0,6.620835E0,1.8900309E0,2.629359E0,5.655877E0,1.4546875E1,1.8229927E0,6.890259E0,2.337909E0,2.9905186E0,8.415502E0,3.5304613E0,1.7429129E1,5.866211E0,-7.1865234E0,1.8898602E0,1.2231445E0,1.1818704E1,2.534075E0,4.0029907E-1,4.8203206E0,2.4953883E0,4.8337054E0,1.2126736E1,7.144681E-1,6.1114006E0,1.8743814E1,4.770508E0,8.046875E-1,7.2851562E0,-4.2871094E0,-1.1130301E1,2.0001307E0,-8.043791E-1,6.238932E0,-1.6239346E0,2.4717773E1,7.2890625E0,2.3329713E0,4.6944666E0,-1.3979839E0,1.610445E0,4.1701736E0,7.2741237E0,4.4650227E-1,3.0553071E0,1.478418E1,2.3539495E0,2.8125E-1,1.2806985E1,3.911621E0,-4.000888E0,3.3398438E-1,6.8196616E0,5.251953E0,2.0391796E1,-8.1536455E0,-3.6049107E-1,1.9600011E0,7.283433E0,-2.1679037E1,-1.2235383E-1,7.6723633E0,2.2480469E0,-4.376674E0,2.5546875E0,1.4160156E0,1.1516846E1,2.7012072E0,1.0987419E0,4.8225236E0,-6.659668E0,-9.140042E-1,-4.2823153E0,1.0305856E0,2.606027E0,6.771864E0,3.5489259E0,1.0323857E1,6.539559E0,-1.6337335E0,1.0191984E0,4.8935223E0,2.449635E0,-2.8076172E0,5.8938212E0,2.890625E0,1.3246094E1,-1.697998E0,8.463325E0,-7.0996094E0,1.1375E0,-2.0032551E0,3.6728516E0,9.601807E0,5.10926E0],"categories":[],"categories_nodes":[],"categories_segments":[],"categories_sizes":[],"default_left":[1,1,1,1,1,1,1,1,1,1,1,1,1,1,1,1,1,1,1,1,1,1,1,1,1,1,1,1,0,0,0,1,0,1,1,1,1,0,1,1,1,1,1,1,1,1,1,0,1,0,1,1,1,1,1,0,0,0,0,0,0,0,0,0,0,0,0,0,0,0,0,0,0,0,0,0,0,0,0,0,0,0,0,0,0,0,0,0,0,0,0,0,0,0,0,0,0],"id":26,"left_children":[1,3,5,7,9,11,13,15,17,19,21,23,25,27,29,31,33,35,37,39,41,43,45,47,49,51,53,55,-1,-1,-1,57,-1,59,61,63,65,-1,67,69,71,73,75,77,79,81,83,-1,85,-1,87,89,91,93,95,-1,-1,-1,-1,-1,-1,-1,-1,-1,-1,-1,-1,-1,-1,-1,-1,-1,-1,-1,-1,-1,-1,-1,-1,-1,-1,-1,-1,-1,-1,-1,-1,-1,-1,-1,-1,-1,-1,-1,-1,-1,-1],"loss_changes":[1.6835469E3,1.00272656E3,6.672573E2,8.073545E2,7.841406E2,4.923059E2,1.4795581E2,1.4684834E3,8.79306E2,1.5816934E3,3.0257578E3,4.4651245E2,3.7356482E2,2.7077148E1,2.286583E1,1.5810681E2,7.14042E2,2.3861713E2,8.1310913E2,1.6317539E3,8.379063E2,1.1071367E3,3.028418E3,4.833685E2,1.4143994E2,4.0761853E2,1.082041E2,2.6309326E1,0E0,0E0,0E0,1.7924962E2,0E0,4.7420898E2,1.3498667E3,1.7076126E1,1.3771027E2,0E0,3.3131152E2,1.5700137E3,4.988423E2,2.1245938E2,1.3009265E2,8.907881E2,2.6404004E2,6.7834796E2,2.2971133E3,0E0,3.454307E2,0E0,3.573462E1,4.2290384E2,1.8322255E2,3.857259E1,6.514795E1,0E0,0E0,0E0,0E0,0E0,0E0,0E0,0E0,0E0,0E0,0E0,0E0,0E0,0E0,0E0,0E0,0E0,0E0,0E0,0E0,0E0,0E0,0E0,0E0,0E0,0E0,0E0,0E0,0E0,0E0,0E0,0E0,0E0,0E0,0E0,0E0,0E0,0E0,0E0,0E0,0E0,0E0],"parents":[2147483647,0,0,1,1,2,2,3,3,4,4,5,5,6,6,7,7,8,8,9,9,10,10,11,11,12,12,13,13,14,14,15,15,16,16,17,17,18,18,19,19,20,20,21,21,22,22,23,23,24,24,25,25,26,26,27,27,31,31,33,33,34,34,35,35,36,36,38,38,39,39,40,40,41,41,42,42,43,43,44,44,45,45,46,46,48,48,50,50,51,51,52,52,53,53,54,54],"right_children":[2,4,6,8,10,12,14,16,18,20,22,24,26,28,30,32,34,36,38,40,42,44,46,48,50,52,54,56,-1,-1,-1,58,-1,60,62,64,66,-1,68,70,72,74,76,78,80,82,84,-1,86,-1,88,90,92,94,96,-1,-1,-1,-1,-1,-1,-1,-1,-1,-1,-1,-1,-1,-1,-1,-1,-1,-1,-1,-1,-1,-1,-1,-1,-1,-1,-1,-1,-1,-1,-1,-1,-1,-1,-1,-1,-1,-1,-1,-1,-1,-1],"split_conditions":[2.6570309E4,-3.867286E-4,9.5850784E1,3.9869747E1,2.6080176E4,2.6603564E4,6.1100677E1,-3.0875984E-3,-4.4424618E-3,2.606653E4,2.6104074E4,2.659877E4,5.445469E0,2.6794621E4,2.6724E4,-2.437732E1,1.9636574E1,-5.9222076E1,-4.0107328E-3,2.6065484E4,2.6070578E4,2.6098125E4,2.6123016E4,2.6576434E4,-1.5802737E-3,2.6615926E4,-3.0880226E-3,4.834175E1,1.4311523E0,2.4140626E-1,2.1855469E0,-3.2922222E1,-3.3390906E0,3.2755363E1,1.9767666E1,-6.3195946E1,-5.078039E-3,7.4153323E0,-3.148857E-3,2.60519E4,2.1289072E1,2.6072516E4,2.607502E4,2.6080523E4,2.609252E4,2.610289E4,2.6137555E4,4.435254E0,2.659174E4,8.4375E-2,1.2742643E1,-6.5413513E0,2.323987E-3,2.662374E4,2.664101E4,1.575586E0,6.117539E0,-2.4460938E0,-1.0814732E-1,5.8800036E-1,2.18503E0,-6.503711E0,-3.670615E-2,2.3017092E0,6.744141E-1,-1.3130023E0,7.664063E-1,4.2480472E-1,3.4550538E0,8.1036216E-1,3.2962257E-1,1.4467571E0,-1.9979005E0,-2.7420127E-1,-1.2846947E0,3.091757E-1,7.818081E-1,2.0315592E0,1.0646778E0,3.0971572E0,1.9618677E0,-4.9012008E-1,3.0575955E-1,1.4680567E0,7.348905E-1,-8.422852E-1,1.7681464E0,8.6718756E-1,3.9738283E0,-5.093994E-1,2.5389974E0,-2.1298828E0,3.4125003E-1,-6.009766E-1,1.1018555E0,2.880542E0,1.5327781E0],"split_indices":[2,5,7,6,1,0,4,5,5,2,1,1,4,0,0,3,4,3,5,1,2,1,1,0,5,0,5,4,0,0,0,4,0,6,4,3,5,0,5,1,3,0,2,0,0,2,2,0,1,0,7,3,5,2,0,0,0,0,0,0,0,0,0,0,0,0,0,0,0,0,0,0,0,0,0,0,0,0,0,0,0,0,0,0,0,0,0,0,0,0,0,0,0,0,0,0,0],"split_type":[0,0,0,0,0,0,0,0,0,0,0,0,0,0,0,0,0,0,0,0,0,0,0,0,0,0,0,0,0,0,0,0,0,0,0,0,0,0,0,0,0,0,0,0,0,0,0,0,0,0,0,0,0,0,0,0,0,0,0,0,0,0,0,0,0,0,0,0,0,0,0,0,0,0,0,0,0,0,0,0,0,0,0,0,0,0,0,0,0,0,0,0,0,0,0,0,0],"sum_hessian":[1.0057E4,9.96E3,9.7E1,2.445E3,7.515E3,8.8E1,9E0,2.414E3,3.1E1,4.163E3,3.352E3,3.7E1,5.1E1,6E0,3E0,1.7E1,2.397E3,1.5E1,1.6E1,3.78E3,3.83E2,7.12E2,2.64E3,2E1,1.7E1,2.5E1,2.6E1,5E0,1E0,1E0,2E0,1.1E1,6E0,2.303E3,9.4E1,5E0,1E1,3E0,1.3E1,3.46E3,3.2E2,1.54E2,2.29E2,5.65E2,1.47E2,5.67E2,2.073E3,3E0,1.7E1,1E0,1.6E1,1.5E1,1E1,3E0,2.3E1,1E0,4E0,5E0,6E0,2.287E3,1.6E1,2E0,9.2E1,3E0,2E0,6E0,4E0,6E0,7E0,2.664E3,7.96E2,3.17E2,3E0,1.33E2,2.1E1,1.46E2,8.3E1,1.07E2,4.58E2,2.6E1,1.21E2,1.22E2,4.45E2,5.12E2,1.561E3,7E0,1E1,1E0,1.5E1,7E0,8E0,6E0,4E0,2E0,1E0,7E0,1.6E1],"tree_param":{"num_deleted":"0","num_feature":"8","num_nodes":"97","size_leaf_vector":"0"}},{"base_weights":[1.7463528E0,1.6959428E0,3.9619884E0,1.7437081E0,-8.331412E-1,9.423522E0,2.3290396E0,1.6838067E0,6.410076E0,-3.8413024E0,1.4380766E0,2.871804E0,1.0951458E1,-9.223389E0,4.161901E0,1.7176093E0,-7.5535244E-1,5.4173694E0,1.0676136E1,-4.652183E0,5.1637836E0,2.6255944E0,-8.1535053E-1,3.7548828E-1,3.7609863E0,-4.0527344E-1,1.1245508E1,-1.2456901E1,-3.4507813E0,3.6234486E0,1.1337891E1,1.2186599E0,1.8994149E0,-3.52453E0,1.4930972E0,3.699707E0,6.2721944E0,1.1156994E1,2.890625E-1,-1.3327344E1,-3.9561255E0,-1.1479492E0,1.018457E1,-2.529297E-1,3.890218E0,-3.696289E-1,-8.430664E0,-7.34375E-1,9.902344E-1,4.665625E0,1.6899414E0,1.1983801E1,6.0530133E0,-6.868164E0,-1.6488525E1,-4.63644E0,-5.131836E-1,-6.6946616E0,3.8200736E0,1.3503906E1,4.7128906E0,1.8566693E0,-3.9236748E-1,6.6487823E0,1.8277792E0,5.8665366E0,-3.9569628E0,-5.958534E-1,2.5935059E0,6.0195315E-1,4.709997E0,6.858343E0,3.6051898E0,3.1259766E0,1.1402246E1,-2.1293569E0,-6.126701E0,-3.7216797E0,9.505208E-1,-8.844866E-1,7.575955E-1,4.229679E0,-6.0322266E0,-1.1402994E0,2.9860492E0,1.2621745E1,5.759375E0,6.7890625E0,8.183594E-1,-7.5851007E0,-9.248047E-1,-5.7600913E0,1.0527344E0,-2.2421875E0,8.105469E-1,-8.28125E0,3.9677734E0,1.4402995E1,4.0546875E0,6.8359375E-1,5.828125E0],"categories":[],"categories_nodes":[],"categories_segments":[],"categories_sizes":[],"default_left":[1,1,1,1,1,1,1,1,1,1,1,1,1,1,1,1,1,1,1,1,1,1,1,1,1,0,1,1,1,1,1,1,1,1,1,1,1,1,0,0,1,1,0,1,1,1,0,0,0,0,0,1,1,1,0,1,1,0,1,1,1,0,0,0,0,0,0,0,0,0,0,0,0,0,0,0,0,0,0,0,0,0,0,0,0,0,0,0,0,0,0,0,0,0,0,0,0,0,0,0,0],"id":27,"left_children":[1,3,5,7,9,11,13,15,17,19,21,23,25,27,29,31,33,35,37,39,41,43,45,47,49,-1,51,53,55,57,59,61,63,65,67,69,71,73,-1,-1,75,77,-1,79,81,83,-1,-1,-1,-1,-1,85,87,89,-1,91,93,-1,95,97,99,-1,-1,-1,-1,-1,-1,-1,-1,-1,-1,-1,-1,-1,-1,-1,-1,-1,-1,-1,-1,-1,-1,-1,-1,-1,-1,-1,-1,-1,-1,-1,-1,-1,-1,-1,-1,-1,-1,-1,-1],"loss_changes":[1.1166602E3,1.189666E3,1.9668564E3,2.6877148E3,1.2558147E3,4.7909033E2,3.701489E3,7.8729297E2,4.5882715E2,6.008849E2,2.831192E2,2.3004272E1,1.414751E2,4.0499304E2,5.385071E2,8.5064844E2,8.2091516E2,1.2509326E2,1.066582E2,3.8807947E2,2.3352042E2,2.5216122E2,1.2247324E2,3.4563398E0,7.1037445E0,0E0,8.080469E1,2.2472949E2,3.245056E1,3.1163464E2,7.985608E1,2.5847449E3,2.3319922E3,2.62813E2,1.693504E2,1.0983151E2,7.844995E1,5.718994E0,0E0,0E0,2.6054858E2,2.514112E1,0E0,1.4710575E1,1.8719196E2,9.6505394E1,0E0,0E0,0E0,0E0,0E0,6.231494E1,2.1414825E1,2.7073395E1,0E0,5.0812363E1,1.0972339E1,0E0,2.8130164E2,1.0701904E0,1.3990372E1,0E0,0E0,0E0,0E0,0E0,0E0,0E0,0E0,0E0,0E0,0E0,0E0,0E0,0E0,0E0,0E0,0E0,0E0,0E0,0E0,0E0,0E0,0E0,0E0,0E0,0E0,0E0,0E0,0E0,0E0,0E0,0E0,0E0,0E0,0E0,0E0,0E0,0E0,0E0,0E0],"parents":[2147483647,0,0,1,1,2,2,3,3,4,4,5,5,6,6,7,7,8,8,9,9,10,10,11,11,12,12,13,13,14,14,15,15,16,16,17,17,18,18,19,19,20,20,21,21,22,22,23,23,24,24,26,26,27,27,28,28,29,29,30,30,31,31,32,32,33,33,34,34,35,35,36,36,37,37,40,40,41,41,43,43,44,44,45,45,51,51,52,52,53,53,55,55,56,56,58,58,59,59,60,60],"right_children":[2,4,6,8,10,12,14,16,18,20,22,24,26,28,30,32,34,36,38,40,42,44,46,48,50,-1,52,54,56,58,60,62,64,66,68,70,72,74,-1,-1,76,78,-1,80,82,84,-1,-1,-1,-1,-1,86,88,90,-1,92,94,-1,96,98,100,-1,-1,-1,-1,-1,-1,-1,-1,-1,-1,-1,-1,-1,-1,-1,-1,-1,-1,-1,-1,-1,-1,-1,-1,-1,-1,-1,-1,-1,-1,-1,-1,-1,-1,-1,-1,-1,-1,-1,-1],"split_conditions":[2.6512434E4,2.6485266E4,2.653874E4,2.6472309E4,2.648724E4,2.6525E4,2.655139E4,2.6457195E4,2.648164E4,2.651173E4,2.6510016E4,2.6517379E4,7.8202E0,2.6545969E4,9.5850784E1,2.6035156E4,2.645699E4,-6.8941736E-5,1.661109E1,2.6464346E4,2.64762E4,2.6495906E4,2.654904E4,2.651479E4,2.6519516E4,-1.2158204E-1,1.0151463E-3,2.6535564E4,6.599177E-4,-1.7524338E1,6.1100677E1,2.601564E4,2.603273E4,-1.6059576E1,2.646523E4,2.6466414E4,1.0128648E1,-1.3797705E0,8.671875E-2,-3.9982033E0,2.6487254E4,5.7673683E0,3.0553713E0,-3.9651577E-6,2.6471539E1,1.899174E1,-2.5291994E0,-2.203125E-1,2.9707032E-1,1.3996875E0,5.0698245E-1,1.2259722E1,2.652746E4,2.654446E4,-4.946558E0,2.654333E4,2.653443E4,-2.0083985E0,2.6521914E4,2.6794621E4,2.6724E4,5.570008E-1,-1.1771025E-1,1.9946347E0,5.4833376E-1,1.759961E0,-1.1870888E0,-1.7875603E-1,7.780518E-1,1.8058595E-1,1.4129992E0,2.057503E0,1.081557E0,9.37793E-1,3.420674E0,-6.3880706E-1,-1.8380103E0,-1.116504E0,2.8515625E-1,-2.65346E-1,2.2727865E-1,1.2689037E0,-1.8096681E0,-3.4208983E-1,8.958148E-1,3.7865236E0,1.7278126E0,2.0367188E0,2.4550782E-1,-2.2755303E0,-2.774414E-1,-1.7280275E0,3.1582034E-1,-6.726563E-1,2.4316408E-1,-2.484375E0,1.190332E0,4.3208985E0,1.2164063E0,2.0507814E-1,1.7484375E0],"split_indices":[2,1,1,1,2,1,1,1,1,1,0,1,7,1,7,1,2,5,3,2,0,1,0,2,0,0,5,0,5,4,4,2,0,3,1,2,6,4,0,0,0,3,0,5,3,4,0,0,0,0,0,4,0,1,0,2,0,0,2,0,0,0,0,0,0,0,0,0,0,0,0,0,0,0,0,0,0,0,0,0,0,0,0,0,0,0,0,0,0,0,0,0,0,0,0,0,0,0,0,0,0],"split_type":[0,0,0,0,0,0,0,0,0,0,0,0,0,0,0,0,0,0,0,0,0,0,0,0,0,0,0,0,0,0,0,0,0,0,0,0,0,0,0,0,0,0,0,0,0,0,0,0,0,0,0,0,0,0,0,0,0,0,0,0,0,0,0,0,0,0,0,0,0,0,0,0,0,0,0,0,0,0,0,0,0,0,0,0,0,0,0,0,0,0,0,0,0,0,0,0,0,0,0,0,0],"sum_hessian":[1.0057E4,9.835E3,2.22E2,9.653E3,1.82E2,5E1,1.72E2,9.532E3,1.21E2,7.8E1,1.04E2,1E1,4E1,2.3E1,1.49E2,9.402E3,1.3E2,1E2,2.1E1,7.2E1,6E0,6.8E1,3.6E1,3E0,7E0,1E0,3.9E1,1.4E1,9E0,1.4E2,9E0,2.513E3,6.889E3,5.8E1,7.2E1,3.5E1,6.5E1,2E1,1E0,4E0,6.8E1,3E0,3E0,2.1E1,4.7E1,3.5E1,1E0,1E0,2E0,4E0,3E0,3.3E1,6E0,7E0,7E0,6E0,3E0,2E0,1.38E2,6E0,3E0,1.8E3,7.13E2,1.01E2,6.788E3,2E0,5.6E1,2.5E1,4.7E1,9E0,2.6E1,5.2E1,1.3E1,1E0,1.9E1,3.8E1,3E1,1E0,2E0,1.3E1,8E0,4.6E1,1E0,2.9E1,6E0,2.9E1,4E0,5E0,1E0,6E0,1E0,5E0,1E0,1E0,2E0,1E0,1.37E2,5E0,1E0,1E0,2E0],"tree_param":{"num_deleted":"0","num_feature":"8","num_nodes":"101","size_leaf_vector":"0"}},{"base_weights":[1.223265E0,3.9173496E-1,1.33897E0,1.6535543E0,-3.310316E0,3.3750265E0,1.192757E0,2.4059743E-1,6.004392E0,-7.0315967E0,-1.3707635E0,2.3962343E0,6.315078E0,-2.1508477E0,1.3110912E0,1.4058877E0,-2.1787024E0,4.5372787E0,1.0679982E1,-1.0259766E1,-4.523091E0,2.1080387E0,-2.6748757E0,1.8734748E0,4.437413E0,9.064193E0,3.4041364E0,-3.624884E0,-1.3210207E0,1.2771314E0,5.4798584E0,-1.0728824E-1,7.7792315E0,-9.418457E0,-4.2609075E-1,9.289297E0,3.7095087E0,1.30896E1,8.396289E0,-6.606875E0,-1.3944425E1,-7.000186E0,-3.1768508E0,-7.205636E-2,4.072526E0,-2.1346445E0,-1.3483259E1,3.559991E0,8.1471944E-1,3.7255003E0,5.500402E0,9.748856E0,-4.3424478E-1,7.292155E0,1.4698046E0,-4.600558E0,-3.0611007E0,-7.1349347E-1,-5.9447546E0,4.083457E0,1.2409707E0,-4.2131696E-2,7.9908113E0,1.260445E0,-5.093202E0,5.479154E0,1.0646535E1,-1.3971755E1,-7.274353E0,-3.9395926E0,6.161147E-1,4.752279E0,1.0185938E1,1.8790079E0,6.8950377E0,1.3866566E1,3.0286458E0,1.6975098E0,1.0361243E1,-2.5585938E-1,-7.4612927E0,-8.965332E0,-5.377232E0,-4.0407985E-1,-3.8173828E0,-2.8657925E0,8.2013494E-1,4.7024517E0,-7.0976562E0,-6.0202366E-1,-3.5969963E0,-1.8626303E1,-7.7007813E0,1.3199637E0,5.046351E0,-4.5536396E-1,2.4004903E0,3.9069922E0,2.1254883E0,7.2976656E0,1.2962688E1,6.653646E0,-5.6416016E0,8.853981E0,-2.7304688E0,-1.8440291E0,3.7404947E0,-3.1351929E0,-1.1103516E0,-1.5835503E0,2.2686868E0,-6.2850585E0,4.3066406E-1,-6.4697266E-1,5.841931E0,1.5041555E0,9.139592E-1,1.46358E0,-5.153125E0,2.1849787E1,3.2720013E0],"categories":[],"categories_nodes":[],"categories_segments":[],"categories_sizes":[],"default_left":[1,1,1,1,1,1,1,1,1,1,1,1,1,1,1,1,1,1,1,1,1,1,1,1,1,1,1,1,1,1,1,1,1,1,1,1,1,1,1,1,0,1,1,1,1,1,1,1,1,1,0,1,1,1,1,0,1,1,1,1,1,1,1,0,0,0,0,0,0,0,0,0,0,0,0,0,0,0,0,0,0,0,0,0,0,0,0,0,0,0,0,0,0,0,0,0,0,0,0,0,0,0,0,0,0,0,0,0,0,0,0,0,0,0,0,0,0,0,0,0,0],"id":28,"left_children":[1,3,5,7,9,11,13,15,17,19,21,23,25,27,29,31,33,35,37,39,41,43,45,47,49,51,53,55,57,59,61,63,65,67,69,71,73,75,77,79,-1,81,83,85,87,89,91,93,95,97,-1,99,101,103,105,-1,107,109,111,113,115,117,119,-1,-1,-1,-1,-1,-1,-1,-1,-1,-1,-1,-1,-1,-1,-1,-1,-1,-1,-1,-1,-1,-1,-1,-1,-1,-1,-1,-1,-1,-1,-1,-1,-1,-1,-1,-1,-1,-1,-1,-1,-1,-1,-1,-1,-1,-1,-1,-1,-1,-1,-1,-1,-1,-1,-1,-1,-1,-1],"loss_changes":[9.6717773E2,5.7511973E3,2.6243467E3,5.642004E3,2.249476E3,1.6855879E3,3.2626865E3,1.9595785E3,1.4949565E3,8.200679E2,9.447458E2,4.6652197E2,1.1455137E3,3.4015247E2,1.1196182E3,4.523866E3,2.8635828E3,6.460503E2,1.817461E2,5.2701514E2,1.8451685E2,2.444113E2,8.5291113E2,6.32776E2,4.761609E1,4.919756E2,5.382942E2,4.147412E1,5.0700455E2,7.961094E2,8.8772595E2,2.597792E3,5.352178E2,3.279253E2,6.72535E2,5.329541E1,8.558801E2,1.4561133E2,3.772954E2,1.3375146E2,0E0,1.8767578E1,7.305145E1,7.2141655E1,2.4446793E2,3.2281305E2,6.4739624E1,4.4947888E2,4.4418652E2,8.247864E0,0E0,4.5684277E2,2.5899225E2,3.998617E2,3.8313205E2,0E0,6.2026978E0,4.239285E2,4.8267944E1,8.3561304E2,6.69583E2,1.6915134E2,2.806014E3,0E0,0E0,0E0,0E0,0E0,0E0,0E0,0E0,0E0,0E0,0E0,0E0,0E0,0E0,0E0,0E0,0E0,0E0,0E0,0E0,0E0,0E0,0E0,0E0,0E0,0E0,0E0,0E0,0E0,0E0,0E0,0E0,0E0,0E0,0E0,0E0,0E0,0E0,0E0,0E0,0E0,0E0,0E0,0E0,0E0,0E0,0E0,0E0,0E0,0E0,0E0,0E0,0E0,0E0,0E0,0E0,0E0,0E0],"parents":[2147483647,0,0,1,1,2,2,3,3,4,4,5,5,6,6,7,7,8,8,9,9,10,10,11,11,12,12,13,13,14,14,15,15,16,16,17,17,18,18,19,19,20,20,21,21,22,22,23,23,24,24,25,25,26,26,27,27,28,28,29,29,30,30,31,31,32,32,33,33,34,34,35,35,36,36,37,37,38,38,39,39,41,41,42,42,43,43,44,44,45,45,46,46,47,47,48,48,49,49,51,51,52,52,53,53,54,54,56,56,57,57,58,58,59,59,60,60,61,61,62,62],"right_children":[2,4,6,8,10,12,14,16,18,20,22,24,26,28,30,32,34,36,38,40,42,44,46,48,50,52,54,56,58,60,62,64,66,68,70,72,74,76,78,80,-1,82,84,86,88,90,92,94,96,98,-1,100,102,104,106,-1,108,110,112,114,116,118,120,-1,-1,-1,-1,-1,-1,-1,-1,-1,-1,-1,-1,-1,-1,-1,-1,-1,-1,-1,-1,-1,-1,-1,-1,-1,-1,-1,-1,-1,-1,-1,-1,-1,-1,-1,-1,-1,-1,-1,-1,-1,-1,-1,-1,-1,-1,-1,-1,-1,-1,-1,-1,-1,-1,-1,-1,-1,-1],"split_conditions":[2.5992004E4,2.5976074E4,2.601564E4,2.5951004E4,2.5989566E4,2.601892E4,2.6022336E4,2.5915814E4,2.596948E4,2.5968055E4,2.5986516E4,2.6011455E4,2.601811E4,2.602116E4,2.568063E-3,2.5887375E4,2.592255E4,2.594149E4,2.5966215E4,2.5977766E4,2.5983719E4,2.599567E4,5.1213436E1,2.600864E4,2.6015102E4,5.4426434E1,-8.115564E0,2.601909E4,2.603189E4,-1.9219494E1,2.6201996E4,2.5850324E4,2.590705E4,2.59008E4,2.591581E4,9.472357E0,2.5953475E4,3.474597E1,2.5949352E4,2.5929129E4,-4.1833277E0,2.5972254E4,2.5979824E4,-1.2642676E1,7.235948E1,1.6154629E1,2.5997434E4,2.600364E4,2.600699E4,1.17255895E-5,1.6501206E0,2.602452E4,2.602504E4,3.1806126E1,2.6011266E4,-1.3801674E0,1.0202125E1,2.603189E4,2.2132955E-3,2.613552E4,2.6104074E4,2.612889E4,2.624168E4,3.781335E-1,-1.5279607E0,1.6437463E0,3.1939607E0,-4.191527E0,-2.182306E0,-1.1818779E0,1.848344E-1,1.4256837E0,3.0557816E0,5.637024E-1,2.0685115E0,4.15997E0,9.085938E-1,5.0925297E-1,3.1083732E0,-7.675782E-2,-2.2383878E0,-2.6895998E0,-1.6131697E0,-1.21223964E-1,-1.1452149E0,-8.597378E-1,2.460405E-1,1.4107356E0,-2.129297E0,-1.8060711E-1,-1.0790989E0,-5.587891E0,-2.3102345E0,3.9598912E-1,1.5139054E0,-1.366092E-1,7.2014713E-1,1.1720977E0,6.376465E-1,2.1892998E0,3.8888066E0,1.9960939E0,-1.6924806E0,2.6561944E0,-8.191407E-1,-5.5320877E-1,1.1221485E0,-9.405579E-1,-3.3310547E-1,-4.750651E-1,6.8060607E-1,-1.8855176E0,1.2919922E-1,-1.9409181E-1,1.7525793E0,4.5124668E-1,2.7418777E-1,4.39074E-1,-1.5459375E0,6.5549364E0,9.816004E-1],"split_indices":[2,1,2,1,1,1,2,1,1,2,0,2,0,1,5,1,1,0,0,0,1,1,7,1,1,7,3,1,0,3,1,2,1,2,2,6,2,4,2,2,0,2,0,4,6,7,0,1,2,5,0,1,1,7,2,0,6,1,5,1,1,0,0,0,0,0,0,0,0,0,0,0,0,0,0,0,0,0,0,0,0,0,0,0,0,0,0,0,0,0,0,0,0,0,0,0,0,0,0,0,0,0,0,0,0,0,0,0,0,0,0,0,0,0,0,0,0,0,0,0,0],"split_type":[0,0,0,0,0,0,0,0,0,0,0,0,0,0,0,0,0,0,0,0,0,0,0,0,0,0,0,0,0,0,0,0,0,0,0,0,0,0,0,0,0,0,0,0,0,0,0,0,0,0,0,0,0,0,0,0,0,0,0,0,0,0,0,0,0,0,0,0,0,0,0,0,0,0,0,0,0,0,0,0,0,0,0,0,0,0,0,0,0,0,0,0,0,0,0,0,0,0,0,0,0,0,0,0,0,0,0,0,0,0,0,0,0,0,0,0,0,0,0,0,0],"sum_hessian":[1.0057E4,1.229E3,8.828E3,9.17E2,3.12E2,5.9E2,8.238E3,6.93E2,2.24E2,1.06E2,2.06E2,4.44E2,1.46E2,2.81E2,7.957E3,4.68E2,2.25E2,1.72E2,5.2E1,4.5E1,6.1E1,5.6E1,1.5E2,3.55E2,8.9E1,7.4E1,7.2E1,1E2,1.81E2,7.894E3,6.3E1,3.79E2,8.9E1,4.3E1,1.82E2,2.4E1,1.48E2,2.3E1,2.9E1,2.4E1,2.1E1,2E1,4.1E1,2.7E1,2.9E1,1.44E2,6E0,1.36E2,2.19E2,5.6E1,3.3E1,6.9E1,5E0,2.3E1,4.9E1,3.4E1,6.6E1,1.61E2,2E1,9.9E1,7.795E3,2E1,4.3E1,2.98E2,8.1E1,5.1E1,3.8E1,1.2E1,3.1E1,4.1E1,1.41E2,5E0,1.9E1,9.5E1,5.3E1,2.1E1,2E0,7E0,2.2E1,3E0,2.1E1,7E0,1.3E1,8E0,3.3E1,6E0,2.1E1,2.8E1,1E0,7.1E1,7.3E1,2E0,4E0,5.5E1,8.1E1,1.22E2,9.7E1,4.9E1,7E0,4.1E1,2.8E1,2E0,3E0,2E1,3E0,2E1,2.9E1,6.3E1,3E0,1.25E2,3.6E1,1.9E1,1E0,2.7E1,7.2E1,4.317E3,3.478E3,1.6E1,4E0,1E1,3.3E1],"tree_param":{"num_deleted":"0","num_feature":"8","num_nodes":"121","size_leaf_vector":"0"}},{"base_weights":[8.573854E-1,6.865242E-1,1.3641711E0,9.16361E-1,-6.812457E-1,4.730115E0,8.774987E-1,7.1704096E-1,3.2532115E0,-5.1664352E0,-1.8933518E-1,2.9156158E0,8.1203375E0,-3.2514875E0,1.2243487E0,-1.06504E0,7.8645253E-1,5.690273E0,2.7821898E0,-8.5784316E-2,-9.621642E0,1.05699554E-1,-3.4542341E0,2.204336E0,4.6168675E0,1.1136574E1,5.1721106E0,-4.6517196E0,-1.4215666E0,2.603918E0,7.773829E-1,3.1226852E0,-1.6335858E0,6.4989123E0,7.062555E-1,9.895647E0,4.74078E0,-2.1789505E0,3.4778001E0,6.999349E0,-1.0080673E0,-1.079716E1,-3.016992E0,-1.3628349E-1,9.30698E0,4.7578125E0,-3.9426239E0,3.9429321E0,1.7182904E0,8.807514E0,1.5687614E1,1.299707E1,4.188679E0,-5.5442424E0,-2.3677263E0,-3.3566338E-1,-4.4453125E0,1.7380278E0,4.0688767E0,-4.450259E0,1.224397E0,6.9718426E-1,1.689502E1,1.3746676E-1,-3.2186372E0,4.049443E0,1.1336313E1,-7.2522697E0,7.587031E-1,-4.5247397E-1,1.165804E1,3.5497425E0,7.06978E0,-8.347265E0,-1.5050622E0,2.8241122E0,5.240664E0,-6.738281E-1,1.1004395E1,-1.4234375E1,-3.9782986E-1,-1.5368164E1,-9.348257E0,-5.934082E0,5.767578E0,-1.1695278E0,5.257125E-1,1.5738814E1,3.148738E0,8.59375E-1,5.517578E0,-7.25093E0,-2.6546052E0,2.459961E0,4.4162703E0,8.105469E-2,2.4560547E0,9.066512E0,-3.876953E-1,-6.355794E-1,5.4673085E0,-6.1577806E0,-4.6883287E0,-2.5801563E0,-8.3203125E-1,-1.134367E0,4.0501304E0,-5.9624023E0,-1.9286025E0,2.3001783E0,-3.322937E0,3.7642863E0,1.0337402E1,-5.72872E0,-1.3584248E0,-7.584274E-1,1.4775561E0],"categories":[],"categories_nodes":[],"categories_segments":[],"categories_sizes":[],"default_left":[1,1,1,1,1,1,1,1,1,1,1,1,1,1,1,1,1,1,1,1,1,1,1,1,0,1,1,1,1,1,1,1,1,1,1,1,1,1,1,1,1,1,1,1,1,1,1,1,1,1,0,0,1,1,1,1,1,1,1,1,1,0,0,0,0,0,0,0,0,0,0,0,0,0,0,0,0,0,0,0,0,0,0,0,0,0,0,0,0,0,0,0,0,0,0,0,0,0,0,0,0,0,0,0,0,0,0,0,0,0,0,0,0,0,0,0,0],"id":29,"left_children":[1,3,5,7,9,11,13,15,17,19,21,23,25,27,29,31,33,35,37,39,41,43,45,47,-1,49,51,53,55,57,59,61,63,65,67,69,71,73,75,77,79,81,83,85,87,89,91,93,95,97,-1,-1,99,101,103,105,107,109,111,113,115,-1,-1,-1,-1,-1,-1,-1,-1,-1,-1,-1,-1,-1,-1,-1,-1,-1,-1,-1,-1,-1,-1,-1,-1,-1,-1,-1,-1,-1,-1,-1,-1,-1,-1,-1,-1,-1,-1,-1,-1,-1,-1,-1,-1,-1,-1,-1,-1,-1,-1,-1,-1,-1,-1,-1,-1],"loss_changes":[8.6998584E2,2.365897E3,4.148463E3,2.9982285E3,2.3884575E3,1.9448223E3,3.1776E3,7.3522656E2,5.6501025E2,2.421157E3,9.4146875E2,2.4393665E2,9.2947266E2,4.3410498E2,1.2589641E3,5.360449E2,2.61358E3,2.7651782E2,1.4777124E3,3.403152E2,4.099663E2,1.9984873E3,3.436231E2,1.1998047E2,0E0,4.342129E2,3.9188757E2,1.8460889E2,2.4805351E2,6.2717456E2,3.6181875E3,8.901509E2,5.5346277E2,8.901704E2,2.3584187E3,2.6059937E2,1.63531E2,2.0774487E2,4.1618408E2,1.9180362E2,3.656118E2,1.7423633E2,2.9047906E2,5.99118E2,8.614446E2,1.0067825E1,3.0886096E2,1.159845E1,1.4354031E2,9.401318E1,0E0,0E0,3.3040216E2,7.364746E0,7.313843E0,2.0426247E2,6.48624E1,9.0667053E2,3.1431348E2,4.7445825E2,7.16428E2,0E0,0E0,0E0,0E0,0E0,0E0,0E0,0E0,0E0,0E0,0E0,0E0,0E0,0E0,0E0,0E0,0E0,0E0,0E0,0E0,0E0,0E0,0E0,0E0,0E0,0E0,0E0,0E0,0E0,0E0,0E0,0E0,0E0,0E0,0E0,0E0,0E0,0E0,0E0,0E0,0E0,0E0,0E0,0E0,0E0,0E0,0E0,0E0,0E0,0E0,0E0,0E0,0E0,0E0,0E0,0E0],"parents":[2147483647,0,0,1,1,2,2,3,3,4,4,5,5,6,6,7,7,8,8,9,9,10,10,11,11,12,12,13,13,14,14,15,15,16,16,17,17,18,18,19,19,20,20,21,21,22,22,23,23,25,25,26,26,27,27,28,28,29,29,30,30,31,31,32,32,33,33,34,34,35,35,36,36,37,37,38,38,39,39,40,40,41,41,42,42,43,43,44,44,45,45,46,46,47,47,48,48,49,49,52,52,53,53,54,54,55,55,56,56,57,57,58,58,59,59,60,60],"right_children":[2,4,6,8,10,12,14,16,18,20,22,24,26,28,30,32,34,36,38,40,42,44,46,48,-1,50,52,54,56,58,60,62,64,66,68,70,72,74,76,78,80,82,84,86,88,90,92,94,96,98,-1,-1,100,102,104,106,108,110,112,114,116,-1,-1,-1,-1,-1,-1,-1,-1,-1,-1,-1,-1,-1,-1,-1,-1,-1,-1,-1,-1,-1,-1,-1,-1,-1,-1,-1,-1,-1,-1,-1,-1,-1,-1,-1,-1,-1,-1,-1,-1,-1,-1,-1,-1,-1,-1,-1,-1,-1,-1,-1,-1,-1,-1,-1,-1],"split_conditions":[2.6126004E4,2.6104074E4,2.6137555E4,2.6090695E4,2.609658E4,2.6138996E4,2.6143066E4,2.5847125E4,2.608837E4,2.6097346E4,2.6128875E4,2.6132455E4,2.613746E4,2.6145191E4,2.6181164E4,-3.9180813E1,2.5850324E4,-3.6067964E-4,2.6087395E4,2.606667E4,3.1430342E1,2.6137996E4,-3.0378067E1,2.61288E4,1.3850603E0,2.6145996E4,-1.3244251E1,2.614158E4,2.614802E4,2.6162455E4,2.6202395E4,-4.246116E1,1.0998098E1,2.5845156E4,2.5871816E4,-2.0462523E1,2.609604E4,2.607269E4,2.6101016E4,2.604526E4,2.6070664E4,2.607975E4,8.625086E0,2.6112906E4,2.612032E4,-3.7564644E1,2.6118855E4,2.6127414E4,2.613196E4,1.6657953E-3,4.7062845E0,3.8991213E0,2.6131305E4,2.6139375E4,2.614444E4,2.615355E4,2.6141879E4,2.616667E4,2.619949E4,2.619098E4,2.6361379E4,2.0915529E-1,5.0685062E0,4.124003E-2,-9.655912E-1,1.2148329E0,3.4008942E0,-2.175681E0,2.2761095E-1,-1.357422E-1,3.4974122E0,1.0649228E0,2.120934E0,-2.5041797E0,-4.5151868E-1,8.472337E-1,1.5721992E0,-2.0214845E-1,3.3013184E0,-4.270313E0,-1.19348966E-1,-4.6104493E0,-2.8044772E0,-1.7802247E0,1.7302735E0,-3.5085833E-1,1.5771376E-1,4.7216444E0,9.446214E-1,2.578125E-1,1.6552736E0,-2.1752791E0,-7.963816E-1,7.379883E-1,1.3248811E0,2.4316408E-2,7.368164E-1,2.7199538E0,-1.163086E-1,-1.9067383E-1,1.6401926E0,-1.8473343E0,-1.4064987E0,-7.7404696E-1,-2.4960938E-1,-3.403101E-1,1.2150391E0,-1.7887207E0,-5.7858074E-1,6.900535E-1,-9.968811E-1,1.1292859E0,3.1012208E0,-1.7186161E0,-4.0752745E-1,-2.2752823E-1,4.4326684E-1],"split_indices":[2,1,2,1,2,1,2,1,0,0,0,2,0,1,2,3,2,5,2,2,6,1,3,1,0,1,4,2,0,2,1,3,6,2,1,3,1,2,1,0,2,2,4,1,0,4,2,1,1,5,0,0,2,2,1,1,2,0,1,2,1,0,0,0,0,0,0,0,0,0,0,0,0,0,0,0,0,0,0,0,0,0,0,0,0,0,0,0,0,0,0,0,0,0,0,0,0,0,0,0,0,0,0,0,0,0,0,0,0,0,0,0,0,0,0,0,0],"split_type":[0,0,0,0,0,0,0,0,0,0,0,0,0,0,0,0,0,0,0,0,0,0,0,0,0,0,0,0,0,0,0,0,0,0,0,0,0,0,0,0,0,0,0,0,0,0,0,0,0,0,0,0,0,0,0,0,0,0,0,0,0,0,0,0,0,0,0,0,0,0,0,0,0,0,0,0,0,0,0,0,0,0,0,0,0,0,0,0,0,0,0,0,0,0,0,0,0,0,0,0,0,0,0,0,0,0,0,0,0,0,0,0,0,0,0,0,0],"sum_hessian":[1.0057E4,7.523E3,2.534E3,6.441E3,1.082E3,3.19E2,2.215E3,5.936E3,5.05E2,1.06E2,9.76E2,2.09E2,1.1E2,1.71E2,2.044E3,2.22E2,5.714E3,8E1,4.25E2,5E1,5.6E1,8.96E2,8E1,1.49E2,6E1,5.3E1,5.7E1,9.6E1,7.5E1,4.99E2,1.545E3,2.6E1,1.96E2,7.8E1,5.636E3,1.3E1,6.7E1,5.2E1,3.73E2,5E0,4.5E1,4.7E1,9E0,8.74E2,2.2E1,4E0,7.6E1,3.1E1,1.18E2,3.7E1,1.6E1,5E0,5.2E1,6.8E1,2.8E1,5.6E1,1.9E1,3.15E2,1.84E2,1.21E2,1.424E3,2.3E1,3E0,9.3E1,1.03E2,5.3E1,2.5E1,3.6E1,5.6E3,2E0,1.1E1,4.6E1,2.1E1,4E0,4.8E1,2.74E2,9.9E1,2E0,3E0,1E0,4.4E1,9E0,3.8E1,7E0,2E0,3.41E2,5.33E2,1E1,1.2E1,1E0,3E0,2E1,5.6E1,9E0,2.2E1,3.7E1,8.1E1,3.6E1,1E0,1.1E1,4.1E1,3.6E1,3.2E1,2.4E1,4E0,4.8E1,8E0,1.1E1,8E0,2.84E2,3.1E1,1.77E2,7E0,8.5E1,3.6E1,1.61E2,1.263E3],"tree_param":{"num_deleted":"0","num_feature":"8","num_nodes":"117","size_leaf_vector":"0"}},{"base_weights":[6.018194E-1,5.749063E-1,2.6368678E0,6.3173085E-1,-7.981062E-1,1.1992415E0,5.267281E0,5.770571E-1,2.57968E0,6.1637723E-1,-2.732948E0,1.2808105E1,6.2532943E-1,1.434554E1,2.004241E0,-2.5313628E0,5.945182E-1,-3.3748605E0,2.9067402E0,-5.8134574E-1,2.8978937E0,-5.8770394E0,-5.676367E-1,3.540039E0,1.4717448E1,5.8320312E0,-6.089729E-1,7.428955E0,2.2542969E1,6.323351E0,-2.4262152E0,1.9447544E-1,-7.6909723E0,1.57890625E1,5.911588E-1,1.8294271E0,-4.394694E0,9.22832E0,2.6289144E0,-3.511621E0,4.7037178E-1,2.0123239E0,9.562066E0,-1.8733724E0,-7.174862E0,1.0024196E0,-3.644876E0,7.0234375E0,2.6757812E0,-3.7203882E-2,-5.5862164E0,-9.921875E-1,8.773717E0,2.7489746E1,1.3779297E0,2.305385E0,1.6308985E1,-8.284877E0,1.1935221E0,-1.8323103E0,7.263916E0,-1.3464355E1,-2.7929688E0,3.6739486E-1,7.647389E-1,2.1708984E0,5.732422E-1,-5.596137E0,-5.9277344E-1,3.6048176E0,1.4130859E1,5.7985387E0,2.2128353E0,-4.669108E0,5.5246096E0,1.0227189E0,-7.9609375E0,1.669629E1,1.5640346E0,1.7421875E1,2.7285156E0,-4.3637695E0,2.6635044E0,-7.597412E0,-3.1054688E-1,-3.0955882E0,2.3487668E0,3.511963E-1,-6.818154E0,6.9970703E-1,4.4186196E0,-2.4016926E0,1.7371962E0,-6.6789064E0,-1.9029948E0,2.59375E0,9.371419E0,-9.08138E0,4.959961E0,1.9019531E1,2.7333984E0,-1.2457422E1,1.4309896E0,-2.2769532E0,3.213379E0],"categories":[],"categories_nodes":[],"categories_segments":[],"categories_sizes":[],"default_left":[1,1,1,1,1,1,1,1,1,1,1,1,1,1,1,1,1,1,1,1,1,1,1,0,0,1,1,1,1,1,1,1,1,0,1,1,1,1,1,1,1,1,1,1,1,1,1,0,1,1,1,0,1,0,0,1,1,1,1,0,0,0,0,0,0,0,0,0,0,0,0,0,0,0,0,0,0,0,0,0,0,0,0,0,0,0,0,0,0,0,0,0,0,0,0,0,0,0,0,0,0,0,0,0,0],"id":30,"left_children":[1,3,5,7,9,11,13,15,17,19,21,23,25,27,29,31,33,35,37,39,41,43,45,-1,-1,47,49,51,53,55,57,59,61,-1,63,65,67,69,71,73,75,77,79,81,83,85,87,-1,89,91,93,-1,95,-1,-1,97,99,101,103,-1,-1,-1,-1,-1,-1,-1,-1,-1,-1,-1,-1,-1,-1,-1,-1,-1,-1,-1,-1,-1,-1,-1,-1,-1,-1,-1,-1,-1,-1,-1,-1,-1,-1,-1,-1,-1,-1,-1,-1,-1,-1,-1,-1,-1,-1],"loss_changes":[5.49355E2,7.750945E2,4.8906635E2,1.0138977E3,1.0827214E3,5.649628E2,1.3338936E3,5.0491748E2,5.161581E2,6.274557E2,1.1335894E3,1.868335E1,5.36963E2,5.129077E2,6.8508875E2,7.328373E2,4.6149902E2,8.2344864E1,4.0954517E2,4.6700693E2,4.4698352E2,3.3989014E2,4.8679755E2,0E0,0E0,4.1372803E1,1.9330885E2,9.930063E1,4.8561475E2,6.8459625E2,3.916109E2,5.147982E2,4.713993E2,0E0,3.5794922E2,4.240322E-2,5.149623E1,2.2475531E2,3.0104663E2,4.441678E2,5.2972687E2,4.412557E2,4.358578E2,2.1499818E2,1.455669E2,3.769327E2,4.3353656E2,0E0,1.7572128E1,2.6429626E2,1.5462402E1,0E0,1.5493164E0,0E0,0E0,4.6822177E2,1.3199841E2,3.0160568E2,9.143507E1,0E0,0E0,0E0,0E0,0E0,0E0,0E0,0E0,0E0,0E0,0E0,0E0,0E0,0E0,0E0,0E0,0E0,0E0,0E0,0E0,0E0,0E0,0E0,0E0,0E0,0E0,0E0,0E0,0E0,0E0,0E0,0E0,0E0,0E0,0E0,0E0,0E0,0E0,0E0,0E0,0E0,0E0,0E0,0E0,0E0,0E0],"parents":[2147483647,0,0,1,1,2,2,3,3,4,4,5,5,6,6,7,7,8,8,9,9,10,10,11,11,12,12,13,13,14,14,15,15,16,16,17,17,18,18,19,19,20,20,21,21,22,22,25,25,26,26,27,27,28,28,29,29,30,30,31,31,32,32,34,34,35,35,36,36,37,37,38,38,39,39,40,40,41,41,42,42,43,43,44,44,45,45,46,46,48,48,49,49,50,50,52,52,55,55,56,56,57,57,58,58],"right_children":[2,4,6,8,10,12,14,16,18,20,22,24,26,28,30,32,34,36,38,40,42,44,46,-1,-1,48,50,52,54,56,58,60,62,-1,64,66,68,70,72,74,76,78,80,82,84,86,88,-1,90,92,94,-1,96,-1,-1,98,100,102,104,-1,-1,-1,-1,-1,-1,-1,-1,-1,-1,-1,-1,-1,-1,-1,-1,-1,-1,-1,-1,-1,-1,-1,-1,-1,-1,-1,-1,-1,-1,-1,-1,-1,-1,-1,-1,-1,-1,-1,-1,-1,-1,-1,-1,-1,-1],"split_conditions":[2.4444433E-3,2.154292E1,2.6203969E4,1.2269664E-3,1.5372757E-4,2.565764E4,2.624168E4,2.5813805E4,2.5816516E4,5.2977818E1,1.5324883E-3,2.5684602E4,2.7729256E1,3.2986864E-3,4.062185E1,2.5755629E4,2.5766865E4,2.5686E4,2.585023E4,-2.5798804E-3,-4.917931E-4,8.3778996E-4,2.8465801E1,1.0620117E0,4.4152346E0,2.6042941E4,6.1947006E1,2.6152555E4,5.3627333E-3,3.2592083E1,2.6384895E4,6.7260666E0,2.579546E4,4.736719E0,-1.0471362E-4,2.56646E4,3.3676903E1,2.5854545E4,1.325824E1,4.111147E1,-4.0251372E-4,-7.742622E1,-1.5627015E-4,2.615044E4,3.3468452E1,2.597752E4,3.3507427E1,2.1070313E0,2.609904E4,2.9221468E-3,3.8779366E1,-2.9765627E-1,2.6223969E4,8.246924E0,4.1337892E-1,2.8379715E1,2.6794621E4,6.1752573E-3,4.9392845E1,-5.496931E-1,2.179175E0,-4.0393066E0,-8.378907E-1,1.10218465E-1,2.2942169E-1,6.5126956E-1,1.7197266E-1,-1.6788412E0,-1.7783204E-1,1.0814453E0,4.239258E0,1.7395617E0,6.638506E-1,-1.4007324E0,1.657383E0,3.0681568E-1,-2.3882813E0,5.008887E0,4.692104E-1,5.2265625E0,8.185547E-1,-1.3091309E0,7.9905134E-1,-2.2792237E0,-9.3164064E-2,-9.286765E-1,7.046301E-1,1.0535889E-1,-2.0454462E0,2.0991212E-1,1.325586E0,-7.205078E-1,5.211589E-1,-2.0036721E0,-5.708985E-1,7.7812505E-1,2.8114257E0,-2.724414E0,1.4879884E0,5.7058597E0,8.2001954E-1,-3.7372267E0,4.292969E-1,-6.83086E-1,9.640137E-1],"split_indices":[5,6,1,5,5,0,0,1,2,7,5,1,6,5,6,2,0,0,2,5,5,5,6,0,0,0,7,0,5,4,2,3,1,0,5,0,7,1,6,6,5,3,5,2,6,2,7,0,0,5,3,0,1,0,0,6,0,5,6,0,0,0,0,0,0,0,0,0,0,0,0,0,0,0,0,0,0,0,0,0,0,0,0,0,0,0,0,0,0,0,0,0,0,0,0,0,0,0,0,0,0,0,0,0,0],"split_type":[0,0,0,0,0,0,0,0,0,0,0,0,0,0,0,0,0,0,0,0,0,0,0,0,0,0,0,0,0,0,0,0,0,0,0,0,0,0,0,0,0,0,0,0,0,0,0,0,0,0,0,0,0,0,0,0,0,0,0,0,0,0,0,0,0,0,0,0,0,0,0,0,0,0,0,0,0,0,0,0,0,0,0,0,0,0,0,0,0,0,0,0,0,0,0,0,0,0,0,0,0,0,0,0,0],"sum_hessian":[1.0057E4,9.927E3,1.3E2,9.533E3,3.94E2,8.5E1,4.5E1,9.274E3,2.59E2,2.28E2,1.66E2,3E0,8.2E1,1.1E1,3.4E1,5.1E1,9.223E3,1.3E1,2.46E2,1.5E2,7.8E1,6.7E1,9.9E1,1E0,2E0,1.5E1,6.7E1,7E0,4E0,1.7E1,1.7E1,3.4E1,1.7E1,1E0,9.222E3,2E0,1.1E1,9E0,2.37E2,3.9E1,1.11E2,7E1,8E0,1.7E1,5E1,6.6E1,3.3E1,1E1,5E0,6.1E1,6E0,1E0,6E0,3E0,1E0,1.3E1,4E0,6E0,1.1E1,2.7E1,7E0,7E0,1E1,4.03E3,5.192E3,1E0,1E0,8E0,3E0,5E0,4E0,2.6E1,2.11E2,3.5E1,4E0,1.05E2,6E0,1E0,6.9E1,3E0,5E0,1.1E1,6E0,4.7E1,3E0,1.6E1,5E1,1.5E1,1.8E1,3E0,2E0,2.6E1,3.5E1,4E0,2E0,1E0,5E0,2E0,1.1E1,3E0,1E0,4E0,2E0,4E0,7E0],"tree_param":{"num_deleted":"0","num_feature":"8","num_nodes":"105","size_leaf_vector":"0"}},{"base_weights":[4.25422E-1,3.981333E-1,1.8876529E0,4.0771493E-1,-1.5430013E1,8.032129E0,1.1314275E0,1.1916667E1,4.0417475E-1,-4.8292823E0,2.2811236E0,1.4191406E1,3.6835938E0,-1.7517775E0,4.2375302E-1,-6.9496784E0,-1.1132812E0,5.6357737E0,1.306121E0,-2.3007812E0,3.3838975E0,1.0204502E0,3.645654E-1,-8.42223E0,-3.642857E0,3.1243489E0,-2.4021268E0,1.3976562E0,7.3060193E0,-3.8256836E0,2.4320095E0,-2.8024402E0,2.0238714E0,8.199219E0,-2.1082032E0,1.4946662E-1,4.4887776E0,-4.2021594E0,4.5879087E-1,-4.186035E0,-9.487549E0,-4.84375E-1,-4.0885415E0,1.2239584E0,-3.6130023E0,4.2148438E0,-1.1829427E0,-1.1614584E0,8.21084E0,-4.9694695E0,8.953125E0,4.602995E0,1.3244429E0],"categories":[],"categories_nodes":[],"categories_segments":[],"categories_sizes":[],"default_left":[1,1,1,1,0,0,1,1,1,1,1,0,0,1,1,1,1,1,1,1,1,1,1,1,1,0,1,1,1,1,1,0,0,0,0,0,0,0,0,0,0,0,0,0,0,0,0,0,0,0,0,0,0],"id":31,"left_children":[1,3,5,7,-1,-1,9,11,13,15,17,-1,-1,19,21,23,25,27,29,31,33,35,37,39,41,-1,43,45,47,49,51,-1,-1,-1,-1,-1,-1,-1,-1,-1,-1,-1,-1,-1,-1,-1,-1,-1,-1,-1,-1,-1,-1],"loss_changes":[4.0058655E2,1.5039291E3,8.458881E2,3.9732544E2,0E0,0E0,1.1417618E3,3.908905E0,4.1726892E2,2.0500671E2,4.4727917E2,0E0,0E0,2.5872153E2,3.4502917E2,5.2099915E1,6.758324E1,2.0922833E2,6.390887E2,1.8140128E2,2.5530167E2,2.6637246E3,3.8311826E3,9.926697E0,7.873413E0,0E0,4.3938812E1,7.7686226E1,1.7809058E2,3.368167E2,2.1030951E2,0E0,0E0,0E0,0E0,0E0,0E0,0E0,0E0,0E0,0E0,0E0,0E0,0E0,0E0,0E0,0E0,0E0,0E0,0E0,0E0,0E0,0E0],"parents":[2147483647,0,0,1,1,2,2,3,3,6,6,7,7,8,8,9,9,10,10,13,13,14,14,15,15,16,16,17,17,18,18,19,19,20,20,21,21,22,22,23,23,24,24,26,26,27,27,28,28,29,29,30,30],"right_children":[2,4,6,8,-1,-1,10,12,14,16,18,-1,-1,20,22,24,26,28,30,32,34,36,38,40,42,-1,44,46,48,50,52,-1,-1,-1,-1,-1,-1,-1,-1,-1,-1,-1,-1,-1,-1,-1,-1,-1,-1,-1,-1,-1,-1],"split_conditions":[2.6522795E4,2.6539629E4,2.653701E4,-7.741586E1,-4.629004E0,2.409639E0,2.6561469E4,2.6248596E4,-2.23556E-3,2.3748014E1,2.6579898E4,4.257422E0,1.1050782E0,6.787665E1,2.5976074E4,2.6536215E4,2.6539E4,2.656723E4,2.6578004E4,2.1097797E1,-2.3853245E1,2.5955879E4,2.599561E4,2.6528004E4,2.6542305E4,9.373047E-1,2.4113073E1,1.4020367E1,-1.3763987E1,7.251712E1,2.6603564E4,-8.407321E-1,6.0716146E-1,2.4597657E0,-6.3246095E-1,4.4839986E-2,1.3466333E0,-1.2606479E0,1.3763727E-1,-1.2558106E0,-2.8462648E0,-1.453125E-1,-1.2265625E0,3.6718753E-1,-1.0839007E0,1.2644532E0,-3.5488284E-1,-3.4843752E-1,2.463252E0,-1.4908409E0,2.6859376E0,1.3808985E0,3.9733288E-1],"split_indices":[2,0,1,3,0,0,1,0,5,7,1,0,0,6,1,2,0,1,2,3,4,1,1,2,0,0,7,3,4,7,0,0,0,0,0,0,0,0,0,0,0,0,0,0,0,0,0,0,0,0,0,0,0],"split_type":[0,0,0,0,0,0,0,0,0,0,0,0,0,0,0,0,0,0,0,0,0,0,0,0,0,0,0,0,0,0,0,0,0,0,0,0,0,0,0,0,0,0,0,0,0,0,0,0,0,0,0,0,0],"sum_hessian":[1.0057E4,9.874E3,1.83E2,9.869E3,5E0,1.9E1,1.64E2,2E0,9.867E3,2.6E1,1.38E2,1E0,1E0,8.8E1,9.779E3,1.6E1,1E1,3E1,1.08E2,8E1,8E0,8.81E2,8.898E3,1E1,6E0,2E0,8E0,9E0,2.1E1,1.9E1,8.9E1,7.2E1,8E0,4E0,4E0,7.05E2,1.76E2,1.79E2,8.719E3,3E0,7E0,1E0,5E0,2E0,6E0,4E0,5E0,2E0,1.9E1,1.8E1,1E0,2.9E1,6E1],"tree_param":{"num_deleted":"0","num_feature":"8","num_nodes":"53","size_leaf_vector":"0"}},{"base_weights":[2.991557E-1,2.7458945E-1,1.779547E0,3.111434E-1,-6.806721E-1,2.1350303E0,-3.9083984E0,2.3954532E-1,1.075528E0,5.8307177E-1,-2.788093E0,1.7863439E0,8.318848E0,-6.6791296E0,1.9174805E0,-2.5161023E0,2.5381705E-1,1.1879084E1,9.2675054E-1,-3.5635417E0,8.696584E-1,-4.1589584E0,-1.1118551E0,1.970464E0,-1.2639648E1,-3.0791016E0,1.0386998E1,-8.486816E0,-3.2016602E0,2.6533203E0,7.8776044E-1,-4.046875E0,1.1625279E0,2.4052891E-1,3.1891026E0,-7.578125E-1,1.4771484E1,1.8932061E0,2.2470954E-1,-4.4813566E0,-8.316406E-1,-5.2182907E-1,2.107045E0,-7.303711E0,-3.381773E0,1.1647727E-1,-3.7585938E0,4.6910806E0,1.2620829E0,1.58203125E1,5.049609E0,-2.7021484E0,-1.0767969E1,5.6510415E0,-1.9589844E0,-1.4206583E0,2.6430717E-1,4.3092914E0,3.095703E-1,4.1308594E-1,-1.5498047E0,1.6087646E1,2.1210938E0,1.7992758E0,9.310059E0,-8.515199E-1,1.2506754E0,-2.1358817E0,-6.86875E0,5.078125E-1,-1.293457E0,7.4269533E0,-9.2205435E-1,9.0304685E-1,4.3118653E0,-1.3957683E1,-5.0315757E0,3.7478298E-1,-3.9452403E0,5.6464844E0,-7.3727965E-1,-1.602539E1,-2.2695312E0,-6.5439453E0,5.3041487E0,2.1502757E-1,3.842601E0,1.1025391E0,5.760742E0],"categories":[],"categories_nodes":[],"categories_segments":[],"categories_sizes":[],"default_left":[1,1,1,1,1,1,1,1,1,1,1,1,1,1,1,1,1,1,1,1,1,1,1,1,0,0,1,0,0,0,0,1,1,1,1,1,1,1,1,1,1,1,1,1,1,1,1,1,1,0,1,0,0,0,0,0,0,0,0,0,0,0,0,0,0,0,0,0,0,0,0,0,0,0,0,0,0,0,0,0,0,0,0,0,0,0,0,0,0],"id":32,"left_children":[1,3,5,7,9,11,13,15,17,19,21,23,25,27,29,31,33,35,37,39,41,43,45,47,-1,-1,49,-1,-1,-1,-1,51,53,55,57,59,61,63,65,67,69,71,73,75,77,79,81,83,85,-1,87,-1,-1,-1,-1,-1,-1,-1,-1,-1,-1,-1,-1,-1,-1,-1,-1,-1,-1,-1,-1,-1,-1,-1,-1,-1,-1,-1,-1,-1,-1,-1,-1,-1,-1,-1,-1,-1,-1],"loss_changes":[3.6529767E2,3.4573132E2,3.3994757E2,5.213594E2,9.737083E2,3.1935254E2,1.7422655E2,3.4342078E2,1.3005688E3,2.7523444E2,3.1018774E2,4.1801083E2,2.2056396E2,1.683133E1,1.2349911E0,2.5810617E2,3.3748022E2,4.1325464E2,5.464386E2,3.3883804E1,3.7128824E2,1.5860461E2,2.0525551E2,2.773828E2,0E0,0E0,1.2311163E2,0E0,0E0,0E0,0E0,2.6012036E2,2.0722362E2,3.414197E2,1.2446518E2,3.4222298E0,1.157262E2,2.1941907E2,5.178187E2,4.692447E1,3.7497408E0,3.3134103E2,2.987305E2,1.4143298E2,1.3271368E2,2.1189943E2,3.2895044E2,2.413451E2,3.180033E2,0E0,7.6830063E0,0E0,0E0,0E0,0E0,0E0,0E0,0E0,0E0,0E0,0E0,0E0,0E0,0E0,0E0,0E0,0E0,0E0,0E0,0E0,0E0,0E0,0E0,0E0,0E0,0E0,0E0,0E0,0E0,0E0,0E0,0E0,0E0,0E0,0E0,0E0,0E0,0E0,0E0],"parents":[2147483647,0,0,1,1,2,2,3,3,4,4,5,5,6,6,7,7,8,8,9,9,10,10,11,11,12,12,13,13,14,14,15,15,16,16,17,17,18,18,19,19,20,20,21,21,22,22,23,23,26,26,31,31,32,32,33,33,34,34,35,35,36,36,37,37,38,38,39,39,40,40,41,41,42,42,43,43,44,44,45,45,46,46,47,47,48,48,50,50],"right_children":[2,4,6,8,10,12,14,16,18,20,22,24,26,28,30,32,34,36,38,40,42,44,46,48,-1,-1,50,-1,-1,-1,-1,52,54,56,58,60,62,64,66,68,70,72,74,76,78,80,82,84,86,-1,88,-1,-1,-1,-1,-1,-1,-1,-1,-1,-1,-1,-1,-1,-1,-1,-1,-1,-1,-1,-1,-1,-1,-1,-1,-1,-1,-1,-1,-1,-1,-1,-1,-1,-1,-1,-1,-1,-1],"split_conditions":[2.213597E-3,2.154292E1,7.474633E1,7.7820517E-4,1.5372757E-4,4.8460085E-3,2.6742035E4,2.5795195E4,-2.2571344E1,2.1911469E1,1.632255E-3,4.6479376E-3,-4.5623188E1,8.266011E1,2.669708E4,3.5582253E1,2.0553953E1,2.5817086E4,1.2208081E1,3.3683495E1,-2.1408042E-3,2.211306E1,2.8465801E1,2.6426476E1,-3.7918947E0,-9.237305E-1,1.0379866E1,-2.546045E0,-9.604981E-1,7.959961E-1,2.3632814E-1,3.1681774E1,3.8852837E1,-1.4766387E-3,3.532386E1,2.569757E4,-3.591517E1,3.7086437E1,1.2269664E-3,2.9104082E1,-1.2487017E-3,-6.3195946E1,5.0995354E1,-7.405211E0,2.5765816E1,-1.4641272E1,2.8828575E1,2.5703914E4,3.2635205E-3,4.7460938E0,1.9586391E1,-8.1064457E-1,-3.2303908E0,1.6953125E0,-5.8769536E-1,-4.2619753E-1,7.9292156E-2,1.2927874E0,9.28711E-2,1.2392578E-1,-4.649414E-1,4.826294E0,6.3632816E-1,5.3978276E-1,2.7930176E0,-2.5545597E-1,3.7520266E-1,-6.4076453E-1,-2.060625E0,1.5234375E-1,-3.8803712E-1,2.228086E0,-2.766163E-1,2.7091408E-1,1.2935597E0,-4.187305E0,-1.5094727E0,1.124349E-1,-1.1835722E0,1.6939454E0,-2.2118391E-1,-4.807617E0,-6.808594E-1,-1.9631836E0,1.5912447E0,6.4508274E-2,1.1527804E0,3.3076173E-1,1.7282227E0],"split_indices":[5,6,6,5,5,5,1,2,3,6,5,5,4,6,0,7,6,1,6,7,5,7,6,6,0,0,3,0,0,0,0,7,7,5,7,0,4,7,5,7,5,3,7,4,7,3,6,0,5,0,3,0,0,0,0,0,0,0,0,0,0,0,0,0,0,0,0,0,0,0,0,0,0,0,0,0,0,0,0,0,0,0,0,0,0,0,0,0,0],"split_type":[0,0,0,0,0,0,0,0,0,0,0,0,0,0,0,0,0,0,0,0,0,0,0,0,0,0,0,0,0,0,0,0,0,0,0,0,0,0,0,0,0,0,0,0,0,0,0,0,0,0,0,0,0,0,0,0,0,0,0,0,0,0,0,0,0,0,0,0,0,0,0,0,0,0,0,0,0,0,0,0,0,0,0,0,0,0,0,0,0],"sum_hessian":[1.0057E4,9.894E3,1.63E2,9.53E3,3.64E2,1.54E2,9E0,8.715E3,8.15E2,2.28E2,1.36E2,1.47E2,7E0,6E0,3E0,4.4E1,8.671E3,1E1,8.05E2,1.4E1,2.14E2,7.4E1,6.2E1,1.46E2,1E0,1E0,6E0,3E0,3E0,1E0,2E0,3.1E1,1.3E1,8.633E3,3.8E1,2E0,8E0,3.38E2,4.67E2,1E1,4E0,1.01E2,1.13E2,1.3E1,6.1E1,4.3E1,1.9E1,2.9E1,1.17E2,2E0,4E0,2.7E1,4E0,5E0,8E0,1.21E2,8.512E3,2.7E1,1.1E1,1E0,1E0,7E0,1E0,3.35E2,3E0,2.28E2,2.39E2,6E0,4E0,1E0,3E0,4E0,9.7E1,7.4E1,3.9E1,2E0,1.1E1,8E0,5.3E1,5E0,3.8E1,1E0,1.8E1,1E0,2.8E1,8.4E1,3.3E1,1E0,3E0],"tree_param":{"num_deleted":"0","num_feature":"8","num_nodes":"89","size_leaf_vector":"0"}},{"base_weights":[2.0847599E-1,1.0742999E-1,4.9873278E-1,2.6526117E-1,-1.0628127E0,2.57812E0,1.400574E-1,1.5214999E-1,1.8896896E0,-6.8720703E0,-5.177802E-1,1.9523562E0,7.87959E0,-2.4599564E0,4.2208886E-1,1.8669064E-1,-3.1348267E0,2.3351984E0,4.7930437E-1,-7.054219E0,3.3945312E0,-5.8411765E-1,7.1944757E0,8.1496865E-1,3.463329E0,1.1034352E1,5.3166504E0,-3.753646E0,-1.5311127E0,1.6619506E0,5.691477E-2,1.4536636E-1,3.0016646E0,-9.117839E0,-2.473252E0,1.9526998E0,4.177415E0,-1.0738157E0,2.7975726E0,-8.925781E-1,-7.388782E0,-3.8893297E-1,-3.0487618E0,-2.2128906E0,9.131185E0,1.2443348E0,-1.9345342E0,2.8003266E0,5.758484E0,5.1097655E0,1.2464243E1,8.806641E0,3.361558E0,-4.2900085E0,-2.3432436E0,-2.9489228E-1,-2.8018973E0,1.4272993E0,4.5255055E0,-3.9096823E0,3.398113E-1,3.855224E-1,-2.3296757E-1,4.200109E0,-1.0219494E0,-1.6689453E0,-1.02738285E1,-1.8854659E0,-6.5703125E0,4.2150693E0,1.7056497E0,4.4446125E0,-1.9355469E0,-6.885593E-1,-5.405078E0,3.2986739E0,-1.5703125E0,5.7265625E0,-3.979004E0,-1.1055176E1,-6.815033E0,-5.462104E-1,3.5292969E0,-3.2736394E0,4.9970703E0,8.608203E-1,3.8026457E0,-2.5304687E0,-2.0288086E-1,2.1011286E0,3.0765095E0,7.247461E0,3.0247896E0,5.8496094E0,1.0751953E0,9.2749023E-1,4.9726562E0,-1.3977865E0,-4.360761E0,-1.0849609E0,-2.4553223E0,-8.009983E-1,1.8300781E0,-3.9887526E0,-1.7384486E0,1.7273959E0,-9.469401E-1,3.088642E0,8.173611E0,-6.925714E0,-2.6913543E0,-7.3033506E-1,6.637332E-1],"categories":[],"categories_nodes":[],"categories_segments":[],"categories_sizes":[],"default_left":[1,1,1,1,1,1,1,1,1,1,1,1,1,1,1,1,1,1,1,1,0,1,1,1,1,1,1,1,1,1,1,1,1,1,1,1,1,1,1,1,1,1,1,0,0,1,1,1,1,1,0,0,1,1,1,1,1,1,1,1,1,0,0,0,0,0,0,0,0,0,0,0,0,0,0,0,0,0,0,0,0,0,0,0,0,0,0,0,0,0,0,0,0,0,0,0,0,0,0,0,0,0,0,0,0,0,0,0,0,0,0,0,0],"id":33,"left_children":[1,3,5,7,9,11,13,15,17,19,21,23,25,27,29,31,33,35,37,39,-1,41,43,45,47,49,51,53,55,57,59,61,63,65,67,69,71,73,75,77,79,81,83,-1,-1,85,87,89,91,93,-1,-1,95,97,99,101,103,105,107,109,111,-1,-1,-1,-1,-1,-1,-1,-1,-1,-1,-1,-1,-1,-1,-1,-1,-1,-1,-1,-1,-1,-1,-1,-1,-1,-1,-1,-1,-1,-1,-1,-1,-1,-1,-1,-1,-1,-1,-1,-1,-1,-1,-1,-1,-1,-1,-1,-1,-1,-1,-1,-1],"loss_changes":[2.949404E2,1.378519E3,1.9365464E3,1.2079932E3,2.8048916E3,1.2518884E3,1.6259994E3,6.987075E2,2.678098E2,1.6606885E2,4.1963098E2,5.866443E2,2.6475293E2,2.5500769E2,9.054363E2,7.0752856E2,2.3077466E2,2.2085254E2,3.7746115E2,1.480144E2,0E0,3.8654926E2,1.4774167E2,2.3497426E2,2.0756323E2,8.0326416E1,1.3415399E2,5.803125E1,2.0025787E2,2.9927173E2,1.7361515E3,5.45154E2,4.2863525E2,3.4518524E1,1.2969547E2,1.4427747E2,9.843799E1,1.0140302E2,9.7107574E1,1.2493346E2,7.401367E1,4.6288202E2,1.2310889E2,0E0,0E0,1.6450311E2,2.7349327E1,1.5936157E1,1.0833093E2,8.635284E0,0E0,0E0,6.2053802E1,7.0010986E0,1.1437836E0,7.244627E1,7.258185E1,3.0231122E2,1.5297687E2,3.5983557E2,5.010384E2,0E0,0E0,0E0,0E0,0E0,0E0,0E0,0E0,0E0,0E0,0E0,0E0,0E0,0E0,0E0,0E0,0E0,0E0,0E0,0E0,0E0,0E0,0E0,0E0,0E0,0E0,0E0,0E0,0E0,0E0,0E0,0E0,0E0,0E0,0E0,0E0,0E0,0E0,0E0,0E0,0E0,0E0,0E0,0E0,0E0,0E0,0E0,0E0,0E0,0E0,0E0,0E0],"parents":[2147483647,0,0,1,1,2,2,3,3,4,4,5,5,6,6,7,7,8,8,9,9,10,10,11,11,12,12,13,13,14,14,15,15,16,16,17,17,18,18,19,19,21,21,22,22,23,23,24,24,25,25,26,26,27,27,28,28,29,29,30,30,31,31,32,32,33,33,34,34,35,35,36,36,37,37,38,38,39,39,40,40,41,41,42,42,45,45,46,46,47,47,48,48,49,49,52,52,53,53,54,54,55,55,56,56,57,57,58,58,59,59,60,60],"right_children":[2,4,6,8,10,12,14,16,18,20,22,24,26,28,30,32,34,36,38,40,-1,42,44,46,48,50,52,54,56,58,60,62,64,66,68,70,72,74,76,78,80,82,84,-1,-1,86,88,90,92,94,-1,-1,96,98,100,102,104,106,108,110,112,-1,-1,-1,-1,-1,-1,-1,-1,-1,-1,-1,-1,-1,-1,-1,-1,-1,-1,-1,-1,-1,-1,-1,-1,-1,-1,-1,-1,-1,-1,-1,-1,-1,-1,-1,-1,-1,-1,-1,-1,-1,-1,-1,-1,-1,-1,-1,-1,-1,-1,-1,-1],"split_conditions":[2.6124746E4,2.6104064E4,2.6137555E4,2.6090275E4,2.6101023E4,2.6146555E4,2.6144955E4,2.6093691E4,2.6104074E4,2.5713684E-3,4.314292E1,2.6130969E4,2.613736E4,2.614409E4,2.6181164E4,2.6093965E4,2.607269E4,2.6102926E4,2.610955E4,-2.421615E1,1.0183594E0,2.61284E4,2.6133996E4,2.6134654E4,2.6140629E4,1.3971647E1,-8.505579E0,2.614085E4,2.6144691E4,2.6177414E4,2.619999E4,2.605185E4,2.6106305E4,2.6095E4,2.2062119E1,-5.5052864E-4,7.674775E0,1.6234484E1,2.6267674E-3,2.6107336E4,2.607975E4,2.6133516E4,2.6156574E4,-6.6386724E-1,2.7393556E0,2.6137035E4,1.7560894E1,2.6132455E4,2.6140746E4,2.6147738E4,3.739273E0,2.6419923E0,2.6135066E4,-6.221725E0,-5.3372464E0,2.615049E4,1.16421585E1,2.617726E4,2.618971E4,-6.414606E-5,2.639305E4,1.15656726E-1,-6.9890276E-2,1.2600328E0,-3.0658484E-1,-5.006836E-1,-3.0821488E0,-5.656398E-1,-1.9710938E0,1.2645209E0,5.1169497E-1,1.3333838E0,-5.806641E-1,-2.065678E-1,-1.6215235E0,9.896022E-1,-4.7109377E-1,1.7179688E0,-1.1937013E0,-3.3165529E0,-2.04451E0,-1.6386312E-1,1.0587891E0,-9.8209184E-1,1.4991212E0,2.582461E-1,1.1407938E0,-7.591407E-1,-6.086426E-2,6.303386E-1,9.229529E-1,2.1742384E0,9.074369E-1,1.7548829E0,3.225586E-1,2.782471E-1,